<?xml version="1.0"?>
<MethodSetup Method="BDT::BDT">
  <GeneralInfo>
    <Info name="TMVA Release" value="4.0.7 [262151]"/>
    <Info name="ROOT Release" value="5.27/06 [334598]"/>
    <Info name="Creator" value="andreypz"/>
    <Info name="Date" value="Tue Sep  4 19:07:23 2012"/>
    <Info name="Host" value="Linux lxbuild168.cern.ch 2.6.18-274.12.1.el5 #1 SMP Wed Nov 30 08:57:58 CET 2011 x86_64 x86_64 x86_64 GNU/Linux"/>
    <Info name="Dir" value="/uscms_data/d2/andreypz/cmssw/higgs2/CMSSW_4_4_4/src/NWU/Higgs/mva"/>
    <Info name="Training events" value="43796"/>
    <Info name="TrainingTime" value="32.9199"/>
    <Info name="AnalysisType" value="Classification"/>
  </GeneralInfo>
  <Options>
    <Option name="V" modified="Yes">False</Option>
    <Option name="VerbosityLevel" modified="No">Default</Option>
    <Option name="VarTransform" modified="No">None</Option>
    <Option name="H" modified="Yes">False</Option>
    <Option name="CreateMVAPdfs" modified="No">False</Option>
    <Option name="IgnoreNegWeightsInTraining" modified="No">False</Option>
    <Option name="NTrees" modified="Yes">400</Option>
    <Option name="BoostType" modified="Yes">AdaBoost</Option>
    <Option name="AdaBoostR2Loss" modified="No">quadratic</Option>
    <Option name="UseBaggedGrad" modified="No">False</Option>
    <Option name="GradBaggingFraction" modified="No">6.000000e-01</Option>
    <Option name="Shrinkage" modified="No">1.000000e+00</Option>
    <Option name="AdaBoostBeta" modified="Yes">1.000000e+00</Option>
    <Option name="UseRandomisedTrees" modified="No">False</Option>
    <Option name="UseNvars" modified="No">2</Option>
    <Option name="UseNTrainEvents" modified="No">43796</Option>
    <Option name="UseWeightedTrees" modified="No">True</Option>
    <Option name="UseYesNoLeaf" modified="No">True</Option>
    <Option name="NodePurityLimit" modified="No">5.000000e-01</Option>
    <Option name="SeparationType" modified="Yes">giniindex</Option>
    <Option name="nEventsMin" modified="Yes">40</Option>
    <Option name="nCuts" modified="Yes">20</Option>
    <Option name="PruneStrength" modified="No">-1.000000e+00</Option>
    <Option name="PruneMethod" modified="No">costcomplexity</Option>
    <Option name="PruneBeforeBoost" modified="No">False</Option>
    <Option name="PruningValFraction" modified="No">5.000000e-01</Option>
    <Option name="NNodesMax" modified="No">100000</Option>
    <Option name="MaxDepth" modified="Yes">3</Option>
  </Options>
  <Variables NVar="17">
    <Variable VarIndex="0" Expression="lep1Pt" Label="lep1Pt" Title="p_{T}(l_{1})" Unit="GeV" Internal="lep1Pt" Type="F" Min="21.0786" Max="612.438"/>
    <Variable VarIndex="1" Expression="lep2Pt" Label="lep2Pt" Title="p_{T}(l_{2})" Unit="GeV" Internal="lep2Pt" Type="F" Min="20.0011" Max="245.224"/>
    <Variable VarIndex="2" Expression="diLepPt" Label="diLepPt" Title="p_{T}(ll)" Unit="GeV" Internal="diLepPt" Type="F" Min="30.0005" Max="641.355"/>
    <Variable VarIndex="3" Expression="diLepM" Label="diLepM" Title="m_{ll}" Unit="GeV" Internal="diLepM" Type="F" Min="70.004" Max="105.993"/>
    <Variable VarIndex="4" Expression="diLepEta" Label="diLepEta" Title="|#eta(ll)|" Unit="" Internal="diLepEta" Type="F" Min="-3.43073" Max="3.43705"/>
    <Variable VarIndex="5" Expression="lepDeltaPhi" Label="lepDeltaPhi" Title="#Delta#phi(l_{1},l_{2})" Unit="rad" Internal="lepDeltaPhi" Type="F" Min="0.000294328" Max="3.14157"/>
    <Variable VarIndex="6" Expression="lepDeltaEta" Label="lepDeltaEta" Title="#Delta#eta(l_{1},l_{2})" Unit="" Internal="lepDeltaEta" Type="F" Min="2.5034e-05" Max="4.73818"/>
    <Variable VarIndex="7" Expression="lepDeltaR" Label="lepDeltaR" Title="#Delta R(l_{1},l_{2})" Unit="" Internal="lepDeltaR" Type="F" Min="0.302154" Max="5.50249"/>
    <Variable VarIndex="8" Expression="lepAngle" Label="lepAngle" Title="Open Angle(l_{1},l_{2})" Unit="rad" Internal="lepAngle" Type="F" Min="0.132993" Max="3.12901"/>
    <Variable VarIndex="9" Expression="lepPtRatio" Label="lepPtRatio" Title="p_{T}_{l_{2}}/p_{T}_{l_{1}}" Unit="" Internal="lepPtRatio" Type="F" Min="0.051387" Max="0.999996"/>
    <Variable VarIndex="10" Expression="met" Label="met" Title="MET" Unit="GeV" Internal="met" Type="F" Min="30" Max="624.915"/>
    <Variable VarIndex="11" Expression="metOverQt" Label="metOverQt" Title="MET/p_{T}(ll)" Unit="" Internal="metOverQt" Type="F" Min="0.0510069" Max="12.1045"/>
    <Variable VarIndex="12" Expression="metProjOnQt" Label="metProjOnQt" Title="MET || p_{T}(ll)" Unit="GeV" Internal="metProjOnQt" Type="F" Min="-618.528" Max="423.673"/>
    <Variable VarIndex="13" Expression="metPerpQt" Label="metPerpQt" Title="MET perp  p_{T}(ll)" Unit="GeV" Internal="metPerpQt" Type="F" Min="0.000586493" Max="541.102"/>
    <Variable VarIndex="14" Expression="dPhiMetDiLep" Label="dPhiMetDiLep" Title="#Delta#phi(p_{ll},MET)" Unit="rad" Internal="dPhiMetDiLep" Type="F" Min="0.000196335" Max="3.14158"/>
    <Variable VarIndex="15" Expression="mt" Label="mt" Title="m_{T}(HZZ hypothesis)" Unit="GeV" Internal="mt" Type="F" Min="141.532" Max="1181.98"/>
    <Variable VarIndex="16" Expression="nJets15" Label="nJets15" Title="Number of jets with p_{T}&gt;15" Unit="" Internal="nJets15" Type="I" Min="0" Max="20"/>
  </Variables>
  <Spectators NSpec="0"/>
  <Transformations NTransformations="0"/>
  <MVAPdfs/>
  <Weights NTrees="400" TreeType="0">
    <BinaryTree type="DecisionTree" boostWeight="3.5921512149232515e+00" itree="0">
      <Node pos="s" depth="0" Seq="0" IVar="10" Cut="5.8329269409179688e+01" cType="0" nS="2.0353618164062500e+03" nB="1.9984882812500000e+04" nEv="2.2020244140625000e+04" nSuw="2.0590000000000000e+03" nBuw="1.9839000000000000e+04" nEvuw="2.1898000000000000e+04" sepI="8.3887830376625061e-02" sepG="1.0786132812500000e+03" res="-9.9000000000000000e+01" rms="0.0000000000000000e+00" nType="0" CC="1.0786134039923654e+03">
        <Node pos="l" depth="1" Seq="0" IVar="7" Cut="3.0975294113159180e+00" cType="1" nS="1.5473511962890625e+03" nB="3.6060104370117188e+02" nEv="1.9079522705078125e+03" nSuw="1.5540000000000000e+03" nBuw="6.5810000000000000e+03" nEvuw="8.1350000000000000e+03" sepI="1.5327836573123932e-01" sepG="7.6462303161621094e+01" res="-9.9000000000000000e+01" rms="0.0000000000000000e+00" nType="0" CC="7.6462287063264739e+01">
          <Node pos="l" depth="2" Seq="0" IVar="15" Cut="1.9219270324707031e+02" cType="0" nS="1.5017491455078125e+03" nB="2.0547314453125000e+02" nEv="1.7072222900390625e+03" nSuw="1.5070000000000000e+03" nBuw="5.6510000000000000e+03" nEvuw="7.1580000000000000e+03" sepI="1.0586985200643539e-01" sepG="1.8199729919433594e+01" res="-9.9000000000000000e+01" rms="0.0000000000000000e+00" nType="0" CC="1.8199721930334618e+01">
            <Node pos="l" depth="3" Seq="0" IVar="-1" Cut="0.0000000000000000e+00" cType="1" nS="1.4734649658203125e+03" nB="1.6117221069335938e+02" nEv="1.6346370849609375e+03" nSuw="1.4750000000000000e+03" nBuw="5.3050000000000000e+03" nEvuw="6.7800000000000000e+03" sepI="8.8876560330390930e-02" sepG="-1.0000000000000000e+00" res="-9.9000000000000000e+01" rms="0.0000000000000000e+00" nType="1" CC="1.0000000000000000e+05"/>
            <Node pos="r" depth="3" Seq="4" IVar="-1" Cut="0.0000000000000000e+00" cType="1" nS="2.8284212112426758e+01" nB="4.4300933837890625e+01" nEv="7.2585144042968750e+01" nSuw="3.2000000000000000e+01" nBuw="3.4600000000000000e+02" nEvuw="3.7800000000000000e+02" sepI="2.3782716691493988e-01" sepG="-1.0000000000000000e+00" res="-9.9000000000000000e+01" rms="0.0000000000000000e+00" nType="-1" CC="1.0000000000000000e+05"/>
          </Node>
          <Node pos="r" depth="2" Seq="2" IVar="9" Cut="6.1360383033752441e-01" cType="1" nS="4.5602077484130859e+01" nB="1.5512791442871094e+02" nEv="2.0072998046875000e+02" nSuw="4.7000000000000000e+01" nBuw="9.3000000000000000e+02" nEvuw="9.7700000000000000e+02" sepI="1.7556989192962646e-01" sepG="1.0840120315551758e+01" res="-9.9000000000000000e+01" rms="0.0000000000000000e+00" nType="0" CC="1.0840120505140476e+01">
            <Node pos="l" depth="3" Seq="2" IVar="-1" Cut="0.0000000000000000e+00" cType="1" nS="2.8105991363525391e+01" nB="1.2857749938964844e+01" nEv="4.0963741302490234e+01" nSuw="2.8000000000000000e+01" nBuw="3.6500000000000000e+02" nEvuw="3.9300000000000000e+02" sepI="2.1535980701446533e-01" sepG="-1.0000000000000000e+00" res="-9.9000000000000000e+01" rms="0.0000000000000000e+00" nType="1" CC="1.0000000000000000e+05"/>
            <Node pos="r" depth="3" Seq="6" IVar="-1" Cut="0.0000000000000000e+00" cType="1" nS="1.7496084213256836e+01" nB="1.4227015686035156e+02" nEv="1.5976625061035156e+02" nSuw="1.9000000000000000e+01" nBuw="5.6500000000000000e+02" nEvuw="5.8400000000000000e+02" sepI="9.7517967224121094e-02" sepG="-1.0000000000000000e+00" res="-9.9000000000000000e+01" rms="0.0000000000000000e+00" nType="-1" CC="1.0000000000000000e+05"/>
          </Node>
        </Node>
        <Node pos="r" depth="1" Seq="1" IVar="7" Cut="2.2841584682464600e+00" cType="1" nS="4.8801055908203125e+02" nB="1.9624281250000000e+04" nEv="2.0112291015625000e+04" nSuw="5.0500000000000000e+02" nBuw="1.3258000000000000e+04" nEvuw="1.3763000000000000e+04" sepI="2.3675538599491119e-02" sepG="7.8902656555175781e+01" res="-9.9000000000000000e+01" rms="0.0000000000000000e+00" nType="0" CC="7.8902686930893083e+01">
          <Node pos="l" depth="2" Seq="1" IVar="15" Cut="2.1776275634765625e+02" cType="0" nS="3.5181298828125000e+02" nB="1.0272098388671875e+03" nEv="1.3790228271484375e+03" nSuw="3.5700000000000000e+02" nBuw="2.0230000000000000e+03" nEvuw="2.3800000000000000e+03" sepI="1.9003260135650635e-01" sepG="6.9462661743164062e+01" res="-9.9000000000000000e+01" rms="0.0000000000000000e+00" nType="0" CC="6.9462644596304017e+01">
            <Node pos="l" depth="3" Seq="1" IVar="-1" Cut="0.0000000000000000e+00" cType="1" nS="1.7626667785644531e+02" nB="5.8609352111816406e+01" nEv="2.3487602233886719e+02" nSuw="1.8100000000000000e+02" nBuw="3.4400000000000000e+02" nEvuw="5.2500000000000000e+02" sepI="1.8726634979248047e-01" sepG="-1.0000000000000000e+00" res="-9.9000000000000000e+01" rms="0.0000000000000000e+00" nType="1" CC="1.0000000000000000e+05"/>
            <Node pos="r" depth="3" Seq="5" IVar="-1" Cut="0.0000000000000000e+00" cType="1" nS="1.7554632568359375e+02" nB="9.6860052490234375e+02" nEv="1.1441468505859375e+03" nSuw="1.7600000000000000e+02" nBuw="1.6790000000000000e+03" nEvuw="1.8550000000000000e+03" sepI="1.2988916039466858e-01" sepG="-1.0000000000000000e+00" res="-9.9000000000000000e+01" rms="0.0000000000000000e+00" nType="-1" CC="1.0000000000000000e+05"/>
          </Node>
          <Node pos="r" depth="2" Seq="3" IVar="-1" Cut="5.0233974456787109e+01" cType="0" nS="1.3619757080078125e+02" nB="1.8597070312500000e+04" nEv="1.8733267578125000e+04" nSuw="1.4800000000000000e+02" nBuw="1.1235000000000000e+04" nEvuw="1.1383000000000000e+04" sepI="7.2174998931586742e-03" sepG="-1.0000000000000000e+00" res="-9.9000000000000000e+01" rms="0.0000000000000000e+00" nType="-1" CC="1.0000000000000000e+05"/>
        </Node>
      </Node>
    </BinaryTree>
    <BinaryTree type="DecisionTree" boostWeight="1.2615003259908957e+00" itree="1">
      <Node pos="s" depth="0" Seq="0" IVar="7" Cut="2.7792856693267822e+00" cType="1" nS="7.5320122070312500e+03" nB="1.4488231445312500e+04" nEv="2.2020244140625000e+04" nSuw="2.0590000000000000e+03" nBuw="1.9839000000000000e+04" nEvuw="2.1898000000000000e+04" sepI="2.2505162656307220e-01" sepG="1.0558587646484375e+03" res="-9.9000000000000000e+01" rms="0.0000000000000000e+00" nType="0" CC="1.0558587827136762e+03">
        <Node pos="l" depth="1" Seq="0" IVar="3" Cut="9.3982788085937500e+01" cType="1" nS="6.1139565429687500e+03" nB="4.7130263671875000e+03" nEv="1.0826982421875000e+04" nSuw="1.7960000000000000e+03" nBuw="8.4260000000000000e+03" nEvuw="1.0222000000000000e+04" sepI="2.4581439793109894e-01" sepG="1.5969906616210938e+02" res="-9.9000000000000000e+01" rms="0.0000000000000000e+00" nType="0" CC="1.5969902734178231e+02">
          <Node pos="l" depth="2" Seq="0" IVar="10" Cut="5.8329269409179688e+01" cType="1" nS="5.7821669921875000e+03" nB="3.6857792968750000e+03" nEv="9.4679462890625000e+03" nSuw="1.5690000000000000e+03" nBuw="7.0940000000000000e+03" nEvuw="8.6630000000000000e+03" sepI="2.3774336278438568e-01" sepG="1.5097920227050781e+02" res="-9.9000000000000000e+01" rms="0.0000000000000000e+00" nType="0" CC="1.5097928183867771e+02">
            <Node pos="l" depth="3" Seq="0" IVar="-1" Cut="0.0000000000000000e+00" cType="1" nS="4.6916845703125000e+03" nB="2.1101225585937500e+03" nEv="6.8018071289062500e+03" nSuw="3.9400000000000000e+02" nBuw="3.4850000000000000e+03" nEvuw="3.8790000000000000e+03" sepI="2.1398723125457764e-01" sepG="-1.0000000000000000e+00" res="-9.9000000000000000e+01" rms="0.0000000000000000e+00" nType="1" CC="1.0000000000000000e+05"/>
            <Node pos="r" depth="3" Seq="4" IVar="-1" Cut="0.0000000000000000e+00" cType="1" nS="1.0904824218750000e+03" nB="1.5756567382812500e+03" nEv="2.6661391601562500e+03" nSuw="1.1750000000000000e+03" nBuw="3.6090000000000000e+03" nEvuw="4.7840000000000000e+03" sepI="2.4172115325927734e-01" sepG="-1.0000000000000000e+00" res="-9.9000000000000000e+01" rms="0.0000000000000000e+00" nType="-1" CC="1.0000000000000000e+05"/>
          </Node>
          <Node pos="r" depth="2" Seq="2" IVar="-1" Cut="1.2961893081665039e+00" cType="0" nS="3.3178964233398438e+02" nB="1.0272469482421875e+03" nEv="1.3590366210937500e+03" nSuw="2.2700000000000000e+02" nBuw="1.3320000000000000e+03" nEvuw="1.5590000000000000e+03" sepI="1.8453356623649597e-01" sepG="-1.0000000000000000e+00" res="-9.9000000000000000e+01" rms="0.0000000000000000e+00" nType="-1" CC="1.4287437894176492e+01"/>
        </Node>
        <Node pos="r" depth="1" Seq="1" IVar="-1" Cut="2.2174319458007812e+02" cType="0" nS="1.4180557861328125e+03" nB="9.7752050781250000e+03" nEv="1.1193260742187500e+04" nSuw="2.6300000000000000e+02" nBuw="1.1413000000000000e+04" nEvuw="1.1676000000000000e+04" sepI="1.1063840985298157e-01" sepG="-1.0000000000000000e+00" res="-9.9000000000000000e+01" rms="0.0000000000000000e+00" nType="-1" CC="1.8841233919140723e+02"/>
      </Node>
    </BinaryTree>
    <BinaryTree type="DecisionTree" boostWeight="9.9223348131974076e-01" itree="2">
      <Node pos="s" depth="0" Seq="0" IVar="7" Cut="2.5317220687866211e+00" cType="1" nS="7.7046123046875000e+03" nB="1.4315630859375000e+04" nEv="2.2020244140625000e+04" nSuw="2.0590000000000000e+03" nBuw="1.9839000000000000e+04" nEvuw="2.1898000000000000e+04" sepI="2.2746630012989044e-01" sepG="6.5342565917968750e+02" res="-9.9000000000000000e+01" rms="0.0000000000000000e+00" nType="0" CC="6.5342583124735756e+02">
        <Node pos="l" depth="1" Seq="0" IVar="0" Cut="1.0546466827392578e+02" cType="1" nS="5.3955297851562500e+03" nB="4.6264541015625000e+03" nEv="1.0021984375000000e+04" nSuw="1.6260000000000000e+03" nBuw="6.2080000000000000e+03" nEvuw="7.8340000000000000e+03" sepI="2.4852778017520905e-01" sepG="1.9639155578613281e+02" res="-9.9000000000000000e+01" rms="0.0000000000000000e+00" nType="0" CC="1.9639146541340870e+02">
          <Node pos="l" depth="2" Seq="0" IVar="-1" Cut="4.3630706787109375e+01" cType="0" nS="5.1262329101562500e+03" nB="3.4908327636718750e+03" nEv="8.6170654296875000e+03" nSuw="1.5070000000000000e+03" nBuw="5.4140000000000000e+03" nEvuw="6.9210000000000000e+03" sepI="2.4099530279636383e-01" sepG="-1.0000000000000000e+00" res="-9.9000000000000000e+01" rms="0.0000000000000000e+00" nType="1" CC="1.0000000000000000e+05"/>
          <Node pos="r" depth="2" Seq="2" IVar="13" Cut="3.5617218017578125e+01" cType="0" nS="2.6929681396484375e+02" nB="1.1356213378906250e+03" nEv="1.4049182128906250e+03" nSuw="1.1900000000000000e+02" nBuw="7.9400000000000000e+02" nEvuw="9.1300000000000000e+02" sepI="1.5493969619274139e-01" sepG="8.6924919128417969e+01" res="-9.9000000000000000e+01" rms="0.0000000000000000e+00" nType="0" CC="8.6924917875972710e+01">
            <Node pos="l" depth="3" Seq="2" IVar="-1" Cut="0.0000000000000000e+00" cType="1" nS="1.8113653564453125e+02" nB="6.7765274047851562e+01" nEv="2.4890180969238281e+02" nSuw="6.6000000000000000e+01" nBuw="3.5100000000000000e+02" nEvuw="4.1700000000000000e+02" sepI="1.9813314080238342e-01" sepG="-1.0000000000000000e+00" res="-9.9000000000000000e+01" rms="0.0000000000000000e+00" nType="1" CC="1.0000000000000000e+05"/>
            <Node pos="r" depth="3" Seq="6" IVar="-1" Cut="0.0000000000000000e+00" cType="1" nS="8.8160263061523438e+01" nB="1.0678560791015625e+03" nEv="1.1560163574218750e+03" nSuw="5.3000000000000000e+01" nBuw="4.4300000000000000e+02" nEvuw="4.9600000000000000e+02" sepI="7.0446215569972992e-02" sepG="-1.0000000000000000e+00" res="-9.9000000000000000e+01" rms="0.0000000000000000e+00" nType="-1" CC="1.0000000000000000e+05"/>
          </Node>
        </Node>
        <Node pos="r" depth="1" Seq="1" IVar="-1" Cut="6.6612720489501953e-01" cType="1" nS="2.3090822753906250e+03" nB="9.6891767578125000e+03" nEv="1.1998259765625000e+04" nSuw="4.3300000000000000e+02" nBuw="1.3631000000000000e+04" nEvuw="1.4064000000000000e+04" sepI="1.5541388094425201e-01" sepG="-1.0000000000000000e+00" res="-9.9000000000000000e+01" rms="0.0000000000000000e+00" nType="-1" CC="1.0000000000000000e+05"/>
      </Node>
    </BinaryTree>
    <BinaryTree type="DecisionTree" boostWeight="8.2453280120437600e-01" itree="3">
      <Node pos="s" depth="0" Seq="0" IVar="16" Cut="1.9047619104385376e+00" cType="1" nS="8.0691372070312500e+03" nB="1.3951106445312500e+04" nEv="2.2020244140625000e+04" nSuw="2.0590000000000000e+03" nBuw="1.9839000000000000e+04" nEvuw="2.1898000000000000e+04" sepI="2.3216220736503601e-01" sepG="1.4193870544433594e+02" res="-9.9000000000000000e+01" rms="0.0000000000000000e+00" nType="0" CC="1.6537925541984305e+02">
        <Node pos="l" depth="1" Seq="0" IVar="13" Cut="3.7807128906250000e+01" cType="0" nS="4.9871215820312500e+03" nB="6.2105429687500000e+03" nEv="1.1197664062500000e+04" nSuw="1.0710000000000000e+03" nBuw="8.3440000000000000e+03" nEvuw="9.4150000000000000e+03" sepI="2.4701572954654694e-01" sepG="1.8881980895996094e+02" res="-9.9000000000000000e+01" rms="0.0000000000000000e+00" nType="0" CC="1.8881973051966725e+02">
          <Node pos="l" depth="2" Seq="0" IVar="3" Cut="9.4069702148437500e+01" cType="1" nS="1.9364885253906250e+03" nB="9.7883331298828125e+02" nEv="2.9153217773437500e+03" nSuw="5.6500000000000000e+02" nBuw="2.4030000000000000e+03" nEvuw="2.9680000000000000e+03" sepI="2.2302351891994476e-01" sepG="5.3378181457519531e+01" res="-9.9000000000000000e+01" rms="0.0000000000000000e+00" nType="0" CC="5.3378192998193526e+01">
            <Node pos="l" depth="3" Seq="0" IVar="-1" Cut="0.0000000000000000e+00" cType="1" nS="1.8194583740234375e+03" nB="7.2085076904296875e+02" nEv="2.5403090820312500e+03" nSuw="4.9500000000000000e+02" nBuw="2.0180000000000000e+03" nEvuw="2.5130000000000000e+03" sepI="2.0324242115020752e-01" sepG="-1.0000000000000000e+00" res="-9.9000000000000000e+01" rms="0.0000000000000000e+00" nType="1" CC="1.0000000000000000e+05"/>
            <Node pos="r" depth="3" Seq="4" IVar="-1" Cut="0.0000000000000000e+00" cType="1" nS="1.1703014373779297e+02" nB="2.5798251342773438e+02" nEv="3.7501266479492188e+02" nSuw="7.0000000000000000e+01" nBuw="3.8500000000000000e+02" nEvuw="4.5500000000000000e+02" sepI="2.1468225121498108e-01" sepG="-1.0000000000000000e+00" res="-9.9000000000000000e+01" rms="0.0000000000000000e+00" nType="-1" CC="1.0000000000000000e+05"/>
          </Node>
          <Node pos="r" depth="2" Seq="2" IVar="-1" Cut="6.9006323814392090e-01" cType="1" nS="3.0506330566406250e+03" nB="5.2317094726562500e+03" nEv="8.2823427734375000e+03" nSuw="5.0600000000000000e+02" nBuw="5.9410000000000000e+03" nEvuw="6.4470000000000000e+03" sepI="2.3266294598579407e-01" sepG="-1.0000000000000000e+00" res="-9.9000000000000000e+01" rms="0.0000000000000000e+00" nType="-1" CC="1.0000000000000000e+05"/>
        </Node>
        <Node pos="r" depth="1" Seq="1" IVar="12" Cut="4.5100719451904297e+01" cType="0" nS="3.0820158691406250e+03" nB="7.7405634765625000e+03" nEv="1.0822579101562500e+04" nSuw="9.8800000000000000e+02" nBuw="1.1495000000000000e+04" nEvuw="1.2483000000000000e+04" sepI="2.0367883145809174e-01" sepG="9.3759445190429688e+01" res="-9.9000000000000000e+01" rms="0.0000000000000000e+00" nType="0" CC="9.3759575508451235e+01">
          <Node pos="l" depth="2" Seq="1" IVar="10" Cut="6.9406738281250000e+01" cType="0" nS="3.5067422485351562e+02" nB="1.4281198120117188e+02" nEv="4.9348620605468750e+02" nSuw="4.0000000000000000e+01" nBuw="3.8200000000000000e+02" nEvuw="4.2200000000000000e+02" sepI="2.0564514398574829e-01" sepG="3.2245777130126953e+01" res="-9.9000000000000000e+01" rms="0.0000000000000000e+00" nType="0" CC="3.2245780223964005e+01">
            <Node pos="l" depth="3" Seq="1" IVar="-1" Cut="0.0000000000000000e+00" cType="1" nS="2.9641702270507812e+02" nB="3.7708621978759766e+01" nEv="3.3412567138671875e+02" nSuw="3.3000000000000000e+01" nBuw="1.6500000000000000e+02" nEvuw="1.9800000000000000e+02" sepI="1.0012076795101166e-01" sepG="-1.0000000000000000e+00" res="-9.9000000000000000e+01" rms="0.0000000000000000e+00" nType="1" CC="1.0000000000000000e+05"/>
            <Node pos="r" depth="3" Seq="5" IVar="-1" Cut="0.0000000000000000e+00" cType="1" nS="5.4257190704345703e+01" nB="1.0510335540771484e+02" nEv="1.5936054992675781e+02" nSuw="7.0000000000000000e+00" nBuw="2.1700000000000000e+02" nEvuw="2.2400000000000000e+02" sepI="2.2454959154129028e-01" sepG="-1.0000000000000000e+00" res="-9.9000000000000000e+01" rms="0.0000000000000000e+00" nType="-1" CC="1.0000000000000000e+05"/>
          </Node>
          <Node pos="r" depth="2" Seq="3" IVar="-1" Cut="5.0859256744384766e+01" cType="0" nS="2.7313415527343750e+03" nB="7.5977514648437500e+03" nEv="1.0329092773437500e+04" nSuw="9.4800000000000000e+02" nBuw="1.1113000000000000e+04" nEvuw="1.2061000000000000e+04" sepI="1.9450765848159790e-01" sepG="-1.0000000000000000e+00" res="-9.9000000000000000e+01" rms="0.0000000000000000e+00" nType="-1" CC="1.0000000000000000e+05"/>
        </Node>
      </Node>
    </BinaryTree>
    <BinaryTree type="DecisionTree" boostWeight="6.8598194476996543e-01" itree="4">
      <Node pos="s" depth="0" Seq="0" IVar="9" Cut="7.7865117788314819e-01" cType="1" nS="1.1287554687500000e+04" nB="1.0732688476562500e+04" nEv="2.2020244140625000e+04" nSuw="2.0590000000000000e+03" nBuw="1.9839000000000000e+04" nEvuw="2.1898000000000000e+04" sepI="2.4984125792980194e-01" sepG="1.7118692016601562e+02" res="-9.9000000000000000e+01" rms="0.0000000000000000e+00" nType="0" CC="1.7418812323040765e+02">
        <Node pos="l" depth="1" Seq="0" IVar="7" Cut="2.5788631439208984e+00" cType="0" nS="8.5005166015625000e+03" nB="6.3049082031250000e+03" nEv="1.4805424804687500e+04" nSuw="1.5600000000000000e+03" nBuw="1.0765000000000000e+04" nEvuw="1.2325000000000000e+04" sepI="2.4450196325778961e-01" sepG="9.7485343933105469e+01" res="-9.9000000000000000e+01" rms="0.0000000000000000e+00" nType="0" CC="1.1005516194564643e+02">
          <Node pos="l" depth="2" Seq="0" IVar="1" Cut="2.7348766326904297e+01" cType="0" nS="4.3593813476562500e+03" nB="2.1940729980468750e+03" nEv="6.5534545898437500e+03" nSuw="3.1900000000000000e+02" nBuw="5.9090000000000000e+03" nEvuw="6.2280000000000000e+03" sepI="2.2270777821540833e-01" sepG="1.2262495422363281e+02" res="-9.9000000000000000e+01" rms="0.0000000000000000e+00" nType="0" CC="1.2262491310815130e+02">
            <Node pos="l" depth="3" Seq="0" IVar="-1" Cut="0.0000000000000000e+00" cType="1" nS="4.0641892089843750e+03" nB="1.5795583496093750e+03" nEv="5.6437475585937500e+03" nSuw="2.6400000000000000e+02" nBuw="4.3880000000000000e+03" nEvuw="4.6520000000000000e+03" sepI="2.0154611766338348e-01" sepG="-1.0000000000000000e+00" res="-9.9000000000000000e+01" rms="0.0000000000000000e+00" nType="1" CC="1.0000000000000000e+05"/>
            <Node pos="r" depth="3" Seq="4" IVar="-1" Cut="0.0000000000000000e+00" cType="1" nS="2.9519244384765625e+02" nB="6.1451470947265625e+02" nEv="9.0970709228515625e+02" nSuw="5.5000000000000000e+01" nBuw="1.5210000000000000e+03" nEvuw="1.5760000000000000e+03" sepI="2.1919684112071991e-01" sepG="-1.0000000000000000e+00" res="-9.9000000000000000e+01" rms="0.0000000000000000e+00" nType="-1" CC="1.0000000000000000e+05"/>
          </Node>
          <Node pos="r" depth="2" Seq="2" IVar="4" Cut="2.0724649429321289e+00" cType="1" nS="4.1411352539062500e+03" nB="4.1108349609375000e+03" nEv="8.2519697265625000e+03" nSuw="1.2410000000000000e+03" nBuw="4.8560000000000000e+03" nEvuw="6.0970000000000000e+03" sepI="2.4999663233757019e-01" sepG="6.5070175170898438e+01" res="-9.9000000000000000e+01" rms="0.0000000000000000e+00" nType="0" CC="6.5070219530535269e+01">
            <Node pos="l" depth="3" Seq="2" IVar="-1" Cut="0.0000000000000000e+00" cType="1" nS="3.9796298828125000e+03" nB="3.5336440429687500e+03" nEv="7.5132739257812500e+03" nSuw="1.2030000000000000e+03" nBuw="4.4280000000000000e+03" nEvuw="5.6310000000000000e+03" sepI="2.4911910295486450e-01" sepG="-1.0000000000000000e+00" res="-9.9000000000000000e+01" rms="0.0000000000000000e+00" nType="1" CC="1.0000000000000000e+05"/>
            <Node pos="r" depth="3" Seq="6" IVar="-1" Cut="0.0000000000000000e+00" cType="1" nS="1.6150527954101562e+02" nB="5.7719104003906250e+02" nEv="7.3869628906250000e+02" nSuw="3.8000000000000000e+01" nBuw="4.2800000000000000e+02" nEvuw="4.6600000000000000e+02" sepI="1.7083404958248138e-01" sepG="-1.0000000000000000e+00" res="-9.9000000000000000e+01" rms="0.0000000000000000e+00" nType="-1" CC="1.0000000000000000e+05"/>
          </Node>
        </Node>
        <Node pos="r" depth="1" Seq="1" IVar="12" Cut="-4.5579387664794922e+01" cType="1" nS="2.7870383300781250e+03" nB="4.4277807617187500e+03" nEv="7.2148188476562500e+03" nSuw="4.9900000000000000e+02" nBuw="9.0740000000000000e+03" nEvuw="9.5730000000000000e+03" sepI="2.3707085847854614e-01" sepG="1.7718977355957031e+02" res="-9.9000000000000000e+01" rms="0.0000000000000000e+00" nType="0" CC="1.7718978190267808e+02">
          <Node pos="l" depth="2" Seq="1" IVar="7" Cut="1.4902273416519165e+00" cType="0" nS="1.3117164306640625e+03" nB="7.5973925781250000e+02" nEv="2.0714555664062500e+03" nSuw="3.0400000000000000e+02" nBuw="1.5880000000000000e+03" nEvuw="1.8920000000000000e+03" sepI="2.3224866390228271e-01" sepG="7.6386848449707031e+01" res="-9.9000000000000000e+01" rms="0.0000000000000000e+00" nType="0" CC="7.6386858048561805e+01">
            <Node pos="l" depth="3" Seq="1" IVar="-1" Cut="0.0000000000000000e+00" cType="1" nS="1.2672883300781250e+03" nB="5.1690191650390625e+02" nEv="1.7841903076171875e+03" nSuw="2.5900000000000000e+02" nBuw="1.4200000000000000e+03" nEvuw="1.6790000000000000e+03" sepI="2.0577909052371979e-01" sepG="-1.0000000000000000e+00" res="-9.9000000000000000e+01" rms="0.0000000000000000e+00" nType="1" CC="1.0000000000000000e+05"/>
            <Node pos="r" depth="3" Seq="5" IVar="-1" Cut="0.0000000000000000e+00" cType="1" nS="4.4428104400634766e+01" nB="2.4283732604980469e+02" nEv="2.8726544189453125e+02" nSuw="4.5000000000000000e+01" nBuw="1.6800000000000000e+02" nEvuw="2.1300000000000000e+02" sepI="1.3073940575122833e-01" sepG="-1.0000000000000000e+00" res="-9.9000000000000000e+01" rms="0.0000000000000000e+00" nType="-1" CC="1.0000000000000000e+05"/>
          </Node>
          <Node pos="r" depth="2" Seq="3" IVar="5" Cut="1.9448916912078857e+00" cType="1" nS="1.4753220214843750e+03" nB="3.6680415039062500e+03" nEv="5.1433632812500000e+03" nSuw="1.9500000000000000e+02" nBuw="7.4860000000000000e+03" nEvuw="7.6810000000000000e+03" sepI="2.0456278324127197e-01" sepG="1.7017936706542969e+02" res="-9.9000000000000000e+01" rms="0.0000000000000000e+00" nType="0" CC="1.7017939168402063e+02">
            <Node pos="l" depth="3" Seq="3" IVar="-1" Cut="0.0000000000000000e+00" cType="1" nS="8.2521154785156250e+02" nB="5.9384478759765625e+02" nEv="1.4190563964843750e+03" nSuw="1.3700000000000000e+02" nBuw="6.1300000000000000e+02" nEvuw="7.5000000000000000e+02" sepI="2.4335427582263947e-01" sepG="-1.0000000000000000e+00" res="-9.9000000000000000e+01" rms="0.0000000000000000e+00" nType="1" CC="1.0000000000000000e+05"/>
            <Node pos="r" depth="3" Seq="7" IVar="-1" Cut="0.0000000000000000e+00" cType="1" nS="6.5011041259765625e+02" nB="3.0741965332031250e+03" nEv="3.7243068847656250e+03" nSuw="5.8000000000000000e+01" nBuw="6.8730000000000000e+03" nEvuw="6.9310000000000000e+03" sepI="1.4408800005912781e-01" sepG="-1.0000000000000000e+00" res="-9.9000000000000000e+01" rms="0.0000000000000000e+00" nType="-1" CC="1.0000000000000000e+05"/>
          </Node>
        </Node>
      </Node>
    </BinaryTree>
    <BinaryTree type="DecisionTree" boostWeight="6.2986029096260088e-01" itree="5">
      <Node pos="s" depth="0" Seq="0" IVar="7" Cut="2.5317220687866211e+00" cType="0" nS="9.3390966796875000e+03" nB="1.2681147460937500e+04" nEv="2.2020244140625000e+04" nSuw="2.0590000000000000e+03" nBuw="1.9839000000000000e+04" nEvuw="2.1898000000000000e+04" sepI="2.4424134194850922e-01" sepG="1.0201738739013672e+02" res="-9.9000000000000000e+01" rms="0.0000000000000000e+00" nType="0" CC="1.1752801842608324e+02">
        <Node pos="l" depth="1" Seq="0" IVar="9" Cut="9.1652572154998779e-01" cType="1" nS="5.1433618164062500e+03" nB="5.2199995117187500e+03" nEv="1.0363361328125000e+04" nSuw="4.3300000000000000e+02" nBuw="1.3631000000000000e+04" nEvuw="1.4064000000000000e+04" sepI="2.4998632073402405e-01" sepG="1.3303842163085938e+02" res="-9.9000000000000000e+01" rms="0.0000000000000000e+00" nType="0" CC="1.3303834793656006e+02">
          <Node pos="l" depth="2" Seq="0" IVar="14" Cut="1.4960918426513672e+00" cType="0" nS="4.9135981445312500e+03" nB="4.2223310546875000e+03" nEv="9.1359287109375000e+03" nSuw="4.0900000000000000e+02" nBuw="1.0189000000000000e+04" nEvuw="1.0598000000000000e+04" sepI="2.4856871366500854e-01" sepG="9.6955688476562500e+01" res="-9.9000000000000000e+01" rms="0.0000000000000000e+00" nType="0" CC="9.6955746523890411e+01">
            <Node pos="l" depth="3" Seq="0" IVar="-1" Cut="0.0000000000000000e+00" cType="1" nS="3.8497890625000000e+03" nB="2.5027614746093750e+03" nEv="6.3525507812500000e+03" nSuw="3.5600000000000000e+02" nBuw="6.5370000000000000e+03" nEvuw="6.8930000000000000e+03" sepI="2.3875920474529266e-01" sepG="-1.0000000000000000e+00" res="-9.9000000000000000e+01" rms="0.0000000000000000e+00" nType="1" CC="1.0000000000000000e+05"/>
            <Node pos="r" depth="3" Seq="4" IVar="-1" Cut="0.0000000000000000e+00" cType="1" nS="1.0638088378906250e+03" nB="1.7195697021484375e+03" nEv="2.7833786621093750e+03" nSuw="5.3000000000000000e+01" nBuw="3.6520000000000000e+03" nEvuw="3.7050000000000000e+03" sepI="2.3612329363822937e-01" sepG="-1.0000000000000000e+00" res="-9.9000000000000000e+01" rms="0.0000000000000000e+00" nType="-1" CC="1.0000000000000000e+05"/>
          </Node>
          <Node pos="r" depth="2" Seq="2" IVar="10" Cut="7.8076461791992188e+01" cType="0" nS="2.2976361083984375e+02" nB="9.9766857910156250e+02" nEv="1.2274322509765625e+03" nSuw="2.4000000000000000e+01" nBuw="3.4420000000000000e+03" nEvuw="3.4660000000000000e+03" sepI="1.5215019881725311e-01" sepG="7.3842803955078125e+01" res="-9.9000000000000000e+01" rms="0.0000000000000000e+00" nType="0" CC="7.3842806612639151e+01">
            <Node pos="l" depth="3" Seq="2" IVar="-1" Cut="0.0000000000000000e+00" cType="1" nS="1.4071432495117188e+02" nB="4.0488021850585938e+01" nEv="1.8120234680175781e+02" nSuw="1.7000000000000000e+01" nBuw="2.0900000000000000e+02" nEvuw="2.2600000000000000e+02" sepI="1.7351508140563965e-01" sepG="-1.0000000000000000e+00" res="-9.9000000000000000e+01" rms="0.0000000000000000e+00" nType="1" CC="1.0000000000000000e+05"/>
            <Node pos="r" depth="3" Seq="6" IVar="-1" Cut="0.0000000000000000e+00" cType="1" nS="8.9049285888671875e+01" nB="9.5718054199218750e+02" nEv="1.0462298583984375e+03" nSuw="7.0000000000000000e+00" nBuw="3.2330000000000000e+03" nEvuw="3.2400000000000000e+03" sepI="7.7869988977909088e-02" sepG="-1.0000000000000000e+00" res="-9.9000000000000000e+01" rms="0.0000000000000000e+00" nType="-1" CC="1.0000000000000000e+05"/>
          </Node>
        </Node>
        <Node pos="r" depth="1" Seq="1" IVar="12" Cut="7.8410621643066406e+01" cType="0" nS="4.1957348632812500e+03" nB="7.4611474609375000e+03" nEv="1.1656882812500000e+04" nSuw="1.6260000000000000e+03" nBuw="6.2080000000000000e+03" nEvuw="7.8340000000000000e+03" sepI="2.3038215935230255e-01" sepG="7.6169311523437500e+01" res="-9.9000000000000000e+01" rms="0.0000000000000000e+00" nType="0" CC="7.6169176011962463e+01">
          <Node pos="l" depth="2" Seq="1" IVar="15" Cut="1.9476353454589844e+02" cType="1" nS="2.6638473510742188e+02" nB="4.8974872589111328e+01" nEv="3.1535961914062500e+02" nSuw="4.4000000000000000e+01" nBuw="9.2000000000000000e+01" nEvuw="1.3600000000000000e+02" sepI="1.3118086755275726e-01" sepG="2.1620157241821289e+01" res="-9.9000000000000000e+01" rms="0.0000000000000000e+00" nType="0" CC="2.1620155047329515e+01">
            <Node pos="l" depth="3" Seq="1" IVar="-1" Cut="0.0000000000000000e+00" cType="1" nS="2.4378601074218750e+02" nB="4.9077463150024414e+00" nEv="2.4869375610351562e+02" nSuw="1.3000000000000000e+01" nBuw="5.0000000000000000e+01" nEvuw="6.3000000000000000e+01" sepI="1.9344661384820938e-02" sepG="-1.0000000000000000e+00" res="-9.9000000000000000e+01" rms="0.0000000000000000e+00" nType="1" CC="1.0000000000000000e+05"/>
            <Node pos="r" depth="3" Seq="5" IVar="-1" Cut="0.0000000000000000e+00" cType="1" nS="2.2598724365234375e+01" nB="4.4067127227783203e+01" nEv="6.6665847778320312e+01" nSuw="3.1000000000000000e+01" nBuw="4.2000000000000000e+01" nEvuw="7.3000000000000000e+01" sepI="2.2407416999340057e-01" sepG="-1.0000000000000000e+00" res="-9.9000000000000000e+01" rms="0.0000000000000000e+00" nType="-1" CC="1.0000000000000000e+05"/>
          </Node>
          <Node pos="r" depth="2" Seq="3" IVar="-1" Cut="3.1449491500854492e+01" cType="0" nS="3.9293503417968750e+03" nB="7.4121728515625000e+03" nEv="1.1341523437500000e+04" nSuw="1.5820000000000000e+03" nBuw="6.1160000000000000e+03" nEvuw="7.6980000000000000e+03" sepI="2.2642455995082855e-01" sepG="-1.0000000000000000e+00" res="-9.9000000000000000e+01" rms="0.0000000000000000e+00" nType="-1" CC="1.0000000000000000e+05"/>
        </Node>
      </Node>
    </BinaryTree>
    <BinaryTree type="DecisionTree" boostWeight="6.1701600761374065e-01" itree="6">
      <Node pos="s" depth="0" Seq="0" IVar="15" Cut="2.9016754150390625e+02" cType="1" nS="1.0589030273437500e+04" nB="1.1431213867187500e+04" nEv="2.2020244140625000e+04" nSuw="2.0590000000000000e+03" nBuw="1.9839000000000000e+04" nEvuw="2.1898000000000000e+04" sepI="2.4963431060314178e-01" sepG="8.8255165100097656e+01" res="-9.9000000000000000e+01" rms="0.0000000000000000e+00" nType="0" CC="2.0414770291242803e+02">
        <Node pos="l" depth="1" Seq="0" IVar="10" Cut="4.8758300781250000e+01" cType="0" nS="1.0543813476562500e+04" nB="1.0932396484375000e+04" nEv="2.1476210937500000e+04" nSuw="2.0490000000000000e+03" nBuw="1.8436000000000000e+04" nEvuw="2.0485000000000000e+04" sepI="2.4991814792156219e-01" sepG="2.0111927795410156e+02" res="-9.9000000000000000e+01" rms="0.0000000000000000e+00" nType="0" CC="2.6209391752164811e+02">
          <Node pos="l" depth="2" Seq="0" IVar="-1" Cut="1.9184071350097656e+02" cType="1" nS="5.8804892578125000e+03" nB="3.9875834960937500e+03" nEv="9.8680722656250000e+03" nSuw="1.7610000000000000e+03" nBuw="6.9640000000000000e+03" nEvuw="8.7250000000000000e+03" sepI="2.4080115556716919e-01" sepG="-1.0000000000000000e+00" res="-9.9000000000000000e+01" rms="0.0000000000000000e+00" nType="1" CC="1.0000000000000000e+05"/>
          <Node pos="r" depth="2" Seq="2" IVar="10" Cut="3.8038227081298828e+01" cType="0" nS="4.6633247070312500e+03" nB="6.9448129882812500e+03" nEv="1.1608137695312500e+04" nSuw="2.8800000000000000e+02" nBuw="1.1472000000000000e+04" nEvuw="1.1760000000000000e+04" sepI="2.4034279584884644e-01" sepG="3.2306878662109375e+02" res="-9.9000000000000000e+01" rms="0.0000000000000000e+00" nType="0" CC="3.2306880788250419e+02">
            <Node pos="l" depth="3" Seq="2" IVar="-1" Cut="0.0000000000000000e+00" cType="1" nS="2.9146816406250000e+03" nB="1.9613994140625000e+03" nEv="4.8760810546875000e+03" nSuw="1.8500000000000000e+02" nBuw="4.1380000000000000e+03" nEvuw="4.3230000000000000e+03" sepI="2.4044476449489594e-01" sepG="-1.0000000000000000e+00" res="-9.9000000000000000e+01" rms="0.0000000000000000e+00" nType="1" CC="1.0000000000000000e+05"/>
            <Node pos="r" depth="3" Seq="6" IVar="-1" Cut="0.0000000000000000e+00" cType="1" nS="1.7486430664062500e+03" nB="4.9834135742187500e+03" nEv="6.7320566406250000e+03" nSuw="1.0300000000000000e+02" nBuw="7.3340000000000000e+03" nEvuw="7.4370000000000000e+03" sepI="1.9227932393550873e-01" sepG="-1.0000000000000000e+00" res="-9.9000000000000000e+01" rms="0.0000000000000000e+00" nType="-1" CC="1.0000000000000000e+05"/>
          </Node>
        </Node>
        <Node pos="r" depth="1" Seq="1" IVar="5" Cut="2.9919104576110840e+00" cType="0" nS="4.5216701507568359e+01" nB="4.9881741333007812e+02" nEv="5.4403411865234375e+02" nSuw="1.0000000000000000e+01" nBuw="1.4030000000000000e+03" nEvuw="1.4130000000000000e+03" sepI="7.6205834746360779e-02" sepG="1.2010796546936035e+01" res="-9.9000000000000000e+01" rms="0.0000000000000000e+00" nType="0" CC="1.2797411571373525e+01">
          <Node pos="l" depth="2" Seq="1" IVar="16" Cut="1.3333333730697632e+00" cType="0" nS="3.9641460418701172e+01" nB="6.0457565307617188e+01" nEv="1.0009902954101562e+02" nSuw="1.0000000000000000e+00" nBuw="1.5000000000000000e+02" nEvuw="1.5100000000000000e+02" sepI="2.3918867111206055e-01" sepG="1.3584026336669922e+01" res="-9.9000000000000000e+01" rms="0.0000000000000000e+00" nType="0" CC="1.3584026442570121e+01">
            <Node pos="l" depth="3" Seq="1" IVar="-1" Cut="0.0000000000000000e+00" cType="1" nS="3.9641460418701172e+01" nB="1.4022745132446289e+01" nEv="5.3664207458496094e+01" nSuw="1.0000000000000000e+00" nBuw="7.2000000000000000e+01" nEvuw="7.3000000000000000e+01" sepI="1.9302487373352051e-01" sepG="-1.0000000000000000e+00" res="-9.9000000000000000e+01" rms="0.0000000000000000e+00" nType="1" CC="1.0000000000000000e+05"/>
            <Node pos="r" depth="3" Seq="5" IVar="-1" Cut="0.0000000000000000e+00" cType="1" nS="0.0000000000000000e+00" nB="4.6434822082519531e+01" nEv="4.6434822082519531e+01" nSuw="0.0000000000000000e+00" nBuw="7.8000000000000000e+01" nEvuw="7.8000000000000000e+01" sepI="0.0000000000000000e+00" sepG="-1.0000000000000000e+00" res="-9.9000000000000000e+01" rms="0.0000000000000000e+00" nType="-1" CC="1.0000000000000000e+05"/>
          </Node>
          <Node pos="r" depth="2" Seq="3" IVar="-1" Cut="8.7940299987792969e+01" cType="1" nS="5.5752420425415039e+00" nB="4.3835986328125000e+02" nEv="4.4393508911132812e+02" nSuw="9.0000000000000000e+00" nBuw="1.2530000000000000e+03" nEvuw="1.2620000000000000e+03" sepI="1.2400966137647629e-02" sepG="-1.0000000000000000e+00" res="-9.9000000000000000e+01" rms="0.0000000000000000e+00" nType="-1" CC="1.0000000000000000e+05"/>
        </Node>
      </Node>
    </BinaryTree>
    <BinaryTree type="DecisionTree" boostWeight="7.1186362672213710e-01" itree="7">
      <Node pos="s" depth="0" Seq="0" IVar="10" Cut="5.8329269409179688e+01" cType="1" nS="9.3035605468750000e+03" nB="1.2716683593750000e+04" nEv="2.2020244140625000e+04" nSuw="2.0590000000000000e+03" nBuw="1.9839000000000000e+04" nEvuw="2.1898000000000000e+04" sepI="2.4399380385875702e-01" sepG="8.2511009216308594e+01" res="-9.9000000000000000e+01" rms="0.0000000000000000e+00" nType="0" CC="2.0283218414849352e+02">
        <Node pos="l" depth="1" Seq="0" IVar="10" Cut="4.2140384674072266e+01" cType="0" nS="6.7620336914062500e+03" nB="7.7294282226562500e+03" nEv="1.4491461914062500e+04" nSuw="5.0500000000000000e+02" nBuw="1.3258000000000000e+04" nEvuw="1.3763000000000000e+04" sepI="2.4888589978218079e-01" sepG="1.4920600891113281e+02" res="-9.9000000000000000e+01" rms="0.0000000000000000e+00" nType="0" CC="1.4920600918796117e+02">
          <Node pos="l" depth="2" Seq="0" IVar="-1" Cut="2.5714285373687744e+00" cType="1" nS="3.3173955078125000e+03" nB="2.2587600097656250e+03" nEv="5.5761557617187500e+03" nSuw="3.3800000000000000e+02" nBuw="3.8810000000000000e+03" nEvuw="4.2190000000000000e+03" sepI="2.4098920822143555e-01" sepG="-1.0000000000000000e+00" res="-9.9000000000000000e+01" rms="0.0000000000000000e+00" nType="1" CC="9.0806462683893187e+01"/>
          <Node pos="r" depth="2" Seq="2" IVar="-1" Cut="7.0829826593399048e-01" cType="1" nS="3.4446381835937500e+03" nB="5.4706679687500000e+03" nEv="8.9153066406250000e+03" nSuw="1.6700000000000000e+02" nBuw="9.3770000000000000e+03" nEvuw="9.5440000000000000e+03" sepI="2.3708902299404144e-01" sepG="-1.0000000000000000e+00" res="-9.9000000000000000e+01" rms="0.0000000000000000e+00" nType="-1" CC="1.0000000000000000e+05"/>
        </Node>
        <Node pos="r" depth="1" Seq="1" IVar="15" Cut="1.9219270324707031e+02" cType="1" nS="2.5415266113281250e+03" nB="4.9872558593750000e+03" nEv="7.5287822265625000e+03" nSuw="1.5540000000000000e+03" nBuw="6.5810000000000000e+03" nEvuw="8.1350000000000000e+03" sepI="2.2361803054809570e-01" sepG="3.2315325927734375e+02" res="-9.9000000000000000e+01" rms="0.0000000000000000e+00" nType="0" CC="3.2315328469169549e+02">
          <Node pos="l" depth="2" Seq="1" IVar="-1" Cut="2.9200632572174072e+00" cType="1" nS="7.5970886230468750e+02" nB="5.5227836608886719e+01" nEv="8.1493670654296875e+02" nSuw="3.3000000000000000e+01" nBuw="4.3000000000000000e+02" nEvuw="4.6300000000000000e+02" sepI="6.3176780939102173e-02" sepG="-1.0000000000000000e+00" res="-9.9000000000000000e+01" rms="0.0000000000000000e+00" nType="1" CC="1.0000000000000000e+05"/>
          <Node pos="r" depth="2" Seq="3" IVar="-1" Cut="8.3793846130371094e+01" cType="0" nS="1.7818178710937500e+03" nB="4.9320278320312500e+03" nEv="6.7138457031250000e+03" nSuw="1.5210000000000000e+03" nBuw="6.1510000000000000e+03" nEvuw="7.6720000000000000e+03" sepI="1.9496026635169983e-01" sepG="-1.0000000000000000e+00" res="-9.9000000000000000e+01" rms="0.0000000000000000e+00" nType="-1" CC="1.0000000000000000e+05"/>
        </Node>
      </Node>
    </BinaryTree>
    <BinaryTree type="DecisionTree" boostWeight="5.4147729380109577e-01" itree="8">
      <Node pos="s" depth="0" Seq="0" IVar="4" Cut="1.1477910280227661e+00" cType="1" nS="1.1674348632812500e+04" nB="1.0345895507812500e+04" nEv="2.2020244140625000e+04" nSuw="2.0590000000000000e+03" nBuw="1.9839000000000000e+04" nEvuw="2.1898000000000000e+04" sepI="2.4909010529518127e-01" sepG="8.6136138916015625e+01" res="-9.9000000000000000e+01" rms="0.0000000000000000e+00" nType="0" CC="1.1302212097222582e+02">
        <Node pos="l" depth="1" Seq="0" IVar="4" Cut="-1.2505276203155518e+00" cType="0" nS="9.5453349609375000e+03" nB="7.3623334960937500e+03" nEv="1.6907667968750000e+04" nSuw="1.6280000000000000e+03" nBuw="1.4026000000000000e+04" nEvuw="1.5654000000000000e+04" sepI="2.4583245813846588e-01" sepG="1.3990815734863281e+02" res="-9.9000000000000000e+01" rms="0.0000000000000000e+00" nType="0" CC="1.3990840495635348e+02">
          <Node pos="l" depth="2" Seq="0" IVar="-1" Cut="2.0840818786621094e+02" cType="1" nS="7.5957807617187500e+03" nB="4.6404301757812500e+03" nEv="1.2236210937500000e+04" nSuw="1.2440000000000000e+03" nBuw="8.5390000000000000e+03" nEvuw="9.7830000000000000e+03" sepI="2.3541641235351562e-01" sepG="-1.0000000000000000e+00" res="-9.9000000000000000e+01" rms="0.0000000000000000e+00" nType="1" CC="5.6415680233049443e+01"/>
          <Node pos="r" depth="2" Seq="2" IVar="5" Cut="2.5431935787200928e+00" cType="1" nS="1.9495537109375000e+03" nB="2.7219035644531250e+03" nEv="4.6714575195312500e+03" nSuw="3.8400000000000000e+02" nBuw="5.4870000000000000e+03" nEvuw="5.8710000000000000e+03" sepI="2.4316617846488953e-01" sepG="7.6272964477539062e+01" res="-9.9000000000000000e+01" rms="0.0000000000000000e+00" nType="0" CC="7.6272947344858039e+01">
            <Node pos="l" depth="3" Seq="2" IVar="-1" Cut="0.0000000000000000e+00" cType="1" nS="1.5836092529296875e+03" nB="1.5374681396484375e+03" nEv="3.1210773925781250e+03" nSuw="3.3200000000000000e+02" nBuw="2.0450000000000000e+03" nEvuw="2.3770000000000000e+03" sepI="2.4994535744190216e-01" sepG="-1.0000000000000000e+00" res="-9.9000000000000000e+01" rms="0.0000000000000000e+00" nType="1" CC="1.0000000000000000e+05"/>
            <Node pos="r" depth="3" Seq="6" IVar="-1" Cut="0.0000000000000000e+00" cType="1" nS="3.6594451904296875e+02" nB="1.1844354248046875e+03" nEv="1.5503798828125000e+03" nSuw="5.2000000000000000e+01" nBuw="3.4420000000000000e+03" nEvuw="3.4940000000000000e+03" sepI="1.8032267689704895e-01" sepG="-1.0000000000000000e+00" res="-9.9000000000000000e+01" rms="0.0000000000000000e+00" nType="-1" CC="1.0000000000000000e+05"/>
          </Node>
        </Node>
        <Node pos="r" depth="1" Seq="1" IVar="-1" Cut="1.7953798770904541e+00" cType="1" nS="2.1290141601562500e+03" nB="2.9835620117187500e+03" nEv="5.1125761718750000e+03" nSuw="4.3100000000000000e+02" nBuw="5.8130000000000000e+03" nEvuw="6.2440000000000000e+03" sepI="2.4301552772521973e-01" sepG="-1.0000000000000000e+00" res="-9.9000000000000000e+01" rms="0.0000000000000000e+00" nType="-1" CC="6.3272845691893963e+01"/>
      </Node>
    </BinaryTree>
    <BinaryTree type="DecisionTree" boostWeight="4.6807120243678552e-01" itree="9">
      <Node pos="s" depth="0" Seq="0" IVar="4" Cut="-1.6035830974578857e-01" cType="0" nS="1.0150453125000000e+04" nB="1.1869791015625000e+04" nEv="2.2020244140625000e+04" nSuw="2.0590000000000000e+03" nBuw="1.9839000000000000e+04" nEvuw="2.1898000000000000e+04" sepI="2.4847587943077087e-01" sepG="5.9683479309082031e+01" res="-9.9000000000000000e+01" rms="0.0000000000000000e+00" nType="0" CC="6.3033652085860467e+01">
        <Node pos="l" depth="1" Seq="0" IVar="9" Cut="5.1300585269927979e-01" cType="1" nS="5.8276621093750000e+03" nB="5.5720634765625000e+03" nEv="1.1399725585937500e+04" nSuw="1.1260000000000000e+03" nBuw="1.0331000000000000e+04" nEvuw="1.1457000000000000e+04" sepI="2.4987432360649109e-01" sepG="4.7548027038574219e+01" res="-9.9000000000000000e+01" rms="0.0000000000000000e+00" nType="0" CC="5.1464370034203512e+01">
          <Node pos="l" depth="2" Seq="0" IVar="12" Cut="-3.6130981445312500e+01" cType="0" nS="2.3558579101562500e+03" nB="1.5682823486328125e+03" nEv="3.9241401367187500e+03" nSuw="4.4700000000000000e+02" nBuw="2.3650000000000000e+03" nEvuw="2.8120000000000000e+03" sepI="2.3992986977100372e-01" sepG="5.5380702972412109e+01" res="-9.9000000000000000e+01" rms="0.0000000000000000e+00" nType="0" CC="5.5380732515154705e+01">
            <Node pos="l" depth="3" Seq="0" IVar="-1" Cut="0.0000000000000000e+00" cType="1" nS="1.6791716308593750e+03" nB="7.4025634765625000e+02" nEv="2.4194279785156250e+03" nSuw="1.2900000000000000e+02" nBuw="1.0730000000000000e+03" nEvuw="1.2020000000000000e+03" sepI="2.1234978735446930e-01" sepG="-1.0000000000000000e+00" res="-9.9000000000000000e+01" rms="0.0000000000000000e+00" nType="1" CC="1.0000000000000000e+05"/>
            <Node pos="r" depth="3" Seq="4" IVar="-1" Cut="0.0000000000000000e+00" cType="1" nS="6.7668615722656250e+02" nB="8.2802606201171875e+02" nEv="1.5047121582031250e+03" nSuw="3.1800000000000000e+02" nBuw="1.2920000000000000e+03" nEvuw="1.6100000000000000e+03" sepI="2.4747104942798615e-01" sepG="-1.0000000000000000e+00" res="-9.9000000000000000e+01" rms="0.0000000000000000e+00" nType="-1" CC="1.0000000000000000e+05"/>
          </Node>
          <Node pos="r" depth="2" Seq="2" IVar="5" Cut="1.6473014354705811e+00" cType="1" nS="3.4718041992187500e+03" nB="4.0037812500000000e+03" nEv="7.4755854492187500e+03" nSuw="6.7900000000000000e+02" nBuw="7.9660000000000000e+03" nEvuw="8.6450000000000000e+03" sepI="2.4873399734497070e-01" sepG="4.5966110229492188e+01" res="-9.9000000000000000e+01" rms="0.0000000000000000e+00" nType="0" CC="4.5966173964116024e+01">
            <Node pos="l" depth="3" Seq="2" IVar="-1" Cut="0.0000000000000000e+00" cType="1" nS="1.3000000000000000e+03" nB="9.2229333496093750e+02" nEv="2.2222934570312500e+03" nSuw="3.4000000000000000e+02" nBuw="9.1200000000000000e+02" nEvuw="1.2520000000000000e+03" sepI="2.4277818202972412e-01" sepG="-1.0000000000000000e+00" res="-9.9000000000000000e+01" rms="0.0000000000000000e+00" nType="1" CC="1.0000000000000000e+05"/>
            <Node pos="r" depth="3" Seq="6" IVar="-1" Cut="0.0000000000000000e+00" cType="1" nS="2.1718041992187500e+03" nB="3.0814877929687500e+03" nEv="5.2532919921875000e+03" nSuw="3.3900000000000000e+02" nBuw="7.0540000000000000e+03" nEvuw="7.3930000000000000e+03" sepI="2.4250350892543793e-01" sepG="-1.0000000000000000e+00" res="-9.9000000000000000e+01" rms="0.0000000000000000e+00" nType="-1" CC="1.0000000000000000e+05"/>
          </Node>
        </Node>
        <Node pos="r" depth="1" Seq="1" IVar="8" Cut="2.5583381652832031e+00" cType="0" nS="4.3227915039062500e+03" nB="6.2977270507812500e+03" nEv="1.0620518554687500e+04" nSuw="9.3300000000000000e+02" nBuw="9.5080000000000000e+03" nEvuw="1.0441000000000000e+04" sepI="2.4135521054267883e-01" sepG="6.6384056091308594e+01" res="-9.9000000000000000e+01" rms="0.0000000000000000e+00" nType="0" CC="6.6383987974416414e+01">
          <Node pos="l" depth="2" Seq="1" IVar="11" Cut="1.2347966432571411e+00" cType="1" nS="4.3533367919921875e+02" nB="1.5977397155761719e+02" nEv="5.9510766601562500e+02" nSuw="1.4000000000000000e+01" nBuw="2.2400000000000000e+02" nEvuw="2.3800000000000000e+02" sepI="1.9639807939529419e-01" sepG="4.7179225921630859e+01" res="-9.9000000000000000e+01" rms="0.0000000000000000e+00" nType="0" CC="4.7179225462238634e+01">
            <Node pos="l" depth="3" Seq="1" IVar="-1" Cut="0.0000000000000000e+00" cType="1" nS="4.2620104980468750e+02" nB="7.1768081665039062e+01" nEv="4.9796911621093750e+02" nSuw="4.0000000000000000e+00" nBuw="1.6700000000000000e+02" nEvuw="1.7100000000000000e+02" sepI="1.2335052341222763e-01" sepG="-1.0000000000000000e+00" res="-9.9000000000000000e+01" rms="0.0000000000000000e+00" nType="1" CC="1.0000000000000000e+05"/>
            <Node pos="r" depth="3" Seq="5" IVar="-1" Cut="0.0000000000000000e+00" cType="1" nS="9.1326417922973633e+00" nB="8.8005897521972656e+01" nEv="9.7138534545898438e+01" nSuw="1.0000000000000000e+01" nBuw="5.7000000000000000e+01" nEvuw="6.7000000000000000e+01" sepI="8.5177533328533173e-02" sepG="-1.0000000000000000e+00" res="-9.9000000000000000e+01" rms="0.0000000000000000e+00" nType="-1" CC="1.0000000000000000e+05"/>
          </Node>
          <Node pos="r" depth="2" Seq="3" IVar="-1" Cut="5.5491107940673828e+01" cType="0" nS="3.8874577636718750e+03" nB="6.1379531250000000e+03" nEv="1.0025411132812500e+04" nSuw="9.1900000000000000e+02" nBuw="9.2840000000000000e+03" nEvuw="1.0203000000000000e+04" sepI="2.3740229010581970e-01" sepG="-1.0000000000000000e+00" res="-9.9000000000000000e+01" rms="0.0000000000000000e+00" nType="-1" CC="1.0000000000000000e+05"/>
        </Node>
      </Node>
    </BinaryTree>
    <BinaryTree type="DecisionTree" boostWeight="4.2955703715520499e-01" itree="10">
      <Node pos="s" depth="0" Seq="0" IVar="3" Cut="8.3714149475097656e+01" cType="0" nS="1.1527111328125000e+04" nB="1.0493132812500000e+04" nEv="2.2020244140625000e+04" nSuw="2.0590000000000000e+03" nBuw="1.9839000000000000e+04" nEvuw="2.1898000000000000e+04" sepI="2.4944879114627838e-01" sepG="6.2644832611083984e+01" res="-9.9000000000000000e+01" rms="0.0000000000000000e+00" nType="0" CC="7.0628696877924085e+01">
        <Node pos="l" depth="1" Seq="0" IVar="8" Cut="5.6099539995193481e-01" cType="0" nS="1.0749760742187500e+04" nB="9.1193906250000000e+03" nEv="1.9869152343750000e+04" nSuw="1.9250000000000000e+03" nBuw="1.8178000000000000e+04" nEvuw="2.0103000000000000e+04" sepI="2.4831673502922058e-01" sepG="5.7803192138671875e+01" res="-9.9000000000000000e+01" rms="0.0000000000000000e+00" nType="0" CC="7.4620656607923593e+01">
          <Node pos="l" depth="2" Seq="0" IVar="2" Cut="4.7398612976074219e+01" cType="0" nS="1.0263051757812500e+04" nB="8.1982500000000000e+03" nEv="1.8461300781250000e+04" nSuw="1.8330000000000000e+03" nBuw="1.6626000000000000e+04" nEvuw="1.8459000000000000e+04" sepI="2.4687267839908600e-01" sepG="9.1438133239746094e+01" res="-9.9000000000000000e+01" rms="0.0000000000000000e+00" nType="0" CC="9.1438039602522622e+01">
            <Node pos="l" depth="3" Seq="0" IVar="-1" Cut="0.0000000000000000e+00" cType="1" nS="8.5854033203125000e+03" nB="5.8971440429687500e+03" nEv="1.4482546875000000e+04" nSuw="1.6020000000000000e+03" nBuw="1.0696000000000000e+04" nEvuw="1.2298000000000000e+04" sepI="2.4138624966144562e-01" sepG="-1.0000000000000000e+00" res="-9.9000000000000000e+01" rms="0.0000000000000000e+00" nType="1" CC="1.0000000000000000e+05"/>
            <Node pos="r" depth="3" Seq="4" IVar="-1" Cut="0.0000000000000000e+00" cType="1" nS="1.6776484375000000e+03" nB="2.3011059570312500e+03" nEv="3.9787543945312500e+03" nSuw="2.3100000000000000e+02" nBuw="5.9300000000000000e+03" nEvuw="6.1610000000000000e+03" sepI="2.4386154115200043e-01" sepG="-1.0000000000000000e+00" res="-9.9000000000000000e+01" rms="0.0000000000000000e+00" nType="-1" CC="1.0000000000000000e+05"/>
          </Node>
          <Node pos="r" depth="2" Seq="2" IVar="0" Cut="6.5964294433593750e+01" cType="1" nS="4.8670928955078125e+02" nB="9.2114068603515625e+02" nEv="1.4078499755859375e+03" nSuw="9.2000000000000000e+01" nBuw="1.5520000000000000e+03" nEvuw="1.6440000000000000e+03" sepI="2.2619491815567017e-01" sepG="4.3254295349121094e+01" res="-9.9000000000000000e+01" rms="0.0000000000000000e+00" nType="0" CC="4.3254283126928385e+01">
            <Node pos="l" depth="3" Seq="2" IVar="-1" Cut="0.0000000000000000e+00" cType="1" nS="2.2712998962402344e+02" nB="1.2169964599609375e+02" nEv="3.4882962036132812e+02" nSuw="2.3000000000000000e+01" nBuw="4.3400000000000000e+02" nEvuw="4.5700000000000000e+02" sepI="2.2716271877288818e-01" sepG="-1.0000000000000000e+00" res="-9.9000000000000000e+01" rms="0.0000000000000000e+00" nType="1" CC="1.0000000000000000e+05"/>
            <Node pos="r" depth="3" Seq="6" IVar="-1" Cut="0.0000000000000000e+00" cType="1" nS="2.5957931518554688e+02" nB="7.9944104003906250e+02" nEv="1.0590202636718750e+03" nSuw="6.9000000000000000e+01" nBuw="1.1180000000000000e+03" nEvuw="1.1870000000000000e+03" sepI="1.8503245711326599e-01" sepG="-1.0000000000000000e+00" res="-9.9000000000000000e+01" rms="0.0000000000000000e+00" nType="-1" CC="1.0000000000000000e+05"/>
          </Node>
        </Node>
        <Node pos="r" depth="1" Seq="1" IVar="-1" Cut="2.7202739715576172e+00" cType="1" nS="7.7735046386718750e+02" nB="1.3737423095703125e+03" nEv="2.1510927734375000e+03" nSuw="1.3400000000000000e+02" nBuw="1.6610000000000000e+03" nEvuw="1.7950000000000000e+03" sepI="2.3078303039073944e-01" sepG="-1.0000000000000000e+00" res="-9.9000000000000000e+01" rms="0.0000000000000000e+00" nType="-1" CC="3.2631572655467664e+01"/>
      </Node>
    </BinaryTree>
    <BinaryTree type="DecisionTree" boostWeight="3.2706508310652538e-01" itree="11">
      <Node pos="s" depth="0" Seq="0" IVar="0" Cut="8.3291748046875000e+01" cType="1" nS="1.0449441406250000e+04" nB="1.1570802734375000e+04" nEv="2.2020244140625000e+04" nSuw="2.0590000000000000e+03" nBuw="1.9839000000000000e+04" nEvuw="2.1898000000000000e+04" sepI="2.4935168027877808e-01" sepG="7.1981971740722656e+01" res="-9.9000000000000000e+01" rms="0.0000000000000000e+00" nType="0" CC="7.1981888743030140e+01">
        <Node pos="l" depth="1" Seq="0" IVar="16" Cut="9.5238095521926880e-01" cType="1" nS="8.4682734375000000e+03" nB="8.2421123046875000e+03" nEv="1.6710384765625000e+04" nSuw="1.5240000000000000e+03" nBuw="1.5300000000000000e+04" nEvuw="1.6824000000000000e+04" sepI="2.4995420873165131e-01" sepG="5.5258182525634766e+01" res="-9.9000000000000000e+01" rms="0.0000000000000000e+00" nType="0" CC="5.9482068197169838e+01">
          <Node pos="l" depth="2" Seq="0" IVar="1" Cut="3.1199178695678711e+01" cType="0" nS="2.6752839355468750e+03" nB="1.7661844482421875e+03" nEv="4.4414682617187500e+03" nSuw="3.7500000000000000e+02" nBuw="3.1570000000000000e+03" nEvuw="3.5320000000000000e+03" sepI="2.3952606320381165e-01" sepG="6.3705978393554688e+01" res="-9.9000000000000000e+01" rms="0.0000000000000000e+00" nType="0" CC="6.3705924586820856e+01">
            <Node pos="l" depth="3" Seq="0" IVar="-1" Cut="0.0000000000000000e+00" cType="1" nS="2.1745625000000000e+03" nB="1.0408317871093750e+03" nEv="3.2153942871093750e+03" nSuw="2.7700000000000000e+02" nBuw="1.8750000000000000e+03" nEvuw="2.1520000000000000e+03" sepI="2.1891926229000092e-01" sepG="-1.0000000000000000e+00" res="-9.9000000000000000e+01" rms="0.0000000000000000e+00" nType="1" CC="1.0000000000000000e+05"/>
            <Node pos="r" depth="3" Seq="4" IVar="-1" Cut="0.0000000000000000e+00" cType="1" nS="5.0072146606445312e+02" nB="7.2535266113281250e+02" nEv="1.2260740966796875e+03" nSuw="9.8000000000000000e+01" nBuw="1.2820000000000000e+03" nEvuw="1.3800000000000000e+03" sepI="2.4160836637020111e-01" sepG="-1.0000000000000000e+00" res="-9.9000000000000000e+01" rms="0.0000000000000000e+00" nType="-1" CC="1.0000000000000000e+05"/>
          </Node>
          <Node pos="r" depth="2" Seq="2" IVar="-1" Cut="2.9919824600219727e+00" cType="1" nS="5.7929897460937500e+03" nB="6.4759277343750000e+03" nEv="1.2268916992187500e+04" nSuw="1.1490000000000000e+03" nBuw="1.2143000000000000e+04" nEvuw="1.3292000000000000e+04" sepI="2.4922537803649902e-01" sepG="-1.0000000000000000e+00" res="-9.9000000000000000e+01" rms="0.0000000000000000e+00" nType="-1" CC="1.0000000000000000e+05"/>
        </Node>
        <Node pos="r" depth="1" Seq="1" IVar="15" Cut="2.9743853759765625e+02" cType="1" nS="1.9811674804687500e+03" nB="3.3286909179687500e+03" nEv="5.3098583984375000e+03" nSuw="5.3500000000000000e+02" nBuw="4.5390000000000000e+03" nEvuw="5.0740000000000000e+03" sepI="2.3389922082424164e-01" sepG="2.9276651382446289e+01" res="-9.9000000000000000e+01" rms="0.0000000000000000e+00" nType="0" CC="3.0851129009233318e+01">
          <Node pos="l" depth="2" Seq="1" IVar="9" Cut="4.4672209024429321e-01" cType="1" nS="1.9760965576171875e+03" nB="3.1061049804687500e+03" nEv="5.0822016601562500e+03" nSuw="5.3200000000000000e+02" nBuw="3.4260000000000000e+03" nEvuw="3.9580000000000000e+03" sepI="2.3764052987098694e-01" sepG="3.2425670623779297e+01" res="-9.9000000000000000e+01" rms="0.0000000000000000e+00" nType="0" CC="3.2425624341177354e+01">
            <Node pos="l" depth="3" Seq="1" IVar="-1" Cut="0.0000000000000000e+00" cType="1" nS="5.9311260986328125e+02" nB="5.0289147949218750e+02" nEv="1.0960040283203125e+03" nSuw="1.6000000000000000e+02" nBuw="6.0500000000000000e+02" nEvuw="7.6500000000000000e+02" sepI="2.4830593168735504e-01" sepG="-1.0000000000000000e+00" res="-9.9000000000000000e+01" rms="0.0000000000000000e+00" nType="1" CC="1.0000000000000000e+05"/>
            <Node pos="r" depth="3" Seq="5" IVar="-1" Cut="0.0000000000000000e+00" cType="1" nS="1.3829838867187500e+03" nB="2.6032136230468750e+03" nEv="3.9861975097656250e+03" nSuw="3.7200000000000000e+02" nBuw="2.8210000000000000e+03" nEvuw="3.1930000000000000e+03" sepI="2.2657360136508942e-01" sepG="-1.0000000000000000e+00" res="-9.9000000000000000e+01" rms="0.0000000000000000e+00" nType="-1" CC="1.0000000000000000e+05"/>
          </Node>
          <Node pos="r" depth="2" Seq="3" IVar="-1" Cut="8.7244941711425781e+01" cType="1" nS="5.0709967613220215e+00" nB="2.2258596801757812e+02" nEv="2.2765695190429688e+02" nSuw="3.0000000000000000e+00" nBuw="1.1130000000000000e+03" nEvuw="1.1160000000000000e+03" sepI="2.1778564900159836e-02" sepG="-1.0000000000000000e+00" res="-9.9000000000000000e+01" rms="0.0000000000000000e+00" nType="-1" CC="1.0000000000000000e+05"/>
        </Node>
      </Node>
    </BinaryTree>
    <BinaryTree type="DecisionTree" boostWeight="3.9041908853735269e-01" itree="12">
      <Node pos="s" depth="0" Seq="0" IVar="0" Cut="8.3291748046875000e+01" cType="1" nS="1.1549407226562500e+04" nB="1.0470836914062500e+04" nEv="2.2020244140625000e+04" nSuw="2.0590000000000000e+03" nBuw="1.9839000000000000e+04" nEvuw="2.1898000000000000e+04" sepI="2.4940021336078644e-01" sepG="7.8896209716796875e+01" res="-9.9000000000000000e+01" rms="0.0000000000000000e+00" nType="0" CC="7.8895846458202868e+01">
        <Node pos="l" depth="1" Seq="0" IVar="7" Cut="3.5219767093658447e+00" cType="1" nS="9.3824550781250000e+03" nB="7.4390107421875000e+03" nEv="1.6821464843750000e+04" nSuw="1.5240000000000000e+03" nBuw="1.5300000000000000e+04" nEvuw="1.6824000000000000e+04" sepI="2.4666300415992737e-01" sepG="5.0718055725097656e+01" res="-9.9000000000000000e+01" rms="0.0000000000000000e+00" nType="0" CC="5.0718159612049021e+01">
          <Node pos="l" depth="2" Seq="0" IVar="7" Cut="1.5296479463577271e+00" cType="0" nS="9.3303437500000000e+03" nB="7.1716596679687500e+03" nEv="1.6502003906250000e+04" nSuw="1.5220000000000000e+03" nBuw="1.4358000000000000e+04" nEvuw="1.5880000000000000e+04" sepI="2.4572196602821350e-01" sepG="4.8712978363037109e+01" res="-9.9000000000000000e+01" rms="0.0000000000000000e+00" nType="0" CC="4.8713249775323675e+01">
            <Node pos="l" depth="3" Seq="0" IVar="-1" Cut="0.0000000000000000e+00" cType="1" nS="8.5613916015625000e+03" nB="6.0789418945312500e+03" nEv="1.4640333984375000e+04" nSuw="1.2710000000000000e+03" nBuw="1.3345000000000000e+04" nEvuw="1.4616000000000000e+04" sepI="2.4281214177608490e-01" sepG="-1.0000000000000000e+00" res="-9.9000000000000000e+01" rms="0.0000000000000000e+00" nType="1" CC="1.0000000000000000e+05"/>
            <Node pos="r" depth="3" Seq="4" IVar="-1" Cut="0.0000000000000000e+00" cType="1" nS="7.6895184326171875e+02" nB="1.0927177734375000e+03" nEv="1.8616695556640625e+03" nSuw="2.5100000000000000e+02" nBuw="1.0130000000000000e+03" nEvuw="1.2640000000000000e+03" sepI="2.4243868887424469e-01" sepG="-1.0000000000000000e+00" res="-9.9000000000000000e+01" rms="0.0000000000000000e+00" nType="-1" CC="1.0000000000000000e+05"/>
          </Node>
          <Node pos="r" depth="2" Seq="2" IVar="-1" Cut="1.5159839391708374e+00" cType="0" nS="5.2110733032226562e+01" nB="2.6735113525390625e+02" nEv="3.1946188354492188e+02" nSuw="2.0000000000000000e+00" nBuw="9.4200000000000000e+02" nEvuw="9.4400000000000000e+02" sepI="1.3651210069656372e-01" sepG="-1.0000000000000000e+00" res="-9.9000000000000000e+01" rms="0.0000000000000000e+00" nType="-1" CC="2.9499448459430084e+01"/>
        </Node>
        <Node pos="r" depth="1" Seq="1" IVar="-1" Cut="2.9743853759765625e+02" cType="1" nS="2.1669526367187500e+03" nB="3.0318261718750000e+03" nEv="5.1987788085937500e+03" nSuw="5.3500000000000000e+02" nBuw="4.5390000000000000e+03" nEvuw="5.0740000000000000e+03" sepI="2.4308101832866669e-01" sepG="-1.0000000000000000e+00" res="-9.9000000000000000e+01" rms="0.0000000000000000e+00" nType="-1" CC="3.0633689064086411e+01"/>
      </Node>
    </BinaryTree>
    <BinaryTree type="DecisionTree" boostWeight="1.8868703709355086e-01" itree="13">
      <Node pos="s" depth="0" Seq="0" IVar="3" Cut="8.3714149475097656e+01" cType="0" nS="1.0737035156250000e+04" nB="1.1283208984375000e+04" nEv="2.2020244140625000e+04" nSuw="2.0590000000000000e+03" nBuw="1.9839000000000000e+04" nEvuw="2.1898000000000000e+04" sepI="2.4984620511531830e-01" sepG="4.7755611419677734e+01" res="-9.9000000000000000e+01" rms="0.0000000000000000e+00" nType="0" CC="4.7755765197616711e+01">
        <Node pos="l" depth="1" Seq="0" IVar="3" Cut="9.9628761291503906e+01" cType="1" nS="1.0018629882812500e+04" nB="9.9118867187500000e+03" nEv="1.9930517578125000e+04" nSuw="1.9250000000000000e+03" nBuw="1.8178000000000000e+04" nEvuw="2.0103000000000000e+04" sepI="2.4999283254146576e-01" sepG="4.4716331481933594e+01" res="-9.9000000000000000e+01" rms="0.0000000000000000e+00" nType="0" CC="4.4716266635877219e+01">
          <Node pos="l" depth="2" Seq="0" IVar="4" Cut="-2.7766571044921875e+00" cType="0" nS="9.8331884765625000e+03" nB="9.3781748046875000e+03" nEv="1.9211363281250000e+04" nSuw="1.8750000000000000e+03" nBuw="1.7545000000000000e+04" nEvuw="1.9420000000000000e+04" sepI="2.4985976517200470e-01" sepG="3.8430641174316406e+01" res="-9.9000000000000000e+01" rms="0.0000000000000000e+00" nType="0" CC="3.8430746742541487e+01">
            <Node pos="l" depth="3" Seq="0" IVar="-1" Cut="0.0000000000000000e+00" cType="1" nS="9.8271445312500000e+03" nB="9.2160253906250000e+03" nEv="1.9043169921875000e+04" nSuw="1.8710000000000000e+03" nBuw="1.7265000000000000e+04" nEvuw="1.9136000000000000e+04" sepI="2.4974253773689270e-01" sepG="-1.0000000000000000e+00" res="-9.9000000000000000e+01" rms="0.0000000000000000e+00" nType="1" CC="1.0000000000000000e+05"/>
            <Node pos="r" depth="3" Seq="4" IVar="-1" Cut="0.0000000000000000e+00" cType="1" nS="6.0435466766357422e+00" nB="1.6214976501464844e+02" nEv="1.6819331359863281e+02" nSuw="4.0000000000000000e+00" nBuw="2.8000000000000000e+02" nEvuw="2.8400000000000000e+02" sepI="3.4641023725271225e-02" sepG="-1.0000000000000000e+00" res="-9.9000000000000000e+01" rms="0.0000000000000000e+00" nType="-1" CC="1.0000000000000000e+05"/>
          </Node>
          <Node pos="r" depth="2" Seq="2" IVar="3" Cut="1.0538730621337891e+02" cType="0" nS="1.8544131469726562e+02" nB="5.3371215820312500e+02" nEv="7.1915344238281250e+02" nSuw="5.0000000000000000e+01" nBuw="6.3300000000000000e+02" nEvuw="6.8300000000000000e+02" sepI="1.9136849045753479e-01" sepG="1.6983755111694336e+01" res="-9.9000000000000000e+01" rms="0.0000000000000000e+00" nType="0" CC="1.6983761410062584e+01">
            <Node pos="l" depth="3" Seq="2" IVar="-1" Cut="0.0000000000000000e+00" cType="1" nS="5.4717266082763672e+01" nB="2.3809947967529297e+01" nEv="7.8527214050292969e+01" nSuw="6.0000000000000000e+00" nBuw="3.9000000000000000e+01" nEvuw="4.5000000000000000e+01" sepI="2.1127225458621979e-01" sepG="-1.0000000000000000e+00" res="-9.9000000000000000e+01" rms="0.0000000000000000e+00" nType="1" CC="1.0000000000000000e+05"/>
            <Node pos="r" depth="3" Seq="6" IVar="-1" Cut="0.0000000000000000e+00" cType="1" nS="1.3072404479980469e+02" nB="5.0990219116210938e+02" nEv="6.4062622070312500e+02" nSuw="4.4000000000000000e+01" nBuw="5.9400000000000000e+02" nEvuw="6.3800000000000000e+02" sepI="1.6241753101348877e-01" sepG="-1.0000000000000000e+00" res="-9.9000000000000000e+01" rms="0.0000000000000000e+00" nType="-1" CC="1.0000000000000000e+05"/>
          </Node>
        </Node>
        <Node pos="r" depth="1" Seq="1" IVar="1" Cut="3.9159526824951172e+01" cType="0" nS="7.1840551757812500e+02" nB="1.3713216552734375e+03" nEv="2.0897270507812500e+03" nSuw="1.3400000000000000e+02" nBuw="1.6610000000000000e+03" nEvuw="1.7950000000000000e+03" sepI="2.2559517621994019e-01" sepG="2.7965282440185547e+01" res="-9.9000000000000000e+01" rms="0.0000000000000000e+00" nType="0" CC="2.7965280754295236e+01">
          <Node pos="l" depth="2" Seq="1" IVar="5" Cut="1.7990559339523315e+00" cType="1" nS="2.8840536499023438e+02" nB="2.4409701538085938e+02" nEv="5.3250238037109375e+02" nSuw="5.5000000000000000e+01" nBuw="3.6500000000000000e+02" nEvuw="4.2000000000000000e+02" sepI="2.4826911091804504e-01" sepG="1.9519956588745117e+01" res="-9.9000000000000000e+01" rms="0.0000000000000000e+00" nType="0" CC="1.9519955080260843e+01">
            <Node pos="l" depth="3" Seq="1" IVar="-1" Cut="0.0000000000000000e+00" cType="1" nS="1.7680027770996094e+02" nB="5.6251232147216797e+01" nEv="2.3305151367187500e+02" nSuw="3.7000000000000000e+01" nBuw="8.4000000000000000e+01" nEvuw="1.2100000000000000e+02" sepI="1.8310961127281189e-01" sepG="-1.0000000000000000e+00" res="-9.9000000000000000e+01" rms="0.0000000000000000e+00" nType="1" CC="1.0000000000000000e+05"/>
            <Node pos="r" depth="3" Seq="5" IVar="-1" Cut="0.0000000000000000e+00" cType="1" nS="1.1160509490966797e+02" nB="1.8784577941894531e+02" nEv="2.9945086669921875e+02" nSuw="1.8000000000000000e+01" nBuw="2.8100000000000000e+02" nEvuw="2.9900000000000000e+02" sepI="2.3379449546337128e-01" sepG="-1.0000000000000000e+00" res="-9.9000000000000000e+01" rms="0.0000000000000000e+00" nType="-1" CC="1.0000000000000000e+05"/>
          </Node>
          <Node pos="r" depth="2" Seq="3" IVar="-1" Cut="2.0243191528320312e+02" cType="1" nS="4.3000015258789062e+02" nB="1.1272246093750000e+03" nEv="1.5572247314453125e+03" nSuw="7.9000000000000000e+01" nBuw="1.2960000000000000e+03" nEvuw="1.3750000000000000e+03" sepI="1.9988328218460083e-01" sepG="-1.0000000000000000e+00" res="-9.9000000000000000e+01" rms="0.0000000000000000e+00" nType="-1" CC="1.0000000000000000e+05"/>
        </Node>
      </Node>
    </BinaryTree>
    <BinaryTree type="DecisionTree" boostWeight="2.3303621304006858e-01" itree="14">
      <Node pos="s" depth="0" Seq="0" IVar="6" Cut="1.8050365447998047e+00" cType="1" nS="9.9426562500000000e+03" nB="1.2077587890625000e+04" nEv="2.2020244140625000e+04" nSuw="2.0590000000000000e+03" nBuw="1.9839000000000000e+04" nEvuw="2.1898000000000000e+04" sepI="2.4765002727508545e-01" sepG="3.1229078292846680e+01" res="-9.9000000000000000e+01" rms="0.0000000000000000e+00" nType="0" CC="3.8232573544255807e+01">
        <Node pos="l" depth="1" Seq="0" IVar="7" Cut="3.2995295524597168e+00" cType="1" nS="9.4045166015625000e+03" nB="1.0936439453125000e+04" nEv="2.0340955078125000e+04" nSuw="1.9300000000000000e+03" nBuw="1.7674000000000000e+04" nEvuw="1.9604000000000000e+04" sepI="2.4858202040195465e-01" sepG="3.9342666625976562e+01" res="-9.9000000000000000e+01" rms="0.0000000000000000e+00" nType="0" CC="4.1734352170980856e+01">
          <Node pos="l" depth="2" Seq="0" IVar="8" Cut="2.8436729907989502e+00" cType="0" nS="9.2956093750000000e+03" nB="1.0496197265625000e+04" nEv="1.9791806640625000e+04" nSuw="1.9200000000000000e+03" nBuw="1.6383000000000000e+04" nEvuw="1.8303000000000000e+04" sepI="2.4908006191253662e-01" sepG="2.2557249069213867e+01" res="-9.9000000000000000e+01" rms="0.0000000000000000e+00" nType="0" CC="2.2557155809604410e+01">
            <Node pos="l" depth="3" Seq="0" IVar="-1" Cut="0.0000000000000000e+00" cType="1" nS="2.4016165161132812e+02" nB="8.9193634033203125e+01" nEv="3.2935528564453125e+02" nSuw="1.1000000000000000e+01" nBuw="9.7000000000000000e+01" nEvuw="1.0800000000000000e+02" sepI="1.9747324287891388e-01" sepG="-1.0000000000000000e+00" res="-9.9000000000000000e+01" rms="0.0000000000000000e+00" nType="1" CC="1.0000000000000000e+05"/>
            <Node pos="r" depth="3" Seq="4" IVar="-1" Cut="0.0000000000000000e+00" cType="1" nS="9.0554482421875000e+03" nB="1.0407002929687500e+04" nEv="1.9462451171875000e+04" nSuw="1.9090000000000000e+03" nBuw="1.6286000000000000e+04" nEvuw="1.8195000000000000e+04" sepI="2.4879437685012817e-01" sepG="-1.0000000000000000e+00" res="-9.9000000000000000e+01" rms="0.0000000000000000e+00" nType="-1" CC="1.0000000000000000e+05"/>
          </Node>
          <Node pos="r" depth="2" Seq="2" IVar="16" Cut="6.8571429252624512e+00" cType="0" nS="1.0890715026855469e+02" nB="4.4024224853515625e+02" nEv="5.4914941406250000e+02" nSuw="1.0000000000000000e+01" nBuw="1.2910000000000000e+03" nEvuw="1.3010000000000000e+03" sepI="1.5898901224136353e-01" sepG="4.4125892639160156e+01" res="-9.9000000000000000e+01" rms="0.0000000000000000e+00" nType="0" CC="4.4125895256939231e+01">
            <Node pos="l" depth="3" Seq="2" IVar="-1" Cut="0.0000000000000000e+00" cType="1" nS="8.3081871032714844e+01" nB="2.4411396026611328e+01" nEv="1.0749326324462891e+02" nSuw="2.0000000000000000e+00" nBuw="2.1900000000000000e+02" nEvuw="2.2100000000000000e+02" sepI="1.7552393674850464e-01" sepG="-1.0000000000000000e+00" res="-9.9000000000000000e+01" rms="0.0000000000000000e+00" nType="1" CC="1.0000000000000000e+05"/>
            <Node pos="r" depth="3" Seq="6" IVar="-1" Cut="0.0000000000000000e+00" cType="1" nS="2.5825284957885742e+01" nB="4.1583084106445312e+02" nEv="4.4165612792968750e+02" nSuw="8.0000000000000000e+00" nBuw="1.0720000000000000e+03" nEvuw="1.0800000000000000e+03" sepI="5.5054560303688049e-02" sepG="-1.0000000000000000e+00" res="-9.9000000000000000e+01" rms="0.0000000000000000e+00" nType="-1" CC="1.0000000000000000e+05"/>
          </Node>
        </Node>
        <Node pos="r" depth="1" Seq="1" IVar="-1" Cut="9.4018516540527344e+01" cType="1" nS="5.3813970947265625e+02" nB="1.1411488037109375e+03" nEv="1.6792884521484375e+03" nSuw="1.2900000000000000e+02" nBuw="2.1650000000000000e+03" nEvuw="2.2940000000000000e+03" sepI="2.1776430308818817e-01" sepG="-1.0000000000000000e+00" res="-9.9000000000000000e+01" rms="0.0000000000000000e+00" nType="-1" CC="1.0000000000000000e+05"/>
      </Node>
    </BinaryTree>
    <BinaryTree type="DecisionTree" boostWeight="1.8847040882985916e-01" itree="15">
      <Node pos="s" depth="0" Seq="0" IVar="7" Cut="3.2744131088256836e+00" cType="1" nS="1.1171256835937500e+04" nB="1.0848987304687500e+04" nEv="2.2020244140625000e+04" nSuw="2.0590000000000000e+03" nBuw="1.9839000000000000e+04" nEvuw="2.1898000000000000e+04" sepI="2.4994646012783051e-01" sepG="3.4999607086181641e+01" res="-9.9000000000000000e+01" rms="0.0000000000000000e+00" nType="0" CC="5.3568116471492885e+01">
        <Node pos="l" depth="1" Seq="0" IVar="4" Cut="-2.7795221805572510e+00" cType="0" nS="1.0799684570312500e+04" nB="1.0109334960937500e+04" nEv="2.0909019531250000e+04" nSuw="2.0410000000000000e+03" nBuw="1.6937000000000000e+04" nEvuw="1.8978000000000000e+04" sepI="2.4972747266292572e-01" sepG="2.8763431549072266e+01" res="-9.9000000000000000e+01" rms="0.0000000000000000e+00" nType="0" CC="2.8763364778007599e+01">
          <Node pos="l" depth="2" Seq="0" IVar="15" Cut="2.9016754150390625e+02" cType="1" nS="1.0788713867187500e+04" nB="9.9738466796875000e+03" nEv="2.0762560546875000e+04" nSuw="2.0360000000000000e+03" nBuw="1.6675000000000000e+04" nEvuw="1.8711000000000000e+04" sepI="2.4961492419242859e-01" sepG="2.4215984344482422e+01" res="-9.9000000000000000e+01" rms="0.0000000000000000e+00" nType="0" CC="2.4216046923051181e+01">
            <Node pos="l" depth="3" Seq="0" IVar="-1" Cut="0.0000000000000000e+00" cType="1" nS="1.0714013671875000e+04" nB="9.7395634765625000e+03" nEv="2.0453578125000000e+04" nSuw="2.0260000000000000e+03" nBuw="1.5352000000000000e+04" nEvuw="1.7378000000000000e+04" sepI="2.4943256378173828e-01" sepG="-1.0000000000000000e+00" res="-9.9000000000000000e+01" rms="0.0000000000000000e+00" nType="1" CC="1.0000000000000000e+05"/>
            <Node pos="r" depth="3" Seq="4" IVar="-1" Cut="0.0000000000000000e+00" cType="1" nS="7.4700515747070312e+01" nB="2.3428271484375000e+02" nEv="3.0898321533203125e+02" nSuw="1.0000000000000000e+01" nBuw="1.3230000000000000e+03" nEvuw="1.3330000000000000e+03" sepI="1.8331332504749298e-01" sepG="-1.0000000000000000e+00" res="-9.9000000000000000e+01" rms="0.0000000000000000e+00" nType="-1" CC="1.0000000000000000e+05"/>
          </Node>
          <Node pos="r" depth="2" Seq="2" IVar="-1" Cut="3.7354654073715210e-01" cType="1" nS="1.0969920158386230e+01" nB="1.3548886108398438e+02" nEv="1.4645877075195312e+02" nSuw="5.0000000000000000e+00" nBuw="2.6200000000000000e+02" nEvuw="2.6700000000000000e+02" sepI="6.9290906190872192e-02" sepG="-1.0000000000000000e+00" res="-9.9000000000000000e+01" rms="0.0000000000000000e+00" nType="-1" CC="1.0000000000000000e+05"/>
        </Node>
        <Node pos="r" depth="1" Seq="1" IVar="0" Cut="5.6413230895996094e+01" cType="1" nS="3.7157263183593750e+02" nB="7.3965209960937500e+02" nEv="1.1112247314453125e+03" nSuw="1.8000000000000000e+01" nBuw="2.9020000000000000e+03" nEvuw="2.9200000000000000e+03" sepI="2.2257040441036224e-01" sepG="7.2136512756347656e+01" res="-9.9000000000000000e+01" rms="0.0000000000000000e+00" nType="0" CC="7.2136500110559723e+01">
          <Node pos="l" depth="2" Seq="1" IVar="5" Cut="2.9994459152221680e+00" cType="1" nS="3.0478939819335938e+02" nB="1.8622735595703125e+02" nEv="4.9101672363281250e+02" nSuw="5.0000000000000000e+00" nBuw="9.2200000000000000e+02" nEvuw="9.2700000000000000e+02" sepI="2.3542399704456329e-01" sepG="4.7538249969482422e+01" res="-9.9000000000000000e+01" rms="0.0000000000000000e+00" nType="0" CC="4.7538255396145189e+01">
            <Node pos="l" depth="3" Seq="1" IVar="-1" Cut="0.0000000000000000e+00" cType="1" nS="2.9500195312500000e+02" nB="7.3836578369140625e+01" nEv="3.6883853149414062e+02" nSuw="4.0000000000000000e+00" nBuw="3.6700000000000000e+02" nEvuw="3.7100000000000000e+02" sepI="1.6011200845241547e-01" sepG="-1.0000000000000000e+00" res="-9.9000000000000000e+01" rms="0.0000000000000000e+00" nType="1" CC="1.0000000000000000e+05"/>
            <Node pos="r" depth="3" Seq="5" IVar="-1" Cut="0.0000000000000000e+00" cType="1" nS="9.7874460220336914e+00" nB="1.1239076995849609e+02" nEv="1.2217821502685547e+02" nSuw="1.0000000000000000e+00" nBuw="5.5500000000000000e+02" nEvuw="5.5600000000000000e+02" sepI="7.3690660297870636e-02" sepG="-1.0000000000000000e+00" res="-9.9000000000000000e+01" rms="0.0000000000000000e+00" nType="-1" CC="1.0000000000000000e+05"/>
          </Node>
          <Node pos="r" depth="2" Seq="3" IVar="-1" Cut="3.5387157440185547e+01" cType="0" nS="6.6783256530761719e+01" nB="5.5342474365234375e+02" nEv="6.2020800781250000e+02" nSuw="1.3000000000000000e+01" nBuw="1.9800000000000000e+03" nEvuw="1.9930000000000000e+03" sepI="9.6084073185920715e-02" sepG="-1.0000000000000000e+00" res="-9.9000000000000000e+01" rms="0.0000000000000000e+00" nType="-1" CC="1.0000000000000000e+05"/>
        </Node>
      </Node>
    </BinaryTree>
    <BinaryTree type="DecisionTree" boostWeight="2.2758562587864045e-01" itree="16">
      <Node pos="s" depth="0" Seq="0" IVar="6" Cut="1.8050365447998047e+00" cType="1" nS="1.0242544921875000e+04" nB="1.1777699218750000e+04" nEv="2.2020244140625000e+04" nSuw="2.0590000000000000e+03" nBuw="1.9839000000000000e+04" nEvuw="2.1898000000000000e+04" sepI="2.4878492951393127e-01" sepG="2.5909507751464844e+01" res="-9.9000000000000000e+01" rms="0.0000000000000000e+00" nType="0" CC="3.0072200384674336e+01">
        <Node pos="l" depth="1" Seq="0" IVar="7" Cut="3.2995295524597168e+00" cType="1" nS="9.6772724609375000e+03" nB="1.0701141601562500e+04" nEv="2.0378414062500000e+04" nSuw="1.9300000000000000e+03" nBuw="1.7674000000000000e+04" nEvuw="1.9604000000000000e+04" sepI="2.4936892092227936e-01" sepG="3.2640247344970703e+01" res="-9.9000000000000000e+01" rms="0.0000000000000000e+00" nType="0" CC="3.2153648361570049e+01">
          <Node pos="l" depth="2" Seq="0" IVar="15" Cut="2.4062228393554688e+02" cType="0" nS="9.5770185546875000e+03" nB="1.0332884765625000e+04" nEv="1.9909902343750000e+04" nSuw="1.9200000000000000e+03" nBuw="1.6383000000000000e+04" nEvuw="1.8303000000000000e+04" sepI="2.4963967502117157e-01" sepG="2.5061925888061523e+01" res="-9.9000000000000000e+01" rms="0.0000000000000000e+00" nType="0" CC="2.5061921497028379e+01">
            <Node pos="l" depth="3" Seq="0" IVar="-1" Cut="0.0000000000000000e+00" cType="1" nS="1.9060831298828125e+03" nB="1.5033001708984375e+03" nEv="3.4093833007812500e+03" nSuw="7.4200000000000000e+02" nBuw="3.1720000000000000e+03" nEvuw="3.9140000000000000e+03" sepI="2.4651075899600983e-01" sepG="-1.0000000000000000e+00" res="-9.9000000000000000e+01" rms="0.0000000000000000e+00" nType="1" CC="1.0000000000000000e+05"/>
            <Node pos="r" depth="3" Seq="4" IVar="-1" Cut="0.0000000000000000e+00" cType="1" nS="7.6709355468750000e+03" nB="8.8295839843750000e+03" nEv="1.6500519531250000e+04" nSuw="1.1780000000000000e+03" nBuw="1.3211000000000000e+04" nEvuw="1.4389000000000000e+04" sepI="2.4876733124256134e-01" sepG="-1.0000000000000000e+00" res="-9.9000000000000000e+01" rms="0.0000000000000000e+00" nType="-1" CC="1.0000000000000000e+05"/>
          </Node>
          <Node pos="r" depth="2" Seq="2" IVar="1" Cut="5.0964195251464844e+01" cType="0" nS="1.0025358581542969e+02" nB="3.6825756835937500e+02" nEv="4.6851116943359375e+02" nSuw="1.0000000000000000e+01" nBuw="1.2910000000000000e+03" nEvuw="1.3010000000000000e+03" sepI="1.6819447278976440e-01" sepG="3.1666952133178711e+01" res="-9.9000000000000000e+01" rms="0.0000000000000000e+00" nType="0" CC="3.1666953008424983e+01">
            <Node pos="l" depth="3" Seq="2" IVar="-1" Cut="0.0000000000000000e+00" cType="1" nS="6.8865539550781250e+01" nB="2.5064352035522461e+01" nEv="9.3929893493652344e+01" nSuw="2.0000000000000000e+00" nBuw="8.9000000000000000e+01" nEvuw="9.1000000000000000e+01" sepI="1.9563689827919006e-01" sepG="-1.0000000000000000e+00" res="-9.9000000000000000e+01" rms="0.0000000000000000e+00" nType="1" CC="1.0000000000000000e+05"/>
            <Node pos="r" depth="3" Seq="6" IVar="-1" Cut="0.0000000000000000e+00" cType="1" nS="3.1388044357299805e+01" nB="3.4319320678710938e+02" nEv="3.7458126831054688e+02" nSuw="8.0000000000000000e+00" nBuw="1.2020000000000000e+03" nEvuw="1.2100000000000000e+03" sepI="7.6773412525653839e-02" sepG="-1.0000000000000000e+00" res="-9.9000000000000000e+01" rms="0.0000000000000000e+00" nType="-1" CC="1.0000000000000000e+05"/>
          </Node>
        </Node>
        <Node pos="r" depth="1" Seq="1" IVar="3" Cut="9.4018516540527344e+01" cType="1" nS="5.6527246093750000e+02" nB="1.0765574951171875e+03" nEv="1.6418299560546875e+03" nSuw="1.2900000000000000e+02" nBuw="2.1650000000000000e+03" nEvuw="2.2940000000000000e+03" sepI="2.2575569152832031e-01" sepG="2.5677434921264648e+01" res="-9.9000000000000000e+01" rms="0.0000000000000000e+00" nType="0" CC="2.5677441559566091e+01">
          <Node pos="l" depth="2" Seq="1" IVar="14" Cut="2.3935618400573730e+00" cType="0" nS="5.5857653808593750e+02" nB="8.5901226806640625e+02" nEv="1.4175888671875000e+03" nSuw="1.2000000000000000e+02" nBuw="1.8270000000000000e+03" nEvuw="1.9470000000000000e+03" sepI="2.3877096176147461e-01" sepG="2.0680027008056641e+01" res="-9.9000000000000000e+01" rms="0.0000000000000000e+00" nType="0" CC="2.0680018057652887e+01">
            <Node pos="l" depth="3" Seq="1" IVar="-1" Cut="0.0000000000000000e+00" cType="1" nS="3.4046334838867188e+02" nB="3.0713195800781250e+02" nEv="6.4759527587890625e+02" nSuw="7.1000000000000000e+01" nBuw="6.9400000000000000e+02" nEvuw="7.6500000000000000e+02" sepI="2.4933771789073944e-01" sepG="-1.0000000000000000e+00" res="-9.9000000000000000e+01" rms="0.0000000000000000e+00" nType="1" CC="1.0000000000000000e+05"/>
            <Node pos="r" depth="3" Seq="5" IVar="-1" Cut="0.0000000000000000e+00" cType="1" nS="2.1811318969726562e+02" nB="5.5188037109375000e+02" nEv="7.6999353027343750e+02" nSuw="4.9000000000000000e+01" nBuw="1.1330000000000000e+03" nEvuw="1.1820000000000000e+03" sepI="2.0302648842334747e-01" sepG="-1.0000000000000000e+00" res="-9.9000000000000000e+01" rms="0.0000000000000000e+00" nType="-1" CC="1.0000000000000000e+05"/>
          </Node>
          <Node pos="r" depth="2" Seq="3" IVar="-1" Cut="2.5949737548828125e+02" cType="0" nS="6.6959152221679688e+00" nB="2.1754519653320312e+02" nEv="2.2424111938476562e+02" nSuw="9.0000000000000000e+00" nBuw="3.3800000000000000e+02" nEvuw="3.4700000000000000e+02" sepI="2.8968697413802147e-02" sepG="-1.0000000000000000e+00" res="-9.9000000000000000e+01" rms="0.0000000000000000e+00" nType="-1" CC="1.0000000000000000e+05"/>
        </Node>
      </Node>
    </BinaryTree>
    <BinaryTree type="DecisionTree" boostWeight="2.2871563363515163e-01" itree="17">
      <Node pos="s" depth="0" Seq="0" IVar="6" Cut="1.8050365447998047e+00" cType="1" nS="1.1019846679687500e+04" nB="1.1000397460937500e+04" nEv="2.2020244140625000e+04" nSuw="2.0590000000000000e+03" nBuw="1.9839000000000000e+04" nEvuw="2.1898000000000000e+04" sepI="2.4999980628490448e-01" sepG="3.8819839477539062e+01" res="-9.9000000000000000e+01" rms="0.0000000000000000e+00" nType="0" CC="3.8819727414146655e+01">
        <Node pos="l" depth="1" Seq="0" IVar="7" Cut="3.2995295524597168e+00" cType="1" nS="1.0460498046875000e+04" nB="9.9629003906250000e+03" nEv="2.0423398437500000e+04" nSuw="1.9300000000000000e+03" nBuw="1.7674000000000000e+04" nEvuw="1.9604000000000000e+04" sepI="2.4985159933567047e-01" sepG="3.6756103515625000e+01" res="-9.9000000000000000e+01" rms="0.0000000000000000e+00" nType="0" CC="3.6756282627446126e+01">
          <Node pos="l" depth="2" Seq="0" IVar="10" Cut="5.8329269409179688e+01" cType="1" nS="1.0363242187500000e+04" nB="9.6263671875000000e+03" nEv="1.9989609375000000e+04" nSuw="1.9200000000000000e+03" nBuw="1.6383000000000000e+04" nEvuw="1.8303000000000000e+04" sepI="2.4966028332710266e-01" sepG="3.0161891937255859e+01" res="-9.9000000000000000e+01" rms="0.0000000000000000e+00" nType="0" CC="3.0161799320296268e+01">
            <Node pos="l" depth="3" Seq="0" IVar="-1" Cut="0.0000000000000000e+00" cType="1" nS="7.3932421875000000e+03" nB="6.1679702148437500e+03" nEv="1.3561211914062500e+04" nSuw="4.7000000000000000e+02" nBuw="1.0479000000000000e+04" nEvuw="1.0949000000000000e+04" sepI="2.4795916676521301e-01" sepG="-1.0000000000000000e+00" res="-9.9000000000000000e+01" rms="0.0000000000000000e+00" nType="1" CC="1.0000000000000000e+05"/>
            <Node pos="r" depth="3" Seq="4" IVar="-1" Cut="0.0000000000000000e+00" cType="1" nS="2.9700000000000000e+03" nB="3.4583974609375000e+03" nEv="6.4283974609375000e+03" nSuw="1.4500000000000000e+03" nBuw="5.9040000000000000e+03" nEvuw="7.3540000000000000e+03" sepI="2.4855694174766541e-01" sepG="-1.0000000000000000e+00" res="-9.9000000000000000e+01" rms="0.0000000000000000e+00" nType="-1" CC="1.0000000000000000e+05"/>
          </Node>
          <Node pos="r" depth="2" Seq="2" IVar="-1" Cut="6.8571429252624512e+00" cType="0" nS="9.7255783081054688e+01" nB="3.3653259277343750e+02" nEv="4.3378836059570312e+02" nSuw="1.0000000000000000e+01" nBuw="1.2910000000000000e+03" nEvuw="1.3010000000000000e+03" sepI="1.7393490672111511e-01" sepG="-1.0000000000000000e+00" res="-9.9000000000000000e+01" rms="0.0000000000000000e+00" nType="-1" CC="2.6363796933936101e+01"/>
        </Node>
        <Node pos="r" depth="1" Seq="1" IVar="-1" Cut="9.4018516540527344e+01" cType="1" nS="5.5934918212890625e+02" nB="1.0374969482421875e+03" nEv="1.5968460693359375e+03" nSuw="1.2900000000000000e+02" nBuw="2.1650000000000000e+03" nEvuw="2.2940000000000000e+03" sepI="2.2758503258228302e-01" sepG="-1.0000000000000000e+00" res="-9.9000000000000000e+01" rms="0.0000000000000000e+00" nType="-1" CC="1.0000000000000000e+05"/>
      </Node>
    </BinaryTree>
    <BinaryTree type="DecisionTree" boostWeight="5.4431233797191628e-02" itree="18">
      <Node pos="s" depth="0" Seq="0" IVar="4" Cut="-2.7766571044921875e+00" cType="0" nS="1.0715932617187500e+04" nB="1.1304311523437500e+04" nEv="2.2020244140625000e+04" nSuw="2.0590000000000000e+03" nBuw="1.9839000000000000e+04" nEvuw="2.1898000000000000e+04" sepI="2.4982151389122009e-01" sepG="2.2488229751586914e+01" res="-9.9000000000000000e+01" rms="0.0000000000000000e+00" nType="0" CC="2.2488090142075635e+01">
        <Node pos="l" depth="1" Seq="0" IVar="-1" Cut="1.6535525512695312e+02" cType="1" nS="1.0703159179687500e+04" nB="1.1175092773437500e+04" nEv="2.1878251953125000e+04" nSuw="2.0540000000000000e+03" nBuw="1.9522000000000000e+04" nEvuw="2.1576000000000000e+04" sepI="2.4988368153572083e-01" sepG="-1.0000000000000000e+00" res="-9.9000000000000000e+01" rms="0.0000000000000000e+00" nType="-1" CC="1.0000000000000000e+05"/>
        <Node pos="r" depth="1" Seq="1" IVar="6" Cut="3.8795018196105957e-01" cType="1" nS="1.2773606300354004e+01" nB="1.2921865844726562e+02" nEv="1.4199226379394531e+02" nSuw="5.0000000000000000e+00" nBuw="3.1700000000000000e+02" nEvuw="3.2200000000000000e+02" sepI="8.1867091357707977e-02" sepG="2.6619932651519775e+00" res="-9.9000000000000000e+01" rms="0.0000000000000000e+00" nType="0" CC="2.9236580212878991e+00">
          <Node pos="l" depth="2" Seq="1" IVar="10" Cut="4.3682968139648438e+01" cType="0" nS="1.0224658012390137e+01" nB="1.7622564315795898e+01" nEv="2.7847223281860352e+01" nSuw="3.0000000000000000e+00" nBuw="8.4000000000000000e+01" nEvuw="8.7000000000000000e+01" sepI="2.3235613107681274e-01" sepG="3.1853237152099609e+00" res="-9.9000000000000000e+01" rms="0.0000000000000000e+00" nType="0" CC="3.1853237427857266e+00">
            <Node pos="l" depth="3" Seq="1" IVar="-1" Cut="0.0000000000000000e+00" cType="1" nS="1.0224658012390137e+01" nB="4.8403315544128418e+00" nEv="1.5064990043640137e+01" nSuw="3.0000000000000000e+00" nBuw="3.9000000000000000e+01" nEvuw="4.2000000000000000e+01" sepI="2.1806514263153076e-01" sepG="-1.0000000000000000e+00" res="-9.9000000000000000e+01" rms="0.0000000000000000e+00" nType="1" CC="1.0000000000000000e+05"/>
            <Node pos="r" depth="3" Seq="5" IVar="-1" Cut="0.0000000000000000e+00" cType="1" nS="0.0000000000000000e+00" nB="1.2782233238220215e+01" nEv="1.2782233238220215e+01" nSuw="0.0000000000000000e+00" nBuw="4.5000000000000000e+01" nEvuw="4.5000000000000000e+01" sepI="0.0000000000000000e+00" sepG="-1.0000000000000000e+00" res="-9.9000000000000000e+01" rms="0.0000000000000000e+00" nType="-1" CC="1.0000000000000000e+05"/>
          </Node>
          <Node pos="r" depth="2" Seq="3" IVar="-1" Cut="6.7958786010742188e+01" cType="0" nS="2.5489485263824463e+00" nB="1.1159609985351562e+02" nEv="1.1414505004882812e+02" nSuw="2.0000000000000000e+00" nBuw="2.3300000000000000e+02" nEvuw="2.3500000000000000e+02" sepI="2.1832121536135674e-02" sepG="-1.0000000000000000e+00" res="-9.9000000000000000e+01" rms="0.0000000000000000e+00" nType="-1" CC="1.0000000000000000e+05"/>
        </Node>
      </Node>
    </BinaryTree>
    <BinaryTree type="DecisionTree" boostWeight="5.8427600989936206e-02" itree="19">
      <Node pos="s" depth="0" Seq="0" IVar="4" Cut="-2.7766571044921875e+00" cType="0" nS="1.1015100585937500e+04" nB="1.1005143554687500e+04" nEv="2.2020244140625000e+04" nSuw="2.0590000000000000e+03" nBuw="1.9839000000000000e+04" nEvuw="2.1898000000000000e+04" sepI="2.4999995529651642e-01" sepG="2.3397758483886719e+01" res="-9.9000000000000000e+01" rms="0.0000000000000000e+00" nType="0" CC="2.3397980242058111e+01">
        <Node pos="l" depth="1" Seq="0" IVar="0" Cut="1.6535525512695312e+02" cType="1" nS="1.1002526367187500e+04" nB="1.0879083984375000e+04" nEv="2.1881611328125000e+04" nSuw="2.0540000000000000e+03" nBuw="1.9522000000000000e+04" nEvuw="2.1576000000000000e+04" sepI="2.4999204277992249e-01" sepG="2.1578399658203125e+01" res="-9.9000000000000000e+01" rms="0.0000000000000000e+00" nType="0" CC="2.1578213494833108e+01">
          <Node pos="l" depth="2" Seq="0" IVar="15" Cut="3.1193200683593750e+02" cType="1" nS="1.0987922851562500e+04" nB="1.0756956054687500e+04" nEv="2.1744878906250000e+04" nSuw="2.0470000000000000e+03" nBuw="1.9119000000000000e+04" nEvuw="2.1166000000000000e+04" sepI="2.4997179210186005e-01" sepG="2.1523265838623047e+01" res="-9.9000000000000000e+01" rms="0.0000000000000000e+00" nType="0" CC="2.1523395064047691e+01">
            <Node pos="l" depth="3" Seq="0" IVar="-1" Cut="0.0000000000000000e+00" cType="1" nS="1.0984235351562500e+04" nB="1.0662678710937500e+04" nEv="2.1646914062500000e+04" nSuw="2.0450000000000000e+03" nBuw="1.8367000000000000e+04" nEvuw="2.0412000000000000e+04" sepI="2.4994483590126038e-01" sepG="-1.0000000000000000e+00" res="-9.9000000000000000e+01" rms="0.0000000000000000e+00" nType="1" CC="1.0000000000000000e+05"/>
            <Node pos="r" depth="3" Seq="4" IVar="-1" Cut="0.0000000000000000e+00" cType="1" nS="3.6873633861541748e+00" nB="9.4276649475097656e+01" nEv="9.7964012145996094e+01" nSuw="2.0000000000000000e+00" nBuw="7.5200000000000000e+02" nEvuw="7.5400000000000000e+02" sepI="3.6223210394382477e-02" sepG="-1.0000000000000000e+00" res="-9.9000000000000000e+01" rms="0.0000000000000000e+00" nType="-1" CC="1.0000000000000000e+05"/>
          </Node>
          <Node pos="r" depth="2" Seq="2" IVar="-1" Cut="2.3924462795257568e+00" cType="1" nS="1.4603645324707031e+01" nB="1.2212871551513672e+02" nEv="1.3673236083984375e+02" nSuw="7.0000000000000000e+00" nBuw="4.0300000000000000e+02" nEvuw="4.1000000000000000e+02" sepI="9.5397375524044037e-02" sepG="-1.0000000000000000e+00" res="-9.9000000000000000e+01" rms="0.0000000000000000e+00" nType="-1" CC="1.0000000000000000e+05"/>
        </Node>
        <Node pos="r" depth="1" Seq="1" IVar="6" Cut="3.8795018196105957e-01" cType="1" nS="1.2574068069458008e+01" nB="1.2605949401855469e+02" nEv="1.3863356018066406e+02" nSuw="5.0000000000000000e+00" nBuw="3.1700000000000000e+02" nEvuw="3.2200000000000000e+02" sepI="8.2473531365394592e-02" sepG="2.5407896041870117e+00" res="-9.9000000000000000e+01" rms="0.0000000000000000e+00" nType="0" CC="2.7788276280631230e+00">
          <Node pos="l" depth="2" Seq="1" IVar="10" Cut="4.3682968139648438e+01" cType="0" nS="9.9538259506225586e+00" nB="1.7419370651245117e+01" nEv="2.7373195648193359e+01" nSuw="3.0000000000000000e+00" nBuw="8.4000000000000000e+01" nEvuw="8.7000000000000000e+01" sepI="2.3140431940555573e-01" sepG="3.0168662071228027e+00" res="-9.9000000000000000e+01" rms="0.0000000000000000e+00" nType="0" CC="3.0168660676213506e+00">
            <Node pos="l" depth="3" Seq="1" IVar="-1" Cut="0.0000000000000000e+00" cType="1" nS="9.9538259506225586e+00" nB="4.9757156372070312e+00" nEv="1.4929541587829590e+01" nSuw="3.0000000000000000e+00" nBuw="3.9000000000000000e+01" nEvuw="4.2000000000000000e+01" sepI="2.2220440208911896e-01" sepG="-1.0000000000000000e+00" res="-9.9000000000000000e+01" rms="0.0000000000000000e+00" nType="1" CC="1.0000000000000000e+05"/>
            <Node pos="r" depth="3" Seq="5" IVar="-1" Cut="0.0000000000000000e+00" cType="1" nS="0.0000000000000000e+00" nB="1.2443655014038086e+01" nEv="1.2443655014038086e+01" nSuw="0.0000000000000000e+00" nBuw="4.5000000000000000e+01" nEvuw="4.5000000000000000e+01" sepI="0.0000000000000000e+00" sepG="-1.0000000000000000e+00" res="-9.9000000000000000e+01" rms="0.0000000000000000e+00" nType="-1" CC="1.0000000000000000e+05"/>
          </Node>
          <Node pos="r" depth="2" Seq="3" IVar="-1" Cut="6.7958786010742188e+01" cType="0" nS="2.6202423572540283e+00" nB="1.0864012145996094e+02" nEv="1.1126036834716797e+02" nSuw="2.0000000000000000e+00" nBuw="2.3300000000000000e+02" nEvuw="2.3500000000000000e+02" sepI="2.2995918989181519e-02" sepG="-1.0000000000000000e+00" res="-9.9000000000000000e+01" rms="0.0000000000000000e+00" nType="-1" CC="1.0000000000000000e+05"/>
        </Node>
      </Node>
    </BinaryTree>
    <BinaryTree type="DecisionTree" boostWeight="1.5133777225487360e-01" itree="20">
      <Node pos="s" depth="0" Seq="0" IVar="4" Cut="-2.7766571044921875e+00" cType="0" nS="1.0703750000000000e+04" nB="1.1316494140625000e+04" nEv="2.2020244140625000e+04" nSuw="2.0590000000000000e+03" nBuw="1.9839000000000000e+04" nEvuw="2.1898000000000000e+04" sepI="2.4980641901493073e-01" sepG="2.1167827606201172e+01" res="-9.9000000000000000e+01" rms="0.0000000000000000e+00" nType="0" CC="2.1167599885836353e+01">
        <Node pos="l" depth="1" Seq="0" IVar="3" Cut="1.0085189819335938e+02" cType="1" nS="1.0691379882812500e+04" nB="1.1193720703125000e+04" nEv="2.1885099609375000e+04" nSuw="2.0540000000000000e+03" nBuw="1.9522000000000000e+04" nEvuw="2.1576000000000000e+04" sepI="2.4986828863620758e-01" sepG="2.0458911895751953e+01" res="-9.9000000000000000e+01" rms="0.0000000000000000e+00" nType="0" CC="2.0458940220662953e+01">
          <Node pos="l" depth="2" Seq="0" IVar="9" Cut="6.4584678411483765e-01" cType="1" nS="1.0543747070312500e+04" nB="1.0832792968750000e+04" nEv="2.1376541015625000e+04" nSuw="2.0130000000000000e+03" nBuw="1.9083000000000000e+04" nEvuw="2.1096000000000000e+04" sepI="2.4995429813861847e-01" sepG="1.9603801727294922e+01" res="-9.9000000000000000e+01" rms="0.0000000000000000e+00" nType="0" CC="1.9604041545462678e+01">
            <Node pos="l" depth="3" Seq="0" IVar="-1" Cut="0.0000000000000000e+00" cType="1" nS="5.6607802734375000e+03" nB="5.1597924804687500e+03" nEv="1.0820573242187500e+04" nSuw="1.2030000000000000e+03" nBuw="6.9740000000000000e+03" nEvuw="8.1770000000000000e+03" sepI="2.4946409463882446e-01" sepG="-1.0000000000000000e+00" res="-9.9000000000000000e+01" rms="0.0000000000000000e+00" nType="1" CC="1.0000000000000000e+05"/>
            <Node pos="r" depth="3" Seq="4" IVar="-1" Cut="0.0000000000000000e+00" cType="1" nS="4.8829663085937500e+03" nB="5.6730004882812500e+03" nEv="1.0555966796875000e+04" nSuw="8.1000000000000000e+02" nBuw="1.2109000000000000e+04" nEvuw="1.2919000000000000e+04" sepI="2.4859964847564697e-01" sepG="-1.0000000000000000e+00" res="-9.9000000000000000e+01" rms="0.0000000000000000e+00" nType="-1" CC="1.0000000000000000e+05"/>
          </Node>
          <Node pos="r" depth="2" Seq="2" IVar="-1" Cut="1.0525898742675781e+02" cType="0" nS="1.4763273620605469e+02" nB="3.6092755126953125e+02" nEv="5.0856027221679688e+02" nSuw="4.1000000000000000e+01" nBuw="4.3900000000000000e+02" nEvuw="4.8000000000000000e+02" sepI="2.0602400600910187e-01" sepG="-1.0000000000000000e+00" res="-9.9000000000000000e+01" rms="0.0000000000000000e+00" nType="-1" CC="1.0972172401789066e+01"/>
        </Node>
        <Node pos="r" depth="1" Seq="1" IVar="-1" Cut="3.8795018196105957e-01" cType="1" nS="1.2370438575744629e+01" nB="1.2277322387695312e+02" nEv="1.3514366149902344e+02" nSuw="5.0000000000000000e+00" nBuw="3.1700000000000000e+02" nEvuw="3.2200000000000000e+02" sepI="8.3156727254390717e-02" sepG="-1.0000000000000000e+00" res="-9.9000000000000000e+01" rms="0.0000000000000000e+00" nType="-1" CC="2.6281476559097605e+00"/>
      </Node>
    </BinaryTree>
    <BinaryTree type="DecisionTree" boostWeight="5.9274353444145715e-02" itree="21">
      <Node pos="s" depth="0" Seq="0" IVar="9" Cut="2.0316536724567413e-01" cType="0" nS="1.0708593750000000e+04" nB="1.1311650390625000e+04" nEv="2.2020244140625000e+04" nSuw="2.0590000000000000e+03" nBuw="1.9839000000000000e+04" nEvuw="2.1898000000000000e+04" sepI="2.4981249868869781e-01" sepG="2.0467929840087891e+01" res="-9.9000000000000000e+01" rms="0.0000000000000000e+00" nType="0" CC="2.0468277834729633e+01">
        <Node pos="l" depth="1" Seq="0" IVar="4" Cut="-2.7766571044921875e+00" cType="0" nS="1.0651059570312500e+04" nB="1.1098862304687500e+04" nEv="2.1749921875000000e+04" nSuw="2.0350000000000000e+03" nBuw="1.9578000000000000e+04" nEvuw="2.1613000000000000e+04" sepI="2.4989402294158936e-01" sepG="1.9943590164184570e+01" res="-9.9000000000000000e+01" rms="0.0000000000000000e+00" nType="0" CC="1.9943149758503750e+01">
          <Node pos="l" depth="2" Seq="0" IVar="-1" Cut="1.6535525512695312e+02" cType="1" nS="1.0639148437500000e+04" nB="1.0984118164062500e+04" nEv="2.1623265625000000e+04" nSuw="2.0300000000000000e+03" nBuw="1.9263000000000000e+04" nEvuw="2.1293000000000000e+04" sepI="2.4993637204170227e-01" sepG="-1.0000000000000000e+00" res="-9.9000000000000000e+01" rms="0.0000000000000000e+00" nType="-1" CC="1.0000000000000000e+05"/>
          <Node pos="r" depth="2" Seq="2" IVar="14" Cut="2.8417265415191650e+00" cType="0" nS="1.1911801338195801e+01" nB="1.1474479675292969e+02" nEv="1.2665659332275391e+02" nSuw="5.0000000000000000e+00" nBuw="3.1500000000000000e+02" nEvuw="3.2000000000000000e+02" sepI="8.5202984511852264e-02" sepG="2.1599016189575195e+00" res="-9.9000000000000000e+01" rms="0.0000000000000000e+00" nType="0" CC="2.1599013881640001e+00">
