<?xml version="1.0"?>
<MethodSetup Method="BDT::BDT">
  <GeneralInfo>
    <Info name="TMVA Release" value="4.0.7 [262151]"/>
    <Info name="ROOT Release" value="5.27/06 [334598]"/>
    <Info name="Creator" value="andreypz"/>
    <Info name="Date" value="Tue Sep  4 19:08:23 2012"/>
    <Info name="Host" value="Linux lxbuild168.cern.ch 2.6.18-274.12.1.el5 #1 SMP Wed Nov 30 08:57:58 CET 2011 x86_64 x86_64 x86_64 GNU/Linux"/>
    <Info name="Dir" value="/uscms_data/d2/andreypz/cmssw/higgs2/CMSSW_4_4_4/src/NWU/Higgs/mva"/>
    <Info name="Training events" value="29676"/>
    <Info name="TrainingTime" value="24.9608"/>
    <Info name="AnalysisType" value="Classification"/>
  </GeneralInfo>
  <Options>
    <Option name="V" modified="Yes">False</Option>
    <Option name="VerbosityLevel" modified="No">Default</Option>
    <Option name="VarTransform" modified="No">None</Option>
    <Option name="H" modified="Yes">False</Option>
    <Option name="CreateMVAPdfs" modified="No">False</Option>
    <Option name="IgnoreNegWeightsInTraining" modified="No">False</Option>
    <Option name="NTrees" modified="Yes">400</Option>
    <Option name="BoostType" modified="Yes">AdaBoost</Option>
    <Option name="AdaBoostR2Loss" modified="No">quadratic</Option>
    <Option name="UseBaggedGrad" modified="No">False</Option>
    <Option name="GradBaggingFraction" modified="No">6.000000e-01</Option>
    <Option name="Shrinkage" modified="No">1.000000e+00</Option>
    <Option name="AdaBoostBeta" modified="Yes">1.000000e+00</Option>
    <Option name="UseRandomisedTrees" modified="No">False</Option>
    <Option name="UseNvars" modified="No">2</Option>
    <Option name="UseNTrainEvents" modified="No">29676</Option>
    <Option name="UseWeightedTrees" modified="No">True</Option>
    <Option name="UseYesNoLeaf" modified="No">True</Option>
    <Option name="NodePurityLimit" modified="No">5.000000e-01</Option>
    <Option name="SeparationType" modified="Yes">giniindex</Option>
    <Option name="nEventsMin" modified="Yes">40</Option>
    <Option name="nCuts" modified="Yes">20</Option>
    <Option name="PruneStrength" modified="No">-1.000000e+00</Option>
    <Option name="PruneMethod" modified="No">costcomplexity</Option>
    <Option name="PruneBeforeBoost" modified="No">False</Option>
    <Option name="PruningValFraction" modified="No">5.000000e-01</Option>
    <Option name="NNodesMax" modified="No">100000</Option>
    <Option name="MaxDepth" modified="Yes">3</Option>
  </Options>
  <Variables NVar="20">
    <Variable VarIndex="0" Expression="lep1Pt" Label="lep1Pt" Title="p_{T}(l_{1})" Unit="GeV" Internal="lep1Pt" Type="F" Min="21.2888" Max="642.508"/>
    <Variable VarIndex="1" Expression="lep2Pt" Label="lep2Pt" Title="p_{T}(l_{2})" Unit="GeV" Internal="lep2Pt" Type="F" Min="20" Max="257.973"/>
    <Variable VarIndex="2" Expression="diLepPt" Label="diLepPt" Title="p_{T}(ll)" Unit="GeV" Internal="diLepPt" Type="F" Min="30.0029" Max="720.21"/>
    <Variable VarIndex="3" Expression="diLepM" Label="diLepM" Title="m_{ll}" Unit="GeV" Internal="diLepM" Type="F" Min="70.0031" Max="106"/>
    <Variable VarIndex="4" Expression="diLepEta" Label="diLepEta" Title="|#eta(ll)|" Unit="" Internal="diLepEta" Type="F" Min="-3.38927" Max="3.35982"/>
    <Variable VarIndex="5" Expression="lepDeltaPhi" Label="lepDeltaPhi" Title="#Delta#phi(l_{1},l_{2})" Unit="rad" Internal="lepDeltaPhi" Type="F" Min="0.000168085" Max="3.14158"/>
    <Variable VarIndex="6" Expression="lepDeltaEta" Label="lepDeltaEta" Title="#Delta#eta(l_{1},l_{2})" Unit="" Internal="lepDeltaEta" Type="F" Min="1.71065e-05" Max="4.59719"/>
    <Variable VarIndex="7" Expression="lepDeltaR" Label="lepDeltaR" Title="#Delta R(l_{1},l_{2})" Unit="" Internal="lepDeltaR" Type="F" Min="0.301409" Max="5.29177"/>
    <Variable VarIndex="8" Expression="lepAngle" Label="lepAngle" Title="Open Angle(l_{1},l_{2})" Unit="rad" Internal="lepAngle" Type="F" Min="0.132223" Max="3.11203"/>
    <Variable VarIndex="9" Expression="lepPtRatio" Label="lepPtRatio" Title="p_{T}_{l_{2}}/p_{T}_{l_{1}}" Unit="" Internal="lepPtRatio" Type="F" Min="0.0660268" Max="0.999974"/>
    <Variable VarIndex="10" Expression="met" Label="met" Title="MET" Unit="GeV" Internal="met" Type="F" Min="30.0026" Max="917.746"/>
    <Variable VarIndex="11" Expression="metOverQt" Label="metOverQt" Title="MET/p_{T}(ll)" Unit="" Internal="metOverQt" Type="F" Min="0.0599769" Max="12.4283"/>
    <Variable VarIndex="12" Expression="metProjOnQt" Label="metProjOnQt" Title="MET || p_{T}(ll)" Unit="GeV" Internal="metProjOnQt" Type="F" Min="-910.259" Max="499.531"/>
    <Variable VarIndex="13" Expression="metPerpQt" Label="metPerpQt" Title="MET perp  p_{T}(ll)" Unit="GeV" Internal="metPerpQt" Type="F" Min="0.00148665" Max="532.392"/>
    <Variable VarIndex="14" Expression="dPhiMetDiLep" Label="dPhiMetDiLep" Title="#Delta#phi(p_{ll},MET)" Unit="rad" Internal="dPhiMetDiLep" Type="F" Min="0.000249687" Max="3.14158"/>
    <Variable VarIndex="15" Expression="mt" Label="mt" Title="m_{T}(HZZ hypothesis)" Unit="GeV" Internal="mt" Type="F" Min="141.69" Max="1192.35"/>
    <Variable VarIndex="16" Expression="nJets15" Label="nJets15" Title="Number of jets with p_{T}&gt;15" Unit="" Internal="nJets15" Type="I" Min="0" Max="24"/>
    <Variable VarIndex="17" Expression="deltaEtaDiJet" Label="deltaEtaDiJet" Title="#Delta#eta(jet1,jet2)" Unit="rad" Internal="deltaEtaDiJet" Type="F" Min="6.31124e-05" Max="8.48699"/>
    <Variable VarIndex="18" Expression="massDiJet" Label="massDiJet" Title="M(jet1,jet2)" Unit="GeV" Internal="massDiJet" Type="F" Min="19.4314" Max="3915.13"/>
    <Variable VarIndex="19" Expression="zeppDiJetDiLep" Label="zeppDiJetDiLep" Title="#eta* = #eta_{Z} - 0.5(#eta_{j_{1}} + #eta_{j_{2}})" Unit="" Internal="zeppDiJetDiLep" Type="F" Min="-6.15925" Max="6.28738"/>
  </Variables>
  <Spectators NSpec="0"/>
  <Transformations NTransformations="0"/>
  <MVAPdfs/>
  <Weights NTrees="400" TreeType="0">
    <BinaryTree type="DecisionTree" boostWeight="3.0603097868796905e+00" itree="0">
      <Node pos="s" depth="0" Seq="0" IVar="10" Cut="7.2192817687988281e+01" cType="0" nS="1.9295244140625000e+03" nB="1.3072071289062500e+04" nEv="1.5001595703125000e+04" nSuw="1.9520000000000000e+03" nBuw="1.2886000000000000e+04" nEvuw="1.4838000000000000e+04" sepI="1.1207784712314606e-01" sepG="8.4502551269531250e+02" res="-9.9000000000000000e+01" rms="0.0000000000000000e+00" nType="0" CC="8.4502552519359574e+02">
        <Node pos="l" depth="1" Seq="0" IVar="7" Cut="2.7209696769714355e+00" cType="1" nS="1.2525004882812500e+03" nB="2.2843373107910156e+02" nEv="1.4809342041015625e+03" nSuw="1.2210000000000000e+03" nBuw="3.1650000000000000e+03" nEvuw="4.3860000000000000e+03" sepI="1.3045676052570343e-01" sepG="3.3941692352294922e+01" res="-9.9000000000000000e+01" rms="0.0000000000000000e+00" nType="0" CC="3.3941690189460246e+01">
          <Node pos="l" depth="2" Seq="0" IVar="3" Cut="9.9159362792968750e+01" cType="1" nS="1.1024465332031250e+03" nB="9.7065383911132812e+01" nEv="1.1995119628906250e+03" nSuw="1.0520000000000000e+03" nBuw="1.9660000000000000e+03" nEvuw="3.0180000000000000e+03" sepI="7.4372567236423492e-02" sepG="7.3846426010131836e+00" res="-9.9000000000000000e+01" rms="0.0000000000000000e+00" nType="0" CC="7.3846426434095633e+00">
            <Node pos="l" depth="3" Seq="0" IVar="-1" Cut="0.0000000000000000e+00" cType="1" nS="1.0923895263671875e+03" nB="8.1324623107910156e+01" nEv="1.1737142333984375e+03" nSuw="1.0380000000000000e+03" nBuw="1.8980000000000000e+03" nEvuw="2.9360000000000000e+03" sepI="6.4487405121326447e-02" sepG="-1.0000000000000000e+00" res="-9.9000000000000000e+01" rms="0.0000000000000000e+00" nType="1" CC="1.0000000000000000e+05"/>
            <Node pos="r" depth="3" Seq="4" IVar="-1" Cut="0.0000000000000000e+00" cType="1" nS="1.0056944847106934e+01" nB="1.5740760803222656e+01" nEv="2.5797704696655273e+01" nSuw="1.4000000000000000e+01" nBuw="6.8000000000000000e+01" nEvuw="8.2000000000000000e+01" sepI="2.3786449432373047e-01" sepG="-1.0000000000000000e+00" res="-9.9000000000000000e+01" rms="0.0000000000000000e+00" nType="-1" CC="1.0000000000000000e+05"/>
          </Node>
          <Node pos="r" depth="2" Seq="2" IVar="9" Cut="7.7909368276596069e-01" cType="1" nS="1.5005397033691406e+02" nB="1.3136834716796875e+02" nEv="2.8142233276367188e+02" nSuw="1.6900000000000000e+02" nBuw="1.1990000000000000e+03" nEvuw="1.3680000000000000e+03" sepI="2.4889785051345825e-01" sepG="1.8142288208007812e+01" res="-9.9000000000000000e+01" rms="0.0000000000000000e+00" nType="0" CC="1.8142285975946066e+01">
            <Node pos="l" depth="3" Seq="2" IVar="-1" Cut="0.0000000000000000e+00" cType="1" nS="1.1956424713134766e+02" nB="3.8162216186523438e+01" nEv="1.5772645568847656e+02" nSuw="1.3200000000000000e+02" nBuw="7.8800000000000000e+02" nEvuw="9.2000000000000000e+02" sepI="1.8341116607189178e-01" sepG="-1.0000000000000000e+00" res="-9.9000000000000000e+01" rms="0.0000000000000000e+00" nType="1" CC="1.0000000000000000e+05"/>
            <Node pos="r" depth="3" Seq="6" IVar="-1" Cut="0.0000000000000000e+00" cType="1" nS="3.0489725112915039e+01" nB="9.3206130981445312e+01" nEv="1.2369586181640625e+02" nSuw="3.7000000000000000e+01" nBuw="4.1100000000000000e+02" nEvuw="4.4800000000000000e+02" sepI="1.8573240935802460e-01" sepG="-1.0000000000000000e+00" res="-9.9000000000000000e+01" rms="0.0000000000000000e+00" nType="-1" CC="1.0000000000000000e+05"/>
          </Node>
        </Node>
        <Node pos="r" depth="1" Seq="1" IVar="7" Cut="2.1818647384643555e+00" cType="1" nS="6.7702398681640625e+02" nB="1.2843637695312500e+04" nEv="1.3520661132812500e+04" nSuw="7.3100000000000000e+02" nBuw="9.7210000000000000e+03" nEvuw="1.0452000000000000e+04" sepI="4.7565951943397522e-02" sepG="1.3664097595214844e+02" res="-9.9000000000000000e+01" rms="0.0000000000000000e+00" nType="0" CC="1.3664096693130273e+02">
          <Node pos="l" depth="2" Seq="1" IVar="15" Cut="2.1013423156738281e+02" cType="0" nS="4.0853771972656250e+02" nB="6.0435528564453125e+02" nEv="1.0128930053710938e+03" nSuw="4.4100000000000000e+02" nBuw="1.3280000000000000e+03" nEvuw="1.7690000000000000e+03" sepI="2.4065636098384857e-01" sepG="6.1082408905029297e+01" res="-9.9000000000000000e+01" rms="0.0000000000000000e+00" nType="0" CC="6.1082419614261312e+01">
            <Node pos="l" depth="3" Seq="1" IVar="-1" Cut="0.0000000000000000e+00" cType="1" nS="2.8534332275390625e+02" nB="1.1997406005859375e+02" nEv="4.0531738281250000e+02" nSuw="2.9600000000000000e+02" nBuw="4.7100000000000000e+02" nEvuw="7.6700000000000000e+02" sepI="2.0838411152362823e-01" sepG="-1.0000000000000000e+00" res="-9.9000000000000000e+01" rms="0.0000000000000000e+00" nType="1" CC="1.0000000000000000e+05"/>
            <Node pos="r" depth="3" Seq="5" IVar="-1" Cut="0.0000000000000000e+00" cType="1" nS="1.2319440460205078e+02" nB="4.8438119506835938e+02" nEv="6.0757562255859375e+02" nSuw="1.4500000000000000e+02" nBuw="8.5700000000000000e+02" nEvuw="1.0020000000000000e+03" sepI="1.6165070235729218e-01" sepG="-1.0000000000000000e+00" res="-9.9000000000000000e+01" rms="0.0000000000000000e+00" nType="-1" CC="1.0000000000000000e+05"/>
          </Node>
          <Node pos="r" depth="2" Seq="3" IVar="-1" Cut="5.8120323181152344e+01" cType="0" nS="2.6848623657226562e+02" nB="1.2239282226562500e+04" nEv="1.2507768554687500e+04" nSuw="2.9000000000000000e+02" nBuw="8.3930000000000000e+03" nEvuw="8.6830000000000000e+03" sepI="2.1004788577556610e-02" sepG="-1.0000000000000000e+00" res="-9.9000000000000000e+01" rms="0.0000000000000000e+00" nType="-1" CC="1.0000000000000000e+05"/>
        </Node>
      </Node>
    </BinaryTree>
    <BinaryTree type="DecisionTree" boostWeight="1.1115397070950994e+00" itree="1">
      <Node pos="s" depth="0" Seq="0" IVar="7" Cut="2.8858964443206787e+00" cType="1" nS="5.6104584960937500e+03" nB="9.3911376953125000e+03" nEv="1.5001595703125000e+04" nSuw="1.9520000000000000e+03" nBuw="1.2886000000000000e+04" nEvuw="1.4838000000000000e+04" sepI="2.3412166535854340e-01" sepG="5.2811798095703125e+02" res="-9.9000000000000000e+01" rms="0.0000000000000000e+00" nType="0" CC="5.2811787334673136e+02">
        <Node pos="l" depth="1" Seq="0" IVar="17" Cut="3.2331914901733398e+00" cType="0" nS="4.5235737304687500e+03" nB="3.8333549804687500e+03" nEv="8.3569287109375000e+03" nSuw="1.7700000000000000e+03" nBuw="5.8960000000000000e+03" nEvuw="7.6660000000000000e+03" sepI="2.4829462170600891e-01" sepG="2.5497158813476562e+02" res="-9.9000000000000000e+01" rms="0.0000000000000000e+00" nType="0" CC="2.5497167005838264e+02">
          <Node pos="l" depth="2" Seq="0" IVar="0" Cut="1.6552207946777344e+02" cType="1" nS="1.9545041503906250e+03" nB="4.3738949584960938e+02" nEv="2.3918937988281250e+03" nSuw="9.8200000000000000e+02" nBuw="1.0170000000000000e+03" nEvuw="1.9990000000000000e+03" sepI="1.4942429959774017e-01" sepG="4.6433227539062500e+01" res="-9.9000000000000000e+01" rms="0.0000000000000000e+00" nType="0" CC="4.6433244156896876e+01">
            <Node pos="l" depth="3" Seq="0" IVar="-1" Cut="0.0000000000000000e+00" cType="1" nS="1.9423277587890625e+03" nB="3.5531860351562500e+02" nEv="2.2976464843750000e+03" nSuw="9.6700000000000000e+02" nBuw="9.8800000000000000e+02" nEvuw="1.9550000000000000e+03" sepI="1.3072964549064636e-01" sepG="-1.0000000000000000e+00" res="-9.9000000000000000e+01" rms="0.0000000000000000e+00" nType="1" CC="1.0000000000000000e+05"/>
            <Node pos="r" depth="3" Seq="4" IVar="-1" Cut="0.0000000000000000e+00" cType="1" nS="1.2176452636718750e+01" nB="8.2070884704589844e+01" nEv="9.4247337341308594e+01" nSuw="1.5000000000000000e+01" nBuw="2.9000000000000000e+01" nEvuw="4.4000000000000000e+01" sepI="1.1250497400760651e-01" sepG="-1.0000000000000000e+00" res="-9.9000000000000000e+01" rms="0.0000000000000000e+00" nType="-1" CC="1.0000000000000000e+05"/>
          </Node>
          <Node pos="r" depth="2" Seq="2" IVar="-1" Cut="9.4031097412109375e+01" cType="1" nS="2.5690693359375000e+03" nB="3.3959653320312500e+03" nEv="5.9650346679687500e+03" nSuw="7.8800000000000000e+02" nBuw="4.8790000000000000e+03" nEvuw="5.6670000000000000e+03" sepI="2.4519585072994232e-01" sepG="-1.0000000000000000e+00" res="-9.9000000000000000e+01" rms="0.0000000000000000e+00" nType="-1" CC="1.0000000000000000e+05"/>
        </Node>
        <Node pos="r" depth="1" Seq="1" IVar="10" Cut="5.1515274047851562e+01" cType="0" nS="1.0868847656250000e+03" nB="5.5577827148437500e+03" nEv="6.6446674804687500e+03" nSuw="1.8200000000000000e+02" nBuw="6.9900000000000000e+03" nEvuw="7.1720000000000000e+03" sepI="1.3681653141975403e-01" sepG="2.5563827514648438e+02" res="-9.9000000000000000e+01" rms="0.0000000000000000e+00" nType="0" CC="2.5563831037813895e+02">
          <Node pos="l" depth="2" Seq="1" IVar="17" Cut="3.2255012989044189e+00" cType="0" nS="7.9230816650390625e+02" nB="7.1478289794921875e+02" nEv="1.5070910644531250e+03" nSuw="1.5400000000000000e+02" nBuw="1.8870000000000000e+03" nEvuw="2.0410000000000000e+03" sepI="2.4933847784996033e-01" sepG="4.8993572235107422e+01" res="-9.9000000000000000e+01" rms="0.0000000000000000e+00" nType="0" CC="4.8993582409338842e+01">
            <Node pos="l" depth="3" Seq="1" IVar="-1" Cut="0.0000000000000000e+00" cType="1" nS="3.5153021240234375e+02" nB="8.2999160766601562e+01" nEv="4.3452938842773438e+02" nSuw="9.2000000000000000e+01" nBuw="3.8200000000000000e+02" nEvuw="4.7400000000000000e+02" sepI="1.5452475845813751e-01" sepG="-1.0000000000000000e+00" res="-9.9000000000000000e+01" rms="0.0000000000000000e+00" nType="1" CC="1.0000000000000000e+05"/>
            <Node pos="r" depth="3" Seq="5" IVar="-1" Cut="0.0000000000000000e+00" cType="1" nS="4.4077795410156250e+02" nB="6.3178375244140625e+02" nEv="1.0725616455078125e+03" nSuw="6.2000000000000000e+01" nBuw="1.5050000000000000e+03" nEvuw="1.5670000000000000e+03" sepI="2.4207153916358948e-01" sepG="-1.0000000000000000e+00" res="-9.9000000000000000e+01" rms="0.0000000000000000e+00" nType="-1" CC="1.0000000000000000e+05"/>
          </Node>
          <Node pos="r" depth="2" Seq="3" IVar="9" Cut="4.6019518375396729e-01" cType="1" nS="2.9457656860351562e+02" nB="4.8430000000000000e+03" nEv="5.1375761718750000e+03" nSuw="2.8000000000000000e+01" nBuw="5.1030000000000000e+03" nEvuw="5.1310000000000000e+03" sepI="5.4050046950578690e-02" sepG="6.9513023376464844e+01" res="-9.9000000000000000e+01" rms="0.0000000000000000e+00" nType="0" CC="6.9513028262388389e+01">
            <Node pos="l" depth="3" Seq="3" IVar="-1" Cut="0.0000000000000000e+00" cType="1" nS="1.3905210876464844e+02" nB="9.8288406372070312e+01" nEv="2.3734051513671875e+02" nSuw="1.1000000000000000e+01" nBuw="1.8100000000000000e+02" nEvuw="1.9200000000000000e+02" sepI="2.4262531101703644e-01" sepG="-1.0000000000000000e+00" res="-9.9000000000000000e+01" rms="0.0000000000000000e+00" nType="1" CC="1.0000000000000000e+05"/>
            <Node pos="r" depth="3" Seq="7" IVar="-1" Cut="0.0000000000000000e+00" cType="1" nS="1.5552447509765625e+02" nB="4.7447114257812500e+03" nEv="4.9002358398437500e+03" nSuw="1.7000000000000000e+01" nBuw="4.9220000000000000e+03" nEvuw="4.9390000000000000e+03" sepI="3.0730849131941795e-02" sepG="-1.0000000000000000e+00" res="-9.9000000000000000e+01" rms="0.0000000000000000e+00" nType="-1" CC="1.0000000000000000e+05"/>
          </Node>
        </Node>
      </Node>
    </BinaryTree>
    <BinaryTree type="DecisionTree" boostWeight="1.2795192469520875e+00" itree="2">
      <Node pos="s" depth="0" Seq="0" IVar="5" Cut="2.5434436798095703e+00" cType="1" nS="8.0338447265625000e+03" nB="6.9677514648437500e+03" nEv="1.5001595703125000e+04" nSuw="1.9520000000000000e+03" nBuw="1.2886000000000000e+04" nEvuw="1.4838000000000000e+04" sepI="2.4873742461204529e-01" sepG="5.7464947509765625e+02" res="-9.9000000000000000e+01" rms="0.0000000000000000e+00" nType="0" CC="5.7464948769464900e+02">
        <Node pos="l" depth="1" Seq="0" IVar="-1" Cut="2.8467483520507812e+02" cType="1" nS="6.0067250976562500e+03" nB="2.4927517089843750e+03" nEv="8.4994765625000000e+03" nSuw="1.6730000000000000e+03" nBuw="4.8510000000000000e+03" nEvuw="6.5240000000000000e+03" sepI="2.0726805925369263e-01" sepG="-1.0000000000000000e+00" res="-9.9000000000000000e+01" rms="0.0000000000000000e+00" nType="1" CC="8.1050110607286797e+01"/>
        <Node pos="r" depth="1" Seq="1" IVar="10" Cut="5.8144477844238281e+01" cType="0" nS="2.0271195068359375e+03" nB="4.4749995117187500e+03" nEv="6.5021191406250000e+03" nSuw="2.7900000000000000e+02" nBuw="8.0350000000000000e+03" nEvuw="8.3140000000000000e+03" sepI="2.1456679701805115e-01" sepG="3.6339654541015625e+02" res="-9.9000000000000000e+01" rms="0.0000000000000000e+00" nType="0" CC="3.6339657693211120e+02">
          <Node pos="l" depth="2" Seq="1" IVar="-1" Cut="8.1960777282714844e+01" cType="0" nS="1.2468400878906250e+03" nB="5.4825781250000000e+02" nEv="1.7950979003906250e+03" nSuw="2.1500000000000000e+02" nBuw="1.8060000000000000e+03" nEvuw="2.0210000000000000e+03" sepI="2.1213841438293457e-01" sepG="-1.0000000000000000e+00" res="-9.9000000000000000e+01" rms="0.0000000000000000e+00" nType="1" CC="7.4837830594492289e+01"/>
          <Node pos="r" depth="2" Seq="3" IVar="-1" Cut="5.1849234104156494e-01" cType="1" nS="7.8027941894531250e+02" nB="3.9267416992187500e+03" nEv="4.7070209960937500e+03" nSuw="6.4000000000000000e+01" nBuw="6.2290000000000000e+03" nEvuw="6.2930000000000000e+03" sepI="1.3828980922698975e-01" sepG="-1.0000000000000000e+00" res="-9.9000000000000000e+01" rms="0.0000000000000000e+00" nType="-1" CC="1.2359500553921544e+02"/>
        </Node>
      </Node>
    </BinaryTree>
    <BinaryTree type="DecisionTree" boostWeight="5.4946384184394625e-01" itree="3">
      <Node pos="s" depth="0" Seq="0" IVar="4" Cut="-1.7823474407196045e+00" cType="0" nS="5.8745659179687500e+03" nB="9.1270302734375000e+03" nEv="1.5001595703125000e+04" nSuw="1.9520000000000000e+03" nBuw="1.2886000000000000e+04" nEvuw="1.4838000000000000e+04" sepI="2.3824858665466309e-01" sepG="1.1460937500000000e+02" res="-9.9000000000000000e+01" rms="0.0000000000000000e+00" nType="0" CC="1.1460930371618042e+02">
        <Node pos="l" depth="1" Seq="0" IVar="15" Cut="1.9135380554199219e+02" cType="0" nS="5.6111030273437500e+03" nB="7.6436791992187500e+03" nEv="1.3254782226562500e+04" nSuw="1.8360000000000000e+03" nBuw="1.0892000000000000e+04" nEvuw="1.2728000000000000e+04" sepI="2.4412120878696442e-01" sepG="9.1797309875488281e+01" res="-9.9000000000000000e+01" rms="0.0000000000000000e+00" nType="0" CC="9.1797399513871824e+01">
          <Node pos="l" depth="2" Seq="0" IVar="3" Cut="9.3994064331054688e+01" cType="1" nS="4.9053530273437500e+03" nB="5.6300385742187500e+03" nEv="1.0535391601562500e+04" nSuw="1.7390000000000000e+03" nBuw="8.0170000000000000e+03" nEvuw="9.7560000000000000e+03" sepI="2.4881713092327118e-01" sepG="9.0140914916992188e+01" res="-9.9000000000000000e+01" rms="0.0000000000000000e+00" nType="0" CC="9.0140945799403198e+01">
            <Node pos="l" depth="3" Seq="0" IVar="-1" Cut="0.0000000000000000e+00" cType="1" nS="4.0936662597656250e+03" nB="3.7901206054687500e+03" nEv="7.8837871093750000e+03" nSuw="1.5200000000000000e+03" nBuw="6.4130000000000000e+03" nEvuw="7.9330000000000000e+03" sepI="2.4962939321994781e-01" sepG="-1.0000000000000000e+00" res="-9.9000000000000000e+01" rms="0.0000000000000000e+00" nType="1" CC="1.0000000000000000e+05"/>
            <Node pos="r" depth="3" Seq="4" IVar="-1" Cut="0.0000000000000000e+00" cType="1" nS="8.1168664550781250e+02" nB="1.8399179687500000e+03" nEv="2.6516047363281250e+03" nSuw="2.1900000000000000e+02" nBuw="1.6040000000000000e+03" nEvuw="1.8230000000000000e+03" sepI="2.1240724623203278e-01" sepG="-1.0000000000000000e+00" res="-9.9000000000000000e+01" rms="0.0000000000000000e+00" nType="-1" CC="1.0000000000000000e+05"/>
          </Node>
          <Node pos="r" depth="2" Seq="2" IVar="-1" Cut="4.0598934173583984e+01" cType="0" nS="7.0574993896484375e+02" nB="2.0136405029296875e+03" nEv="2.7193903808593750e+03" nSuw="9.7000000000000000e+01" nBuw="2.8750000000000000e+03" nEvuw="2.9720000000000000e+03" sepI="1.9217179715633392e-01" sepG="-1.0000000000000000e+00" res="-9.9000000000000000e+01" rms="0.0000000000000000e+00" nType="-1" CC="1.0000000000000000e+05"/>
        </Node>
        <Node pos="r" depth="1" Seq="1" IVar="-1" Cut="1.8515994548797607e+00" cType="1" nS="2.6346316528320312e+02" nB="1.4833505859375000e+03" nEv="1.7468137207031250e+03" nSuw="1.1600000000000000e+02" nBuw="1.9940000000000000e+03" nEvuw="2.1100000000000000e+03" sepI="1.2807680666446686e-01" sepG="-1.0000000000000000e+00" res="-9.9000000000000000e+01" rms="0.0000000000000000e+00" nType="-1" CC="2.3982548379541072e+01"/>
      </Node>
    </BinaryTree>
    <BinaryTree type="DecisionTree" boostWeight="8.0672483134213280e-01" itree="4">
      <Node pos="s" depth="0" Seq="0" IVar="17" Cut="4.0414681434631348e+00" cType="0" nS="5.5837587890625000e+03" nB="9.4178369140625000e+03" nEv="1.5001595703125000e+04" nSuw="1.9520000000000000e+03" nBuw="1.2886000000000000e+04" nEvuw="1.4838000000000000e+04" sepI="2.3366996645927429e-01" sepG="1.0885899353027344e+02" res="-9.9000000000000000e+01" rms="0.0000000000000000e+00" nType="0" CC="1.0885897407287484e+02">
        <Node pos="l" depth="1" Seq="0" IVar="16" Cut="4.3809523582458496e+00" cType="1" nS="1.1495538330078125e+03" nB="7.8756646728515625e+02" nEv="1.9371203613281250e+03" nSuw="8.0800000000000000e+02" nBuw="1.3680000000000000e+03" nEvuw="2.1760000000000000e+03" sepI="2.4127000570297241e-01" sepG="7.2907066345214844e+01" res="-9.9000000000000000e+01" rms="0.0000000000000000e+00" nType="0" CC="7.2907036643358197e+01">
          <Node pos="l" depth="2" Seq="0" IVar="8" Cut="6.6038727760314941e-01" cType="0" nS="1.0464307861328125e+03" nB="4.5182760620117188e+02" nEv="1.4982584228515625e+03" nSuw="6.0600000000000000e+02" nBuw="3.3100000000000000e+02" nEvuw="9.3700000000000000e+02" sepI="2.1062496304512024e-01" sepG="3.3117263793945312e+01" res="-9.9000000000000000e+01" rms="0.0000000000000000e+00" nType="0" CC="3.3117268376609786e+01">
            <Node pos="l" depth="3" Seq="0" IVar="-1" Cut="0.0000000000000000e+00" cType="1" nS="1.0029853515625000e+03" nB="3.3430645751953125e+02" nEv="1.3372917480468750e+03" nSuw="5.6400000000000000e+02" nBuw="2.7200000000000000e+02" nEvuw="8.3600000000000000e+02" sepI="1.8749383091926575e-01" sepG="-1.0000000000000000e+00" res="-9.9000000000000000e+01" rms="0.0000000000000000e+00" nType="1" CC="1.0000000000000000e+05"/>
            <Node pos="r" depth="3" Seq="4" IVar="-1" Cut="0.0000000000000000e+00" cType="1" nS="4.3445476531982422e+01" nB="1.1752114868164062e+02" nEv="1.6096662902832031e+02" nSuw="4.2000000000000000e+01" nBuw="5.9000000000000000e+01" nEvuw="1.0100000000000000e+02" sepI="1.9705566763877869e-01" sepG="-1.0000000000000000e+00" res="-9.9000000000000000e+01" rms="0.0000000000000000e+00" nType="-1" CC="1.0000000000000000e+05"/>
          </Node>
          <Node pos="r" depth="2" Seq="2" IVar="8" Cut="6.3476574420928955e-01" cType="1" nS="1.0312305450439453e+02" nB="3.3573889160156250e+02" nEv="4.3886193847656250e+02" nSuw="2.0200000000000000e+02" nBuw="1.0370000000000000e+03" nEvuw="1.2390000000000000e+03" sepI="1.7976352572441101e-01" sepG="1.6391157150268555e+01" res="-9.9000000000000000e+01" rms="0.0000000000000000e+00" nType="0" CC="1.6391158775688211e+01">
            <Node pos="l" depth="3" Seq="2" IVar="-1" Cut="0.0000000000000000e+00" cType="1" nS="4.3097293853759766e+01" nB="1.6586126327514648e+01" nEv="5.9683418273925781e+01" nSuw="1.1000000000000000e+01" nBuw="1.2700000000000000e+02" nEvuw="1.3800000000000000e+02" sepI="2.0067235827445984e-01" sepG="-1.0000000000000000e+00" res="-9.9000000000000000e+01" rms="0.0000000000000000e+00" nType="1" CC="1.0000000000000000e+05"/>
            <Node pos="r" depth="3" Seq="6" IVar="-1" Cut="0.0000000000000000e+00" cType="1" nS="6.0025764465332031e+01" nB="3.1915274047851562e+02" nEv="3.7917852783203125e+02" nSuw="1.9100000000000000e+02" nBuw="9.1000000000000000e+02" nEvuw="1.1010000000000000e+03" sepI="1.3324436545372009e-01" sepG="-1.0000000000000000e+00" res="-9.9000000000000000e+01" rms="0.0000000000000000e+00" nType="-1" CC="1.0000000000000000e+05"/>
          </Node>
        </Node>
        <Node pos="r" depth="1" Seq="1" IVar="7" Cut="3.1205735206604004e+00" cType="1" nS="4.4342050781250000e+03" nB="8.6302705078125000e+03" nEv="1.3064475585937500e+04" nSuw="1.1440000000000000e+03" nBuw="1.1518000000000000e+04" nEvuw="1.2662000000000000e+04" sepI="2.2421063482761383e-01" sepG="9.5919982910156250e+01" res="-9.9000000000000000e+01" rms="0.0000000000000000e+00" nType="0" CC="9.5920050088556309e+01">
          <Node pos="l" depth="2" Seq="1" IVar="1" Cut="8.7993537902832031e+01" cType="0" nS="4.1052519531250000e+03" nB="6.7547993164062500e+03" nEv="1.0860050781250000e+04" nSuw="1.1100000000000000e+03" nBuw="8.0180000000000000e+03" nEvuw="9.1280000000000000e+03" sepI="2.3511941730976105e-01" sepG="7.9928298950195312e+01" res="-9.9000000000000000e+01" rms="0.0000000000000000e+00" nType="0" CC="7.9928268108420525e+01">
            <Node pos="l" depth="3" Seq="1" IVar="-1" Cut="0.0000000000000000e+00" cType="1" nS="3.4708517456054688e+02" nB="8.7841773986816406e+01" nEv="4.3492694091796875e+02" nSuw="2.4000000000000000e+01" nBuw="1.5900000000000000e+02" nEvuw="1.8300000000000000e+02" sepI="1.6117753088474274e-01" sepG="-1.0000000000000000e+00" res="-9.9000000000000000e+01" rms="0.0000000000000000e+00" nType="1" CC="1.0000000000000000e+05"/>
            <Node pos="r" depth="3" Seq="5" IVar="-1" Cut="0.0000000000000000e+00" cType="1" nS="3.7581665039062500e+03" nB="6.6669575195312500e+03" nEv="1.0425124023437500e+04" nSuw="1.0860000000000000e+03" nBuw="7.8590000000000000e+03" nEvuw="8.9450000000000000e+03" sepI="2.3053732514381409e-01" sepG="-1.0000000000000000e+00" res="-9.9000000000000000e+01" rms="0.0000000000000000e+00" nType="-1" CC="1.0000000000000000e+05"/>
          </Node>
          <Node pos="r" depth="2" Seq="3" IVar="-1" Cut="4.8080272674560547e+01" cType="0" nS="3.2895312500000000e+02" nB="1.8754711914062500e+03" nEv="2.2044243164062500e+03" nSuw="3.4000000000000000e+01" nBuw="3.5000000000000000e+03" nEvuw="3.5340000000000000e+03" sepI="1.2695622444152832e-01" sepG="-1.0000000000000000e+00" res="-9.9000000000000000e+01" rms="0.0000000000000000e+00" nType="-1" CC="1.0000000000000000e+05"/>
        </Node>
      </Node>
    </BinaryTree>
    <BinaryTree type="DecisionTree" boostWeight="4.1333002850567463e-01" itree="5">
      <Node pos="s" depth="0" Seq="0" IVar="7" Cut="3.3552508354187012e+00" cType="1" nS="7.7974072265625000e+03" nB="7.2041884765625000e+03" nEv="1.5001595703125000e+04" nSuw="1.9520000000000000e+03" nBuw="1.2886000000000000e+04" nEvuw="1.4838000000000000e+04" sepI="2.4960906803607941e-01" sepG="9.8862037658691406e+01" res="-9.9000000000000000e+01" rms="0.0000000000000000e+00" nType="0" CC="9.8861864622120265e+01">
        <Node pos="l" depth="1" Seq="0" IVar="7" Cut="3.2094373703002930e+00" cType="1" nS="7.7169394531250000e+03" nB="6.6628046875000000e+03" nEv="1.4379744140625000e+04" nSuw="1.9410000000000000e+03" nBuw="1.1414000000000000e+04" nEvuw="1.3355000000000000e+04" sepI="2.4865652620792389e-01" sepG="6.9382621765136719e+01" res="-9.9000000000000000e+01" rms="0.0000000000000000e+00" nType="0" CC="6.9382761149973703e+01">
          <Node pos="l" depth="2" Seq="0" IVar="0" Cut="4.5245834350585938e+01" cType="0" nS="7.6038271484375000e+03" nB="6.2002753906250000e+03" nEv="1.3804102539062500e+04" nSuw="1.9200000000000000e+03" nBuw="1.0316000000000000e+04" nEvuw="1.2236000000000000e+04" sepI="2.4741546809673309e-01" sepG="6.3069351196289062e+01" res="-9.9000000000000000e+01" rms="0.0000000000000000e+00" nType="0" CC="6.3069269019580133e+01">
            <Node pos="l" depth="3" Seq="0" IVar="-1" Cut="0.0000000000000000e+00" cType="1" nS="7.4643798828125000e+03" nB="5.7417280273437500e+03" nEv="1.3206108398437500e+04" nSuw="1.8250000000000000e+03" nBuw="9.6390000000000000e+03" nEvuw="1.1464000000000000e+04" sepI="2.4574612081050873e-01" sepG="-1.0000000000000000e+00" res="-9.9000000000000000e+01" rms="0.0000000000000000e+00" nType="1" CC="1.0000000000000000e+05"/>
            <Node pos="r" depth="3" Seq="4" IVar="-1" Cut="0.0000000000000000e+00" cType="1" nS="1.3944743347167969e+02" nB="4.5854708862304688e+02" nEv="5.9799450683593750e+02" nSuw="9.5000000000000000e+01" nBuw="6.7700000000000000e+02" nEvuw="7.7200000000000000e+02" sepI="1.7881339788436890e-01" sepG="-1.0000000000000000e+00" res="-9.9000000000000000e+01" rms="0.0000000000000000e+00" nType="-1" CC="1.0000000000000000e+05"/>
          </Node>
          <Node pos="r" depth="2" Seq="2" IVar="-1" Cut="-7.3338409423828125e+01" cType="1" nS="1.1311228179931641e+02" nB="4.6252932739257812e+02" nEv="5.7564160156250000e+02" nSuw="2.1000000000000000e+01" nBuw="1.0980000000000000e+03" nEvuw="1.1190000000000000e+03" sepI="1.5788638591766357e-01" sepG="-1.0000000000000000e+00" res="-9.9000000000000000e+01" rms="0.0000000000000000e+00" nType="-1" CC="3.4428001546636409e+01"/>
        </Node>
        <Node pos="r" depth="1" Seq="1" IVar="13" Cut="7.1819183349609375e+01" cType="0" nS="8.0467781066894531e+01" nB="5.4138397216796875e+02" nEv="6.2185174560546875e+02" nSuw="1.1000000000000000e+01" nBuw="1.4720000000000000e+03" nEvuw="1.4830000000000000e+03" sepI="1.1265584081411362e-01" sepG="4.4911983489990234e+01" res="-9.9000000000000000e+01" rms="0.0000000000000000e+00" nType="0" CC="4.4911987655265705e+01">
          <Node pos="l" depth="2" Seq="1" IVar="-1" Cut="0.0000000000000000e+00" cType="1" nS="6.3287693023681641e+01" nB="9.8201036453247070e+00" nEv="7.3107795715332031e+01" nSuw="5.0000000000000000e+00" nBuw="3.5000000000000000e+01" nEvuw="4.0000000000000000e+01" sepI="1.1628077924251556e-01" sepG="-1.0000000000000000e+00" res="-9.9000000000000000e+01" rms="0.0000000000000000e+00" nType="1" CC="1.0000000000000000e+05"/>
          <Node pos="r" depth="2" Seq="3" IVar="-1" Cut="2.6322345733642578e+00" cType="0" nS="1.7180088043212891e+01" nB="5.3156384277343750e+02" nEv="5.4874395751953125e+02" nSuw="6.0000000000000000e+00" nBuw="1.4370000000000000e+03" nEvuw="1.4430000000000000e+03" sepI="3.0327830463647842e-02" sepG="-1.0000000000000000e+00" res="-9.9000000000000000e+01" rms="0.0000000000000000e+00" nType="-1" CC="1.0000000000000000e+05"/>
        </Node>
      </Node>
    </BinaryTree>
    <BinaryTree type="DecisionTree" boostWeight="6.6703562690530038e-01" itree="6">
      <Node pos="s" depth="0" Seq="0" IVar="13" Cut="5.0705314636230469e+01" cType="0" nS="6.5650048828125000e+03" nB="8.4365908203125000e+03" nEv="1.5001595703125000e+04" nSuw="1.9520000000000000e+03" nBuw="1.2886000000000000e+04" nEvuw="1.4838000000000000e+04" sepI="2.4610878527164459e-01" sepG="6.5391006469726562e+01" res="-9.9000000000000000e+01" rms="0.0000000000000000e+00" nType="0" CC="9.8691154380576336e+01">
        <Node pos="l" depth="1" Seq="0" IVar="-1" Cut="7.2617797851562500e+01" cType="0" nS="1.6827965087890625e+03" nB="1.2634212646484375e+03" nEv="2.9462177734375000e+03" nSuw="9.5600000000000000e+02" nBuw="2.2890000000000000e+03" nEvuw="3.2450000000000000e+03" sepI="2.4493457376956940e-01" sepG="-1.0000000000000000e+00" res="-9.9000000000000000e+01" rms="0.0000000000000000e+00" nType="1" CC="4.2874325594987056e+01"/>
        <Node pos="r" depth="1" Seq="1" IVar="10" Cut="5.6808967590332031e+01" cType="0" nS="4.8822084960937500e+03" nB="7.1731694335937500e+03" nEv="1.2055377929687500e+04" nSuw="9.9600000000000000e+02" nBuw="1.0597000000000000e+04" nEvuw="1.1593000000000000e+04" sepI="2.4097153544425964e-01" sepG="1.3199142456054688e+02" res="-9.9000000000000000e+01" rms="0.0000000000000000e+00" nType="0" CC="1.3199133777561656e+02">
          <Node pos="l" depth="2" Seq="1" IVar="18" Cut="1.7782777404785156e+02" cType="1" nS="1.7812863769531250e+03" nB="1.2637829589843750e+03" nEv="3.0450693359375000e+03" nSuw="5.7700000000000000e+02" nBuw="2.4380000000000000e+03" nEvuw="3.0150000000000000e+03" sepI="2.4277941882610321e-01" sepG="5.1598533630371094e+01" res="-9.9000000000000000e+01" rms="0.0000000000000000e+00" nType="0" CC="5.1598557974965388e+01">
            <Node pos="l" depth="3" Seq="1" IVar="-1" Cut="0.0000000000000000e+00" cType="1" nS="1.1113876953125000e+03" nB="4.4980831909179688e+02" nEv="1.5611959228515625e+03" nSuw="1.7400000000000000e+02" nBuw="1.3590000000000000e+03" nEvuw="1.5330000000000000e+03" sepI="2.0510591566562653e-01" sepG="-1.0000000000000000e+00" res="-9.9000000000000000e+01" rms="0.0000000000000000e+00" nType="1" CC="1.0000000000000000e+05"/>
            <Node pos="r" depth="3" Seq="5" IVar="-1" Cut="0.0000000000000000e+00" cType="1" nS="6.6989868164062500e+02" nB="8.1397460937500000e+02" nEv="1.4838732910156250e+03" nSuw="4.0300000000000000e+02" nBuw="1.0790000000000000e+03" nEvuw="1.4820000000000000e+03" sepI="2.4764315783977509e-01" sepG="-1.0000000000000000e+00" res="-9.9000000000000000e+01" rms="0.0000000000000000e+00" nType="-1" CC="1.0000000000000000e+05"/>
          </Node>
          <Node pos="r" depth="2" Seq="3" IVar="-1" Cut="4.0212940216064453e+01" cType="0" nS="3.1009223632812500e+03" nB="5.9093862304687500e+03" nEv="9.0103085937500000e+03" nSuw="4.1900000000000000e+02" nBuw="8.1590000000000000e+03" nEvuw="8.5780000000000000e+03" sepI="2.2571162879467010e-01" sepG="-1.0000000000000000e+00" res="-9.9000000000000000e+01" rms="0.0000000000000000e+00" nType="-1" CC="1.0000000000000000e+05"/>
        </Node>
      </Node>
    </BinaryTree>
    <BinaryTree type="DecisionTree" boostWeight="8.0978287256581238e-01" itree="7">
      <Node pos="s" depth="0" Seq="0" IVar="10" Cut="7.2192817687988281e+01" cType="1" nS="7.8829423828125000e+03" nB="7.1186533203125000e+03" nEv="1.5001595703125000e+04" nSuw="1.9520000000000000e+03" nBuw="1.2886000000000000e+04" nEvuw="1.4838000000000000e+04" sepI="2.4935109913349152e-01" sepG="8.5816024780273438e+01" res="-9.9000000000000000e+01" rms="0.0000000000000000e+00" nType="0" CC="1.7071817140618259e+02">
        <Node pos="l" depth="1" Seq="0" IVar="10" Cut="4.0044670104980469e+01" cType="0" nS="6.6632167968750000e+03" nB="5.1320224609375000e+03" nEv="1.1795239257812500e+04" nSuw="7.3100000000000000e+02" nBuw="9.7210000000000000e+03" nEvuw="1.0452000000000000e+04" sepI="2.4578703939914703e-01" sepG="2.5562017822265625e+02" res="-9.9000000000000000e+01" rms="0.0000000000000000e+00" nType="0" CC="2.5562024304039733e+02">
          <Node pos="l" depth="2" Seq="0" IVar="3" Cut="9.7280174255371094e+01" cType="1" nS="5.0665043945312500e+03" nB="2.4223344726562500e+03" nEv="7.4888388671875000e+03" nSuw="5.8600000000000000e+02" nBuw="4.9060000000000000e+03" nEvuw="5.4920000000000000e+03" sepI="2.1883337199687958e-01" sepG="7.7794548034667969e+01" res="-9.9000000000000000e+01" rms="0.0000000000000000e+00" nType="0" CC="7.7794432830858113e+01">
            <Node pos="l" depth="3" Seq="0" IVar="-1" Cut="0.0000000000000000e+00" cType="1" nS="4.9997475585937500e+03" nB="2.1587490234375000e+03" nEv="7.1584965820312500e+03" nSuw="5.6400000000000000e+02" nBuw="4.6230000000000000e+03" nEvuw="5.1870000000000000e+03" sepI="2.1062339842319489e-01" sepG="-1.0000000000000000e+00" res="-9.9000000000000000e+01" rms="0.0000000000000000e+00" nType="1" CC="1.0000000000000000e+05"/>
            <Node pos="r" depth="3" Seq="4" IVar="-1" Cut="0.0000000000000000e+00" cType="1" nS="6.6757148742675781e+01" nB="2.6358535766601562e+02" nEv="3.3034252929687500e+02" nSuw="2.2000000000000000e+01" nBuw="2.8300000000000000e+02" nEvuw="3.0500000000000000e+02" sepI="1.6124643385410309e-01" sepG="-1.0000000000000000e+00" res="-9.9000000000000000e+01" rms="0.0000000000000000e+00" nType="-1" CC="1.0000000000000000e+05"/>
          </Node>
          <Node pos="r" depth="2" Seq="2" IVar="-1" Cut="2.8428506851196289e+00" cType="1" nS="1.5967125244140625e+03" nB="2.7096877441406250e+03" nEv="4.3064003906250000e+03" nSuw="1.4500000000000000e+02" nBuw="4.8150000000000000e+03" nEvuw="4.9600000000000000e+03" sepI="2.3330131173133850e-01" sepG="-1.0000000000000000e+00" res="-9.9000000000000000e+01" rms="0.0000000000000000e+00" nType="-1" CC="1.0000000000000000e+05"/>
        </Node>
        <Node pos="r" depth="1" Seq="1" IVar="9" Cut="7.7755492925643921e-01" cType="0" nS="1.2197250976562500e+03" nB="1.9866312255859375e+03" nEv="3.2063564453125000e+03" nSuw="1.2210000000000000e+03" nBuw="3.1650000000000000e+03" nEvuw="4.3860000000000000e+03" sepI="2.3569786548614502e-01" sepG="6.8845977783203125e+01" res="-9.9000000000000000e+01" rms="0.0000000000000000e+00" nType="0" CC="6.8845942431566073e+01">
          <Node pos="l" depth="2" Seq="1" IVar="7" Cut="2.7488372325897217e+00" cType="0" nS="5.6591906738281250e+02" nB="3.6170629882812500e+02" nEv="9.2762536621093750e+02" nSuw="2.9300000000000000e+02" nBuw="9.1800000000000000e+02" nEvuw="1.2110000000000000e+03" sepI="2.3788397014141083e-01" sepG="5.5700069427490234e+01" res="-9.9000000000000000e+01" rms="0.0000000000000000e+00" nType="0" CC="5.5700074181337612e+01">
            <Node pos="l" depth="3" Seq="1" IVar="-1" Cut="0.0000000000000000e+00" cType="1" nS="3.9046914672851562e+02" nB="6.3315776824951172e+01" nEv="4.5378494262695312e+02" nSuw="3.4000000000000000e+01" nBuw="4.0300000000000000e+02" nEvuw="4.3700000000000000e+02" sepI="1.2006004899740219e-01" sepG="-1.0000000000000000e+00" res="-9.9000000000000000e+01" rms="0.0000000000000000e+00" nType="1" CC="1.0000000000000000e+05"/>
            <Node pos="r" depth="3" Seq="5" IVar="-1" Cut="0.0000000000000000e+00" cType="1" nS="1.7544989013671875e+02" nB="2.9839053344726562e+02" nEv="4.7384042358398438e+02" nSuw="2.5900000000000000e+02" nBuw="5.1500000000000000e+02" nEvuw="7.7400000000000000e+02" sepI="2.3317067325115204e-01" sepG="-1.0000000000000000e+00" res="-9.9000000000000000e+01" rms="0.0000000000000000e+00" nType="-1" CC="1.0000000000000000e+05"/>
          </Node>
          <Node pos="r" depth="2" Seq="3" IVar="-1" Cut="9.9156074523925781e+01" cType="0" nS="6.5380609130859375e+02" nB="1.6249249267578125e+03" nEv="2.2787309570312500e+03" nSuw="9.2800000000000000e+02" nBuw="2.2470000000000000e+03" nEvuw="3.1750000000000000e+03" sepI="2.0459553599357605e-01" sepG="-1.0000000000000000e+00" res="-9.9000000000000000e+01" rms="0.0000000000000000e+00" nType="-1" CC="4.4576902541563527e+01"/>
        </Node>
      </Node>
    </BinaryTree>
    <BinaryTree type="DecisionTree" boostWeight="4.3241690269830879e-01" itree="8">
      <Node pos="s" depth="0" Seq="0" IVar="16" Cut="4.3809523582458496e+00" cType="1" nS="7.8161621093750000e+03" nB="7.1854335937500000e+03" nEv="1.5001595703125000e+04" nSuw="1.9520000000000000e+03" nBuw="1.2886000000000000e+04" nEvuw="1.4838000000000000e+04" sepI="2.4955807626247406e-01" sepG="1.0329907226562500e+02" res="-9.9000000000000000e+01" rms="0.0000000000000000e+00" nType="0" CC="1.0329917397441204e+02">
        <Node pos="l" depth="1" Seq="0" IVar="7" Cut="3.3552508354187012e+00" cType="1" nS="7.0496835937500000e+03" nB="5.6142460937500000e+03" nEv="1.2663929687500000e+04" nSuw="1.4590000000000000e+03" nBuw="7.1930000000000000e+03" nEvuw="8.6520000000000000e+03" sepI="2.4678802490234375e-01" sepG="7.0668205261230469e+01" res="-9.9000000000000000e+01" rms="0.0000000000000000e+00" nType="0" CC="7.0668230727109403e+01">
          <Node pos="l" depth="2" Seq="0" IVar="15" Cut="2.8979843139648438e+02" cType="1" nS="6.9996606445312500e+03" nB="5.2846079101562500e+03" nEv="1.2284268554687500e+04" nSuw="1.4520000000000000e+03" nBuw="6.4290000000000000e+03" nEvuw="7.8810000000000000e+03" sepI="2.4512699246406555e-01" sepG="5.5361988067626953e+01" res="-9.9000000000000000e+01" rms="0.0000000000000000e+00" nType="0" CC="5.5361911190764658e+01">
            <Node pos="l" depth="3" Seq="0" IVar="-1" Cut="0.0000000000000000e+00" cType="1" nS="6.9897285156250000e+03" nB="5.0934677734375000e+03" nEv="1.2083196289062500e+04" nSuw="1.4440000000000000e+03" nBuw="5.8250000000000000e+03" nEvuw="7.2690000000000000e+03" sepI="2.4384295940399170e-01" sepG="-1.0000000000000000e+00" res="-9.9000000000000000e+01" rms="0.0000000000000000e+00" nType="1" CC="1.0000000000000000e+05"/>
            <Node pos="r" depth="3" Seq="4" IVar="-1" Cut="0.0000000000000000e+00" cType="1" nS="9.9321613311767578e+00" nB="1.9113981628417969e+02" nEv="2.0107197570800781e+02" nSuw="8.0000000000000000e+00" nBuw="6.0400000000000000e+02" nEvuw="6.1200000000000000e+02" sepI="4.6956080943346024e-02" sepG="-1.0000000000000000e+00" res="-9.9000000000000000e+01" rms="0.0000000000000000e+00" nType="-1" CC="1.0000000000000000e+05"/>
          </Node>
          <Node pos="r" depth="2" Seq="2" IVar="10" Cut="9.9498428344726562e+01" cType="0" nS="5.0023052215576172e+01" nB="3.2963818359375000e+02" nEv="3.7966125488281250e+02" nSuw="7.0000000000000000e+00" nBuw="7.6400000000000000e+02" nEvuw="7.7100000000000000e+02" sepI="1.1439713835716248e-01" sepG="1.4809384346008301e+01" res="-9.9000000000000000e+01" rms="0.0000000000000000e+00" nType="0" CC="1.4809381751692264e+01">
            <Node pos="l" depth="3" Seq="2" IVar="-1" Cut="0.0000000000000000e+00" cType="1" nS="2.9166191101074219e+01" nB="1.3132736206054688e+01" nEv="4.2298927307128906e+01" nSuw="3.0000000000000000e+00" nBuw="4.2000000000000000e+01" nEvuw="4.5000000000000000e+01" sepI="2.1408006548881531e-01" sepG="-1.0000000000000000e+00" res="-9.9000000000000000e+01" rms="0.0000000000000000e+00" nType="1" CC="1.0000000000000000e+05"/>
            <Node pos="r" depth="3" Seq="6" IVar="-1" Cut="0.0000000000000000e+00" cType="1" nS="2.0856859207153320e+01" nB="3.1650546264648438e+02" nEv="3.3736230468750000e+02" nSuw="4.0000000000000000e+00" nBuw="7.2200000000000000e+02" nEvuw="7.2600000000000000e+02" sepI="5.8001201599836349e-02" sepG="-1.0000000000000000e+00" res="-9.9000000000000000e+01" rms="0.0000000000000000e+00" nType="-1" CC="1.0000000000000000e+05"/>
          </Node>
        </Node>
        <Node pos="r" depth="1" Seq="1" IVar="-1" Cut="8.2338708639144897e-01" cType="1" nS="7.6647839355468750e+02" nB="1.5711875000000000e+03" nEv="2.3376660156250000e+03" nSuw="4.9300000000000000e+02" nBuw="5.6930000000000000e+03" nEvuw="6.1860000000000000e+03" sepI="2.2037537395954132e-01" sepG="-1.0000000000000000e+00" res="-9.9000000000000000e+01" rms="0.0000000000000000e+00" nType="-1" CC="1.0000000000000000e+05"/>
      </Node>
    </BinaryTree>
    <BinaryTree type="DecisionTree" boostWeight="4.8233806745383523e-01" itree="9">
      <Node pos="s" depth="0" Seq="0" IVar="9" Cut="7.3313224315643311e-01" cType="1" nS="6.7997832031250000e+03" nB="8.2018125000000000e+03" nEv="1.5001595703125000e+04" nSuw="1.9520000000000000e+03" nBuw="1.2886000000000000e+04" nEvuw="1.4838000000000000e+04" sepI="2.4781636893749237e-01" sepG="7.7059066772460938e+01" res="-9.9000000000000000e+01" rms="0.0000000000000000e+00" nType="0" CC="7.7059114314193721e+01">
        <Node pos="l" depth="1" Seq="0" IVar="1" Cut="5.4865238189697266e+01" cType="0" nS="4.7250727539062500e+03" nB="4.5468378906250000e+03" nEv="9.2719101562500000e+03" nSuw="1.3970000000000000e+03" nBuw="5.7840000000000000e+03" nEvuw="7.1810000000000000e+03" sepI="2.4990761280059814e-01" sepG="5.1792823791503906e+01" res="-9.9000000000000000e+01" rms="0.0000000000000000e+00" nType="0" CC="5.1792750156624606e+01">
          <Node pos="l" depth="2" Seq="0" IVar="14" Cut="4.6417376399040222e-01" cType="0" nS="1.1285864257812500e+03" nB="5.6107476806640625e+02" nEv="1.6896612548828125e+03" nSuw="2.4600000000000000e+02" nBuw="7.3800000000000000e+02" nEvuw="9.8400000000000000e+02" sepI="2.2179731726646423e-01" sepG="4.2208797454833984e+01" res="-9.9000000000000000e+01" rms="0.0000000000000000e+00" nType="0" CC="4.2208781343045302e+01">
            <Node pos="l" depth="3" Seq="0" IVar="-1" Cut="0.0000000000000000e+00" cType="1" nS="1.0522537841796875e+03" nB="3.7928588867187500e+02" nEv="1.4315396728515625e+03" nSuw="2.3200000000000000e+02" nBuw="6.4800000000000000e+02" nEvuw="8.8000000000000000e+02" sepI="1.9475132226943970e-01" sepG="-1.0000000000000000e+00" res="-9.9000000000000000e+01" rms="0.0000000000000000e+00" nType="1" CC="1.0000000000000000e+05"/>
            <Node pos="r" depth="3" Seq="4" IVar="-1" Cut="0.0000000000000000e+00" cType="1" nS="7.6332687377929688e+01" nB="1.8178886413574219e+02" nEv="2.5812155151367188e+02" nSuw="1.4000000000000000e+01" nBuw="9.0000000000000000e+01" nEvuw="1.0400000000000000e+02" sepI="2.0827123522758484e-01" sepG="-1.0000000000000000e+00" res="-9.9000000000000000e+01" rms="0.0000000000000000e+00" nType="-1" CC="1.0000000000000000e+05"/>
          </Node>
          <Node pos="r" depth="2" Seq="2" IVar="7" Cut="2.7356867790222168e+00" cType="1" nS="3.5964865722656250e+03" nB="3.9857629394531250e+03" nEv="7.5822495117187500e+03" nSuw="1.1510000000000000e+03" nBuw="5.0460000000000000e+03" nEvuw="6.1970000000000000e+03" sepI="2.4934104084968567e-01" sepG="4.8814334869384766e+01" res="-9.9000000000000000e+01" rms="0.0000000000000000e+00" nType="0" CC="4.8814359100732872e+01">
            <Node pos="l" depth="3" Seq="2" IVar="-1" Cut="0.0000000000000000e+00" cType="1" nS="3.0238088378906250e+03" nB="2.8109514160156250e+03" nEv="5.8347602539062500e+03" nSuw="9.9400000000000000e+02" nBuw="2.7710000000000000e+03" nEvuw="3.7650000000000000e+03" sepI="2.4966728687286377e-01" sepG="-1.0000000000000000e+00" res="-9.9000000000000000e+01" rms="0.0000000000000000e+00" nType="1" CC="1.0000000000000000e+05"/>
            <Node pos="r" depth="3" Seq="6" IVar="-1" Cut="0.0000000000000000e+00" cType="1" nS="5.7267767333984375e+02" nB="1.1748115234375000e+03" nEv="1.7474891357421875e+03" nSuw="1.5700000000000000e+02" nBuw="2.2750000000000000e+03" nEvuw="2.4320000000000000e+03" sepI="2.2031773626804352e-01" sepG="-1.0000000000000000e+00" res="-9.9000000000000000e+01" rms="0.0000000000000000e+00" nType="-1" CC="1.0000000000000000e+05"/>
          </Node>
        </Node>
        <Node pos="r" depth="1" Seq="1" IVar="3" Cut="1.0085099029541016e+02" cType="0" nS="2.0747102050781250e+03" nB="3.6549748535156250e+03" nEv="5.7296850585937500e+03" nSuw="5.5500000000000000e+02" nBuw="7.1020000000000000e+03" nEvuw="7.6570000000000000e+03" sepI="2.3098316788673401e-01" sepG="5.8392513275146484e+01" res="-9.9000000000000000e+01" rms="0.0000000000000000e+00" nType="0" CC="5.8392527724056208e+01">
          <Node pos="l" depth="2" Seq="1" IVar="15" Cut="2.3305442810058594e+02" cType="0" nS="2.0170558166503906e+02" nB="3.6485004425048828e+01" nEv="2.3819059753417969e+02" nSuw="1.1000000000000000e+01" nBuw="1.4500000000000000e+02" nEvuw="1.5600000000000000e+02" sepI="1.2971289455890656e-01" sepG="1.7845537185668945e+01" res="-9.9000000000000000e+01" rms="0.0000000000000000e+00" nType="0" CC="1.7845537014023311e+01">
            <Node pos="l" depth="3" Seq="1" IVar="-1" Cut="0.0000000000000000e+00" cType="1" nS="1.9996142578125000e+02" nB="1.2115294456481934e+01" nEv="2.1207672119140625e+02" nSuw="9.0000000000000000e+00" nBuw="5.1000000000000000e+01" nEvuw="6.0000000000000000e+01" sepI="5.3863454610109329e-02" sepG="-1.0000000000000000e+00" res="-9.9000000000000000e+01" rms="0.0000000000000000e+00" nType="1" CC="1.0000000000000000e+05"/>
            <Node pos="r" depth="3" Seq="5" IVar="-1" Cut="0.0000000000000000e+00" cType="1" nS="1.7441622018814087e+00" nB="2.4369710922241211e+01" nEv="2.6113872528076172e+01" nSuw="2.0000000000000000e+00" nBuw="9.4000000000000000e+01" nEvuw="9.6000000000000000e+01" sepI="6.2329649925231934e-02" sepG="-1.0000000000000000e+00" res="-9.9000000000000000e+01" rms="0.0000000000000000e+00" nType="-1" CC="1.0000000000000000e+05"/>
          </Node>
          <Node pos="r" depth="2" Seq="3" IVar="-1" Cut="1.0647209167480469e+02" cType="1" nS="1.8730045166015625e+03" nB="3.6184899902343750e+03" nEv="5.4914946289062500e+03" nSuw="5.4400000000000000e+02" nBuw="6.9570000000000000e+03" nEvuw="7.5010000000000000e+03" sepI="2.2474244236946106e-01" sepG="-1.0000000000000000e+00" res="-9.9000000000000000e+01" rms="0.0000000000000000e+00" nType="-1" CC="1.0000000000000000e+05"/>
        </Node>
      </Node>
    </BinaryTree>
    <BinaryTree type="DecisionTree" boostWeight="5.2737735854130074e-01" itree="10">
      <Node pos="s" depth="0" Seq="0" IVar="4" Cut="-1.7823474407196045e+00" cType="0" nS="6.7638330078125000e+03" nB="8.2377626953125000e+03" nEv="1.5001595703125000e+04" nSuw="1.9520000000000000e+03" nBuw="1.2886000000000000e+04" nEvuw="1.4838000000000000e+04" sepI="2.4758666753768921e-01" sepG="5.4084556579589844e+01" res="-9.9000000000000000e+01" rms="0.0000000000000000e+00" nType="0" CC="7.8393678891361446e+01">
        <Node pos="l" depth="1" Seq="0" IVar="7" Cut="2.1848032474517822e+00" cType="0" nS="6.4604804687500000e+03" nB="7.3225322265625000e+03" nEv="1.3783012695312500e+04" nSuw="1.8360000000000000e+03" nBuw="1.0892000000000000e+04" nEvuw="1.2728000000000000e+04" sepI="2.4902205169200897e-01" sepG="6.5174942016601562e+01" res="-9.9000000000000000e+01" rms="0.0000000000000000e+00" nType="0" CC="8.6496699962103619e+01">
          <Node pos="l" depth="2" Seq="0" IVar="14" Cut="2.9947489500045776e-01" cType="0" nS="4.2025273437500000e+03" nB="3.7646572265625000e+03" nEv="7.9671845703125000e+03" nSuw="7.1000000000000000e+02" nBuw="8.7440000000000000e+03" nEvuw="9.4540000000000000e+03" sepI="2.4924486875534058e-01" sepG="9.1668182373046875e+01" res="-9.9000000000000000e+01" rms="0.0000000000000000e+00" nType="0" CC="9.1668233880702701e+01">
            <Node pos="l" depth="3" Seq="0" IVar="-1" Cut="0.0000000000000000e+00" cType="1" nS="4.1333188476562500e+03" nB="3.2962431640625000e+03" nEv="7.4295620117187500e+03" nSuw="6.9400000000000000e+02" nBuw="7.9530000000000000e+03" nEvuw="8.6470000000000000e+03" sepI="2.4682646989822388e-01" sepG="-1.0000000000000000e+00" res="-9.9000000000000000e+01" rms="0.0000000000000000e+00" nType="1" CC="1.0000000000000000e+05"/>
            <Node pos="r" depth="3" Seq="4" IVar="-1" Cut="0.0000000000000000e+00" cType="1" nS="6.9208274841308594e+01" nB="4.6841387939453125e+02" nEv="5.3762213134765625e+02" nSuw="1.6000000000000000e+01" nBuw="7.9100000000000000e+02" nEvuw="8.0700000000000000e+02" sepI="1.1215883493423462e-01" sepG="-1.0000000000000000e+00" res="-9.9000000000000000e+01" rms="0.0000000000000000e+00" nType="-1" CC="1.0000000000000000e+05"/>
          </Node>
          <Node pos="r" depth="2" Seq="2" IVar="3" Cut="8.7153770446777344e+01" cType="1" nS="2.2579531250000000e+03" nB="3.5578752441406250e+03" nEv="5.8158281250000000e+03" nSuw="1.1260000000000000e+03" nBuw="2.1480000000000000e+03" nEvuw="3.2740000000000000e+03" sepI="2.3751032352447510e-01" sepG="1.0264688873291016e+02" res="-9.9000000000000000e+01" rms="0.0000000000000000e+00" nType="0" CC="1.0264691621640668e+02">
            <Node pos="l" depth="3" Seq="2" IVar="-1" Cut="0.0000000000000000e+00" cType="1" nS="7.3205554199218750e+02" nB="3.7282214355468750e+02" nEv="1.1048776855468750e+03" nSuw="1.6100000000000000e+02" nBuw="3.8800000000000000e+02" nEvuw="5.4900000000000000e+02" sepI="2.2357195615768433e-01" sepG="-1.0000000000000000e+00" res="-9.9000000000000000e+01" rms="0.0000000000000000e+00" nType="1" CC="1.0000000000000000e+05"/>
            <Node pos="r" depth="3" Seq="6" IVar="-1" Cut="0.0000000000000000e+00" cType="1" nS="1.5258977050781250e+03" nB="3.1850529785156250e+03" nEv="4.7109506835937500e+03" nSuw="9.6500000000000000e+02" nBuw="1.7600000000000000e+03" nEvuw="2.7250000000000000e+03" sepI="2.1899034082889557e-01" sepG="-1.0000000000000000e+00" res="-9.9000000000000000e+01" rms="0.0000000000000000e+00" nType="-1" CC="1.0000000000000000e+05"/>
          </Node>
        </Node>
        <Node pos="r" depth="1" Seq="1" IVar="-1" Cut="2.6928987503051758e+00" cType="1" nS="3.0335263061523438e+02" nB="9.1523028564453125e+02" nEv="1.2185830078125000e+03" nSuw="1.1600000000000000e+02" nBuw="1.9940000000000000e+03" nEvuw="2.1100000000000000e+03" sepI="1.8696829676628113e-01" sepG="-1.0000000000000000e+00" res="-9.9000000000000000e+01" rms="0.0000000000000000e+00" nType="-1" CC="1.0000000000000000e+05"/>
      </Node>
    </BinaryTree>
    <BinaryTree type="DecisionTree" boostWeight="5.2849047037791808e-01" itree="11">
      <Node pos="s" depth="0" Seq="0" IVar="7" Cut="2.8858964443206787e+00" cType="1" nS="6.4260209960937500e+03" nB="8.5755742187500000e+03" nEv="1.5001595703125000e+04" nSuw="1.9520000000000000e+03" nBuw="1.2886000000000000e+04" nEvuw="1.4838000000000000e+04" sepI="2.4486711621284485e-01" sepG="5.3829273223876953e+01" res="-9.9000000000000000e+01" rms="0.0000000000000000e+00" nType="0" CC="6.6820495568616479e+01">
        <Node pos="l" depth="1" Seq="0" IVar="6" Cut="4.0540832281112671e-01" cType="0" nS="4.9908720703125000e+03" nB="5.7118041992187500e+03" nEv="1.0702676757812500e+04" nSuw="1.7700000000000000e+03" nBuw="5.8960000000000000e+03" nEvuw="7.6660000000000000e+03" sepI="2.4886566400527954e-01" sepG="5.4565948486328125e+01" res="-9.9000000000000000e+01" rms="0.0000000000000000e+00" nType="0" CC="5.4565961536809482e+01">
          <Node pos="l" depth="2" Seq="0" IVar="9" Cut="3.3284983038902283e-01" cType="0" nS="3.9720153808593750e+03" nB="3.8162734375000000e+03" nEv="7.7882890625000000e+03" nSuw="1.2970000000000000e+03" nBuw="3.9280000000000000e+03" nEvuw="5.2250000000000000e+03" sepI="2.4990002810955048e-01" sepG="3.4436744689941406e+01" res="-9.9000000000000000e+01" rms="0.0000000000000000e+00" nType="0" CC="3.4436641942866117e+01">
            <Node pos="l" depth="3" Seq="0" IVar="-1" Cut="0.0000000000000000e+00" cType="1" nS="3.5606394042968750e+03" nB="3.0582932128906250e+03" nEv="6.6189326171875000e+03" nSuw="1.1170000000000000e+03" nBuw="3.4060000000000000e+03" nEvuw="4.5230000000000000e+03" sepI="2.4855998158454895e-01" sepG="-1.0000000000000000e+00" res="-9.9000000000000000e+01" rms="0.0000000000000000e+00" nType="1" CC="1.0000000000000000e+05"/>
            <Node pos="r" depth="3" Seq="4" IVar="-1" Cut="0.0000000000000000e+00" cType="1" nS="4.1137603759765625e+02" nB="7.5798028564453125e+02" nEv="1.1693563232421875e+03" nSuw="1.8000000000000000e+02" nBuw="5.2200000000000000e+02" nEvuw="7.0200000000000000e+02" sepI="2.2803586721420288e-01" sepG="-1.0000000000000000e+00" res="-9.9000000000000000e+01" rms="0.0000000000000000e+00" nType="-1" CC="1.0000000000000000e+05"/>
          </Node>
          <Node pos="r" depth="2" Seq="2" IVar="-1" Cut="2.5112900137901306e-01" cType="1" nS="1.0188568725585938e+03" nB="1.8955308837890625e+03" nEv="2.9143876953125000e+03" nSuw="4.7300000000000000e+02" nBuw="1.9680000000000000e+03" nEvuw="2.4410000000000000e+03" sepI="2.2737848758697510e-01" sepG="-1.0000000000000000e+00" res="-9.9000000000000000e+01" rms="0.0000000000000000e+00" nType="-1" CC="1.0000000000000000e+05"/>
        </Node>
        <Node pos="r" depth="1" Seq="1" IVar="17" Cut="2.5079228878021240e+00" cType="0" nS="1.4351486816406250e+03" nB="2.8637702636718750e+03" nEv="4.2989189453125000e+03" nSuw="1.8200000000000000e+02" nBuw="6.9900000000000000e+03" nEvuw="7.1720000000000000e+03" sepI="2.2239066660404205e-01" sepG="7.9811737060546875e+01" res="-9.9000000000000000e+01" rms="0.0000000000000000e+00" nType="0" CC="7.9811718661266241e+01">
          <Node pos="l" depth="2" Seq="1" IVar="1" Cut="3.7104171752929688e+01" cType="0" nS="8.4694226074218750e+02" nB="8.3384619140625000e+02" nEv="1.6807884521484375e+03" nSuw="1.2800000000000000e+02" nBuw="2.2340000000000000e+03" nEvuw="2.3620000000000000e+03" sepI="2.4998481571674347e-01" sepG="4.2976196289062500e+01" res="-9.9000000000000000e+01" rms="0.0000000000000000e+00" nType="0" CC="4.2976194078366007e+01">
            <Node pos="l" depth="3" Seq="1" IVar="-1" Cut="0.0000000000000000e+00" cType="1" nS="6.1903338623046875e+02" nB="3.4571127319335938e+02" nEv="9.6474462890625000e+02" nSuw="7.4000000000000000e+01" nBuw="8.1600000000000000e+02" nEvuw="8.9000000000000000e+02" sepI="2.2993381321430206e-01" sepG="-1.0000000000000000e+00" res="-9.9000000000000000e+01" rms="0.0000000000000000e+00" nType="1" CC="1.0000000000000000e+05"/>
            <Node pos="r" depth="3" Seq="5" IVar="-1" Cut="0.0000000000000000e+00" cType="1" nS="2.2790887451171875e+02" nB="4.8813491821289062e+02" nEv="7.1604376220703125e+02" nSuw="5.4000000000000000e+01" nBuw="1.4180000000000000e+03" nEvuw="1.4720000000000000e+03" sepI="2.1698111295700073e-01" sepG="-1.0000000000000000e+00" res="-9.9000000000000000e+01" rms="0.0000000000000000e+00" nType="-1" CC="1.0000000000000000e+05"/>
          </Node>
          <Node pos="r" depth="2" Seq="3" IVar="3" Cut="1.0084597778320312e+02" cType="0" nS="5.8820648193359375e+02" nB="2.0299240722656250e+03" nEv="2.6181306152343750e+03" nSuw="5.4000000000000000e+01" nBuw="4.7560000000000000e+03" nEvuw="4.8100000000000000e+03" sepI="1.7419151961803436e-01" sepG="5.1508445739746094e+01" res="-9.9000000000000000e+01" rms="0.0000000000000000e+00" nType="0" CC="5.1508439958633062e+01">
            <Node pos="l" depth="3" Seq="3" IVar="-1" Cut="0.0000000000000000e+00" cType="1" nS="1.3332174682617188e+02" nB="4.6596195220947266e+01" nEv="1.7991793823242188e+02" nSuw="2.0000000000000000e+00" nBuw="1.0000000000000000e+02" nEvuw="1.0200000000000000e+02" sepI="1.9191217422485352e-01" sepG="-1.0000000000000000e+00" res="-9.9000000000000000e+01" rms="0.0000000000000000e+00" nType="1" CC="1.0000000000000000e+05"/>
            <Node pos="r" depth="3" Seq="7" IVar="-1" Cut="0.0000000000000000e+00" cType="1" nS="4.5488476562500000e+02" nB="1.9833278808593750e+03" nEv="2.4382126464843750e+03" nSuw="5.2000000000000000e+01" nBuw="4.6560000000000000e+03" nEvuw="4.7080000000000000e+03" sepI="1.5175840258598328e-01" sepG="-1.0000000000000000e+00" res="-9.9000000000000000e+01" rms="0.0000000000000000e+00" nType="-1" CC="1.0000000000000000e+05"/>
          </Node>
        </Node>
      </Node>
    </BinaryTree>
    <BinaryTree type="DecisionTree" boostWeight="5.0928865550214852e-01" itree="12">
      <Node pos="s" depth="0" Seq="0" IVar="6" Cut="1.2442679405212402e+00" cType="1" nS="6.2764902343750000e+03" nB="8.7251054687500000e+03" nEv="1.5001595703125000e+04" nSuw="1.9520000000000000e+03" nBuw="1.2886000000000000e+04" nEvuw="1.4838000000000000e+04" sepI="2.4333950877189636e-01" sepG="5.0078327178955078e+01" res="-9.9000000000000000e+01" rms="0.0000000000000000e+00" nType="0" CC="5.6006662246118822e+01">
        <Node pos="l" depth="1" Seq="0" IVar="9" Cut="2.8838393092155457e-01" cType="1" nS="4.8892880859375000e+03" nB="5.8633017578125000e+03" nEv="1.0752589843750000e+04" nSuw="1.4460000000000000e+03" nBuw="9.2320000000000000e+03" nEvuw="1.0678000000000000e+04" sepI="2.4794863164424896e-01" sepG="6.1935012817382812e+01" res="-9.9000000000000000e+01" rms="0.0000000000000000e+00" nType="0" CC="6.1935049315986817e+01">
          <Node pos="l" depth="2" Seq="0" IVar="1" Cut="2.5043609619140625e+01" cType="0" nS="6.8638592529296875e+02" nB="3.0411172485351562e+02" nEv="9.9049768066406250e+02" nSuw="1.5900000000000000e+02" nBuw="4.6200000000000000e+02" nEvuw="6.2100000000000000e+02" sepI="2.1276228129863739e-01" sepG="3.5436134338378906e+01" res="-9.9000000000000000e+01" rms="0.0000000000000000e+00" nType="0" CC="3.5436135796235675e+01">
            <Node pos="l" depth="3" Seq="0" IVar="-1" Cut="0.0000000000000000e+00" cType="1" nS="6.6169702148437500e+02" nB="2.0321569824218750e+02" nEv="8.6491278076171875e+02" nSuw="1.4400000000000000e+02" nBuw="3.8200000000000000e+02" nEvuw="5.2600000000000000e+02" sepI="1.7975123226642609e-01" sepG="-1.0000000000000000e+00" res="-9.9000000000000000e+01" rms="0.0000000000000000e+00" nType="1" CC="1.0000000000000000e+05"/>
            <Node pos="r" depth="3" Seq="4" IVar="-1" Cut="0.0000000000000000e+00" cType="1" nS="2.4688898086547852e+01" nB="1.0089601898193359e+02" nEv="1.2558492279052734e+02" nSuw="1.5000000000000000e+01" nBuw="8.0000000000000000e+01" nEvuw="9.5000000000000000e+01" sepI="1.5794314444065094e-01" sepG="-1.0000000000000000e+00" res="-9.9000000000000000e+01" rms="0.0000000000000000e+00" nType="-1" CC="1.0000000000000000e+05"/>
          </Node>
          <Node pos="r" depth="2" Seq="2" IVar="17" Cut="5.3776268959045410e+00" cType="0" nS="4.2029018554687500e+03" nB="5.5591899414062500e+03" nEv="9.7620917968750000e+03" nSuw="1.2870000000000000e+03" nBuw="8.7700000000000000e+03" nEvuw="1.0057000000000000e+04" sepI="2.4517433345317841e-01" sepG="4.2720085144042969e+01" res="-9.9000000000000000e+01" rms="0.0000000000000000e+00" nType="0" CC="4.2720069185289503e+01">
            <Node pos="l" depth="3" Seq="2" IVar="-1" Cut="0.0000000000000000e+00" cType="1" nS="2.5711187744140625e+02" nB="7.0106582641601562e+01" nEv="3.2721847534179688e+02" nSuw="2.0500000000000000e+02" nBuw="4.1300000000000000e+02" nEvuw="6.1800000000000000e+02" sepI="1.6834698617458344e-01" sepG="-1.0000000000000000e+00" res="-9.9000000000000000e+01" rms="0.0000000000000000e+00" nType="1" CC="1.0000000000000000e+05"/>
            <Node pos="r" depth="3" Seq="6" IVar="-1" Cut="0.0000000000000000e+00" cType="1" nS="3.9457902832031250e+03" nB="5.4890834960937500e+03" nEv="9.4348730468750000e+03" nSuw="1.0820000000000000e+03" nBuw="8.3570000000000000e+03" nEvuw="9.4390000000000000e+03" sepI="2.4331094324588776e-01" sepG="-1.0000000000000000e+00" res="-9.9000000000000000e+01" rms="0.0000000000000000e+00" nType="-1" CC="1.0000000000000000e+05"/>
          </Node>
        </Node>
        <Node pos="r" depth="1" Seq="1" IVar="-1" Cut="2.5806686878204346e+00" cType="1" nS="1.3872020263671875e+03" nB="2.8618039550781250e+03" nEv="4.2490058593750000e+03" nSuw="5.0600000000000000e+02" nBuw="3.6540000000000000e+03" nEvuw="4.1600000000000000e+03" sepI="2.1988971531391144e-01" sepG="-1.0000000000000000e+00" res="-9.9000000000000000e+01" rms="0.0000000000000000e+00" nType="-1" CC="1.0000000000000000e+05"/>
      </Node>
    </BinaryTree>
    <BinaryTree type="DecisionTree" boostWeight="4.0689606720811056e-01" itree="13">
      <Node pos="s" depth="0" Seq="0" IVar="15" Cut="2.8979843139648438e+02" cType="1" nS="7.8721889648437500e+03" nB="7.1294067382812500e+03" nEv="1.5001595703125000e+04" nSuw="1.9520000000000000e+03" nBuw="1.2886000000000000e+04" nEvuw="1.4838000000000000e+04" sepI="2.4938710033893585e-01" sepG="3.9278747558593750e+01" res="-9.9000000000000000e+01" rms="0.0000000000000000e+00" nType="0" CC="4.7437129099456193e+01">
        <Node pos="l" depth="1" Seq="0" IVar="15" Cut="2.3349620056152344e+02" cType="0" nS="7.8473515625000000e+03" nB="6.9290297851562500e+03" nEv="1.4776381835937500e+04" nSuw="1.9380000000000000e+03" nBuw="1.1959000000000000e+04" nEvuw="1.3897000000000000e+04" sepI="2.4903440475463867e-01" sepG="4.7634910583496094e+01" res="-9.9000000000000000e+01" rms="0.0000000000000000e+00" nType="0" CC="5.1516241318290668e+01">
          <Node pos="l" depth="2" Seq="0" IVar="3" Cut="8.9121757507324219e+01" cType="0" nS="2.3927810058593750e+03" nB="1.4214564208984375e+03" nEv="3.8142373046875000e+03" nSuw="9.7300000000000000e+02" nBuw="1.8150000000000000e+03" nEvuw="2.7880000000000000e+03" sepI="2.3378737270832062e-01" sepG="4.6117683410644531e+01" res="-9.9000000000000000e+01" rms="0.0000000000000000e+00" nType="0" CC="4.6117691513902173e+01">
            <Node pos="l" depth="3" Seq="0" IVar="-1" Cut="0.0000000000000000e+00" cType="1" nS="2.0908593750000000e+03" nB="9.7683966064453125e+02" nEv="3.0676989746093750e+03" nSuw="7.7300000000000000e+02" nBuw="1.4420000000000000e+03" nEvuw="2.2150000000000000e+03" sepI="2.1703141927719116e-01" sepG="-1.0000000000000000e+00" res="-9.9000000000000000e+01" rms="0.0000000000000000e+00" nType="1" CC="1.0000000000000000e+05"/>
            <Node pos="r" depth="3" Seq="4" IVar="-1" Cut="0.0000000000000000e+00" cType="1" nS="3.0192150878906250e+02" nB="4.4461676025390625e+02" nEv="7.4653826904296875e+02" nSuw="2.0000000000000000e+02" nBuw="3.7300000000000000e+02" nEvuw="5.7300000000000000e+02" sepI="2.4086612462997437e-01" sepG="-1.0000000000000000e+00" res="-9.9000000000000000e+01" rms="0.0000000000000000e+00" nType="-1" CC="1.0000000000000000e+05"/>
          </Node>
          <Node pos="r" depth="2" Seq="2" IVar="3" Cut="9.0557083129882812e+01" cType="1" nS="5.4545708007812500e+03" nB="5.5075737304687500e+03" nEv="1.0962144531250000e+04" nSuw="9.6500000000000000e+02" nBuw="1.0144000000000000e+04" nEvuw="1.1109000000000000e+04" sepI="2.4999415874481201e-01" sepG="5.5397750854492188e+01" res="-9.9000000000000000e+01" rms="0.0000000000000000e+00" nType="0" CC="5.5397796311801358e+01">
            <Node pos="l" depth="3" Seq="2" IVar="-1" Cut="0.0000000000000000e+00" cType="1" nS="3.2088730468750000e+03" nB="2.4574345703125000e+03" nEv="5.6663076171875000e+03" nSuw="5.3300000000000000e+02" nBuw="4.9190000000000000e+03" nEvuw="5.4520000000000000e+03" sepI="2.4560330808162689e-01" sepG="-1.0000000000000000e+00" res="-9.9000000000000000e+01" rms="0.0000000000000000e+00" nType="1" CC="1.0000000000000000e+05"/>
            <Node pos="r" depth="3" Seq="6" IVar="-1" Cut="0.0000000000000000e+00" cType="1" nS="2.2456977539062500e+03" nB="3.0501389160156250e+03" nEv="5.2958369140625000e+03" nSuw="4.3200000000000000e+02" nBuw="5.2250000000000000e+03" nEvuw="5.6570000000000000e+03" sepI="2.4423155188560486e-01" sepG="-1.0000000000000000e+00" res="-9.9000000000000000e+01" rms="0.0000000000000000e+00" nType="-1" CC="1.0000000000000000e+05"/>
          </Node>
        </Node>
        <Node pos="r" depth="1" Seq="1" IVar="-1" Cut="1.8015626668930054e+00" cType="1" nS="2.4837366104125977e+01" nB="2.0037649536132812e+02" nEv="2.2521386718750000e+02" nSuw="1.4000000000000000e+01" nBuw="9.2700000000000000e+02" nEvuw="9.4100000000000000e+02" sepI="9.8121024668216705e-02" sepG="-1.0000000000000000e+00" res="-9.9000000000000000e+01" rms="0.0000000000000000e+00" nType="-1" CC="5.0861123775189121e+00"/>
      </Node>
    </BinaryTree>
    <BinaryTree type="DecisionTree" boostWeight="2.8684260288738789e-01" itree="14">
      <Node pos="s" depth="0" Seq="0" IVar="3" Cut="8.0285148620605469e+01" cType="0" nS="7.6255761718750000e+03" nB="7.3760195312500000e+03" nEv="1.5001595703125000e+04" nSuw="1.9520000000000000e+03" nBuw="1.2886000000000000e+04" nEvuw="1.4838000000000000e+04" sepI="2.4993081390857697e-01" sepG="3.5297588348388672e+01" res="-9.9000000000000000e+01" rms="0.0000000000000000e+00" nType="0" CC="3.6979722138433623e+01">
        <Node pos="l" depth="1" Seq="0" IVar="6" Cut="1.2442679405212402e+00" cType="1" nS="7.3990395507812500e+03" nB="6.8430473632812500e+03" nEv="1.4242086914062500e+04" nSuw="1.8880000000000000e+03" nBuw="1.2200000000000000e+04" nEvuw="1.4088000000000000e+04" sepI="2.4961899220943451e-01" sepG="3.8597663879394531e+01" res="-9.9000000000000000e+01" rms="0.0000000000000000e+00" nType="0" CC="3.7820756334253019e+01">
          <Node pos="l" depth="2" Seq="0" IVar="13" Cut="3.4596660614013672e+01" cType="0" nS="5.6353076171875000e+03" nB="4.5686171875000000e+03" nEv="1.0203924804687500e+04" nSuw="1.4000000000000000e+03" nBuw="8.7700000000000000e+03" nEvuw="1.0170000000000000e+04" sepI="2.4726799130439758e-01" sepG="3.7043964385986328e+01" res="-9.9000000000000000e+01" rms="0.0000000000000000e+00" nType="0" CC="3.7044043544268789e+01">
            <Node pos="l" depth="3" Seq="0" IVar="-1" Cut="0.0000000000000000e+00" cType="1" nS="2.8422031250000000e+03" nB="1.7503681640625000e+03" nEv="4.5925712890625000e+03" nSuw="9.0400000000000000e+02" nBuw="3.1710000000000000e+03" nEvuw="4.0750000000000000e+03" sepI="2.3587000370025635e-01" sepG="-1.0000000000000000e+00" res="-9.9000000000000000e+01" rms="0.0000000000000000e+00" nType="1" CC="1.0000000000000000e+05"/>
            <Node pos="r" depth="3" Seq="4" IVar="-1" Cut="0.0000000000000000e+00" cType="1" nS="2.7931044921875000e+03" nB="2.8182487792968750e+03" nEv="5.6113535156250000e+03" nSuw="4.9600000000000000e+02" nBuw="5.5990000000000000e+03" nEvuw="6.0950000000000000e+03" sepI="2.4999497830867767e-01" sepG="-1.0000000000000000e+00" res="-9.9000000000000000e+01" rms="0.0000000000000000e+00" nType="-1" CC="1.0000000000000000e+05"/>
          </Node>
          <Node pos="r" depth="2" Seq="2" IVar="7" Cut="2.5806686878204346e+00" cType="1" nS="1.7637321777343750e+03" nB="2.2744304199218750e+03" nEv="4.0381625976562500e+03" nSuw="4.8800000000000000e+02" nBuw="3.4300000000000000e+03" nEvuw="3.9180000000000000e+03" sepI="2.4600146710872650e-01" sepG="3.1767276763916016e+01" res="-9.9000000000000000e+01" rms="0.0000000000000000e+00" nType="0" CC="3.1767326956716715e+01">
            <Node pos="l" depth="3" Seq="2" IVar="-1" Cut="0.0000000000000000e+00" cType="1" nS="1.3181181640625000e+03" nB="1.3087884521484375e+03" nEv="2.6269067382812500e+03" nSuw="3.9100000000000000e+02" nBuw="7.2000000000000000e+02" nEvuw="1.1110000000000000e+03" sepI="2.4999684095382690e-01" sepG="-1.0000000000000000e+00" res="-9.9000000000000000e+01" rms="0.0000000000000000e+00" nType="1" CC="1.0000000000000000e+05"/>
            <Node pos="r" depth="3" Seq="6" IVar="-1" Cut="0.0000000000000000e+00" cType="1" nS="4.4561401367187500e+02" nB="9.6564184570312500e+02" nEv="1.4112558593750000e+03" nSuw="9.7000000000000000e+01" nBuw="2.7100000000000000e+03" nEvuw="2.8070000000000000e+03" sepI="2.1605454385280609e-01" sepG="-1.0000000000000000e+00" res="-9.9000000000000000e+01" rms="0.0000000000000000e+00" nType="-1" CC="1.0000000000000000e+05"/>
          </Node>
        </Node>
        <Node pos="r" depth="1" Seq="1" IVar="3" Cut="7.3430618286132812e+01" cType="1" nS="2.2653625488281250e+02" nB="5.3297229003906250e+02" nEv="7.5950854492187500e+02" nSuw="6.4000000000000000e+01" nBuw="6.8600000000000000e+02" nEvuw="7.5000000000000000e+02" sepI="2.0930375158786774e-01" sepG="2.6747158050537109e+01" res="-9.9000000000000000e+01" rms="0.0000000000000000e+00" nType="0" CC="2.6747156903306632e+01">
          <Node pos="l" depth="2" Seq="1" IVar="-1" Cut="8.2072776556015015e-01" cType="0" nS="1.4487092590332031e+02" nB="1.1427807617187500e+02" nEv="2.5914898681640625e+02" nSuw="2.5000000000000000e+01" nBuw="1.7600000000000000e+02" nEvuw="2.0100000000000000e+02" sepI="2.4651597440242767e-01" sepG="-1.0000000000000000e+00" res="-9.9000000000000000e+01" rms="0.0000000000000000e+00" nType="1" CC="1.4828133251576332e+01"/>
          <Node pos="r" depth="2" Seq="3" IVar="-1" Cut="3.8511663675308228e-01" cType="1" nS="8.1665328979492188e+01" nB="4.1869421386718750e+02" nEv="5.0035952758789062e+02" nSuw="3.9000000000000000e+01" nBuw="5.1000000000000000e+02" nEvuw="5.4900000000000000e+02" sepI="1.3657471537590027e-01" sepG="-1.0000000000000000e+00" res="-9.9000000000000000e+01" rms="0.0000000000000000e+00" nType="-1" CC="1.6485366851958531e+01"/>
        </Node>
      </Node>
    </BinaryTree>
    <BinaryTree type="DecisionTree" boostWeight="4.3121611660958642e-01" itree="15">
      <Node pos="s" depth="0" Seq="0" IVar="6" Cut="1.2442679405212402e+00" cType="1" nS="7.6385312500000000e+03" nB="7.3630644531250000e+03" nEv="1.5001595703125000e+04" nSuw="1.9520000000000000e+03" nBuw="1.2886000000000000e+04" nEvuw="1.4838000000000000e+04" sepI="2.4991570413112640e-01" sepG="5.6255786895751953e+01" res="-9.9000000000000000e+01" rms="0.0000000000000000e+00" nType="0" CC="5.6255816152246553e+01">
        <Node pos="l" depth="1" Seq="0" IVar="3" Cut="8.1998764038085938e+01" cType="0" nS="5.9173715820312500e+03" nB="4.8945351562500000e+03" nEv="1.0811906250000000e+04" nSuw="1.4460000000000000e+03" nBuw="9.2320000000000000e+03" nEvuw="1.0678000000000000e+04" sepI="2.4776257574558258e-01" sepG="4.4131145477294922e+01" res="-9.9000000000000000e+01" rms="0.0000000000000000e+00" nType="0" CC="4.4131248266351122e+01">
          <Node pos="l" depth="2" Seq="0" IVar="15" Cut="2.6081314086914062e+02" cType="1" nS="5.7256093750000000e+03" nB="4.4357998046875000e+03" nEv="1.0161409179687500e+04" nSuw="1.3880000000000000e+03" nBuw="8.6260000000000000e+03" nEvuw="1.0014000000000000e+04" sepI="2.4597205221652985e-01" sepG="3.0727792739868164e+01" res="-9.9000000000000000e+01" rms="0.0000000000000000e+00" nType="0" CC="3.0727725089032901e+01">
            <Node pos="l" depth="3" Seq="0" IVar="-1" Cut="0.0000000000000000e+00" cType="1" nS="5.5069169921875000e+03" nB="4.0278115234375000e+03" nEv="9.5347285156250000e+03" nSuw="1.2650000000000000e+03" nBuw="7.5110000000000000e+03" nEvuw="8.7760000000000000e+03" sepI="2.4398380517959595e-01" sepG="-1.0000000000000000e+00" res="-9.9000000000000000e+01" rms="0.0000000000000000e+00" nType="1" CC="1.0000000000000000e+05"/>
            <Node pos="r" depth="3" Seq="4" IVar="-1" Cut="0.0000000000000000e+00" cType="1" nS="2.1869281005859375e+02" nB="4.0798822021484375e+02" nEv="6.2668103027343750e+02" nSuw="1.2300000000000000e+02" nBuw="1.1150000000000000e+03" nEvuw="1.2380000000000000e+03" sepI="2.2718989849090576e-01" sepG="-1.0000000000000000e+00" res="-9.9000000000000000e+01" rms="0.0000000000000000e+00" nType="-1" CC="1.0000000000000000e+05"/>
          </Node>
          <Node pos="r" depth="2" Seq="2" IVar="3" Cut="7.3426429748535156e+01" cType="1" nS="1.9176206970214844e+02" nB="4.5873513793945312e+02" nEv="6.5049719238281250e+02" nSuw="5.8000000000000000e+01" nBuw="6.0600000000000000e+02" nEvuw="6.6400000000000000e+02" sepI="2.0789012312889099e-01" sepG="2.8888107299804688e+01" res="-9.9000000000000000e+01" rms="0.0000000000000000e+00" nType="0" CC="2.8888107526903923e+01">
            <Node pos="l" depth="3" Seq="2" IVar="-1" Cut="0.0000000000000000e+00" cType="1" nS="1.3279353332519531e+02" nB="9.5691497802734375e+01" nEv="2.2848503112792969e+02" nSuw="2.2000000000000000e+01" nBuw="1.2400000000000000e+02" nEvuw="1.4600000000000000e+02" sepI="2.4340796470642090e-01" sepG="-1.0000000000000000e+00" res="-9.9000000000000000e+01" rms="0.0000000000000000e+00" nType="1" CC="1.0000000000000000e+05"/>
            <Node pos="r" depth="3" Seq="6" IVar="-1" Cut="0.0000000000000000e+00" cType="1" nS="5.8968544006347656e+01" nB="3.6304364013671875e+02" nEv="4.2201217651367188e+02" nSuw="3.6000000000000000e+01" nBuw="4.8200000000000000e+02" nEvuw="5.1800000000000000e+02" sepI="1.2020686268806458e-01" sepG="-1.0000000000000000e+00" res="-9.9000000000000000e+01" rms="0.0000000000000000e+00" nType="-1" CC="1.0000000000000000e+05"/>
          </Node>
        </Node>
        <Node pos="r" depth="1" Seq="1" IVar="15" Cut="1.9060299682617188e+02" cType="0" nS="1.7211595458984375e+03" nB="2.4685292968750000e+03" nEv="4.1896889648437500e+03" nSuw="5.0600000000000000e+02" nBuw="3.6540000000000000e+03" nEvuw="4.1600000000000000e+03" sepI="2.4204486608505249e-01" sepG="3.0438127517700195e+01" res="-9.9000000000000000e+01" rms="0.0000000000000000e+00" nType="0" CC="3.0837835987454014e+01">
          <Node pos="l" depth="2" Seq="1" IVar="-1" Cut="1.7722049713134766e+01" cType="0" nS="1.6002331542968750e+03" nB="1.9909030761718750e+03" nEv="3.5911362304687500e+03" nSuw="4.8400000000000000e+02" nBuw="2.6390000000000000e+03" nEvuw="3.1230000000000000e+03" sepI="2.4704132974147797e-01" sepG="-1.0000000000000000e+00" res="-9.9000000000000000e+01" rms="0.0000000000000000e+00" nType="-1" CC="2.6284528589792899e+01"/>
          <Node pos="r" depth="2" Seq="3" IVar="4" Cut="-2.5942561626434326e+00" cType="1" nS="1.2092642211914062e+02" nB="4.7762631225585938e+02" nEv="5.9855273437500000e+02" nSuw="2.2000000000000000e+01" nBuw="1.0150000000000000e+03" nEvuw="1.0370000000000000e+03" sepI="1.6121469438076019e-01" sepG="3.1237558364868164e+01" res="-9.9000000000000000e+01" rms="0.0000000000000000e+00" nType="0" CC="3.1237562888605396e+01">
            <Node pos="l" depth="3" Seq="3" IVar="-1" Cut="0.0000000000000000e+00" cType="1" nS="5.1622528076171875e+01" nB="5.3189215660095215e+00" nEv="5.6941448211669922e+01" nSuw="2.0000000000000000e+00" nBuw="5.3000000000000000e+01" nEvuw="5.5000000000000000e+01" sepI="8.4684871137142181e-02" sepG="-1.0000000000000000e+00" res="-9.9000000000000000e+01" rms="0.0000000000000000e+00" nType="1" CC="1.0000000000000000e+05"/>
            <Node pos="r" depth="3" Seq="7" IVar="-1" Cut="0.0000000000000000e+00" cType="1" nS="6.9303894042968750e+01" nB="4.7230737304687500e+02" nEv="5.4161126708984375e+02" nSuw="2.0000000000000000e+01" nBuw="9.6200000000000000e+02" nEvuw="9.8200000000000000e+02" sepI="1.1158529669046402e-01" sepG="-1.0000000000000000e+00" res="-9.9000000000000000e+01" rms="0.0000000000000000e+00" nType="-1" CC="1.0000000000000000e+05"/>
          </Node>
        </Node>
      </Node>
    </BinaryTree>
    <BinaryTree type="DecisionTree" boostWeight="2.4318315589888825e-01" itree="16">
      <Node pos="s" depth="0" Seq="0" IVar="9" Cut="1.9944788515567780e-01" cType="0" nS="6.9672070312500000e+03" nB="8.0343881835937500e+03" nEv="1.5001595703125000e+04" nSuw="1.9520000000000000e+03" nBuw="1.2886000000000000e+04" nEvuw="1.4838000000000000e+04" sepI="2.4873484671115875e-01" sepG="2.8942779541015625e+01" res="-9.9000000000000000e+01" rms="0.0000000000000000e+00" nType="0" CC="3.2196516922386458e+01">
        <Node pos="l" depth="1" Seq="0" IVar="14" Cut="1.4961208105087280e+00" cType="0" nS="6.9349956054687500e+03" nB="7.8150776367187500e+03" nEv="1.4750073242187500e+04" nSuw="1.9270000000000000e+03" nBuw="1.2742000000000000e+04" nEvuw="1.4669000000000000e+04" sepI="2.4910998344421387e-01" sepG="2.9849689483642578e+01" res="-9.9000000000000000e+01" rms="0.0000000000000000e+00" nType="0" CC="3.3823445033864573e+01">
          <Node pos="l" depth="2" Seq="0" IVar="0" Cut="1.1686618041992188e+02" cType="1" nS="4.5999262695312500e+03" nB="4.4975493164062500e+03" nEv="9.0974755859375000e+03" nSuw="1.4590000000000000e+03" nBuw="7.9090000000000000e+03" nEvuw="9.3680000000000000e+03" sepI="2.4996833503246307e-01" sepG="3.7797142028808594e+01" res="-9.9000000000000000e+01" rms="0.0000000000000000e+00" nType="0" CC="3.7797068368786313e+01">
            <Node pos="l" depth="3" Seq="0" IVar="-1" Cut="0.0000000000000000e+00" cType="1" nS="4.4645141601562500e+03" nB="4.0905390625000000e+03" nEv="8.5550537109375000e+03" nSuw="1.3890000000000000e+03" nBuw="7.0250000000000000e+03" nEvuw="8.4140000000000000e+03" sepI="2.4952226877212524e-01" sepG="-1.0000000000000000e+00" res="-9.9000000000000000e+01" rms="0.0000000000000000e+00" nType="1" CC="1.0000000000000000e+05"/>
            <Node pos="r" depth="3" Seq="4" IVar="-1" Cut="0.0000000000000000e+00" cType="1" nS="1.3541224670410156e+02" nB="4.0701037597656250e+02" nEv="5.4242260742187500e+02" nSuw="7.0000000000000000e+01" nBuw="8.8400000000000000e+02" nEvuw="9.5400000000000000e+02" sepI="1.8732158839702606e-01" sepG="-1.0000000000000000e+00" res="-9.9000000000000000e+01" rms="0.0000000000000000e+00" nType="-1" CC="1.0000000000000000e+05"/>
          </Node>
          <Node pos="r" depth="2" Seq="2" IVar="-1" Cut="3.1333242416381836e+01" cType="0" nS="2.3350690917968750e+03" nB="3.3175283203125000e+03" nEv="5.6525971679687500e+03" nSuw="4.6800000000000000e+02" nBuw="4.8330000000000000e+03" nEvuw="5.3010000000000000e+03" sepI="2.4244780838489532e-01" sepG="-1.0000000000000000e+00" res="-9.9000000000000000e+01" rms="0.0000000000000000e+00" nType="-1" CC="1.0000000000000000e+05"/>
        </Node>
        <Node pos="r" depth="1" Seq="1" IVar="-1" Cut="1.7142857313156128e+00" cType="1" nS="3.2211540222167969e+01" nB="2.1931062316894531e+02" nEv="2.5152215576171875e+02" nSuw="2.5000000000000000e+01" nBuw="1.4400000000000000e+02" nEvuw="1.6900000000000000e+02" sepI="1.1166540533304214e-01" sepG="-1.0000000000000000e+00" res="-9.9000000000000000e+01" rms="0.0000000000000000e+00" nType="-1" CC="1.0000000000000000e+05"/>
      </Node>
    </BinaryTree>
    <BinaryTree type="DecisionTree" boostWeight="3.7212599276971653e-01" itree="17">
      <Node pos="s" depth="0" Seq="0" IVar="1" Cut="1.2198847198486328e+02" cType="0" nS="6.8298232421875000e+03" nB="8.1717719726562500e+03" nEv="1.5001595703125000e+04" nSuw="1.9520000000000000e+03" nBuw="1.2886000000000000e+04" nEvuw="1.4838000000000000e+04" sepI="2.4799950420856476e-01" sepG="3.8363590240478516e+01" res="-9.9000000000000000e+01" rms="0.0000000000000000e+00" nType="0" CC="4.2234275729781984e+01">
        <Node pos="l" depth="1" Seq="0" IVar="-1" Cut="0.0000000000000000e+00" cType="1" nS="1.9729136657714844e+02" nB="3.1742567062377930e+01" nEv="2.2903393554687500e+02" nSuw="1.0000000000000000e+01" nBuw="4.1000000000000000e+01" nEvuw="5.1000000000000000e+01" sepI="1.1938519030809402e-01" sepG="-1.0000000000000000e+00" res="-9.9000000000000000e+01" rms="0.0000000000000000e+00" nType="1" CC="1.0000000000000000e+05"/>
        <Node pos="r" depth="1" Seq="1" IVar="1" Cut="3.4520587921142578e+01" cType="0" nS="6.6325322265625000e+03" nB="8.1400292968750000e+03" nEv="1.4772561523437500e+04" nSuw="1.9420000000000000e+03" nBuw="1.2845000000000000e+04" nEvuw="1.4787000000000000e+04" sepI="2.4739660322666168e-01" sepG="3.7754543304443359e+01" res="-9.9000000000000000e+01" rms="0.0000000000000000e+00" nType="0" CC="4.4169726590200298e+01">
          <Node pos="l" depth="2" Seq="1" IVar="17" Cut="1.2124999761581421e+00" cType="0" nS="4.2445327148437500e+03" nB="4.3895336914062500e+03" nEv="8.6340664062500000e+03" nSuw="1.1560000000000000e+03" nBuw="6.3200000000000000e+03" nEvuw="7.4760000000000000e+03" sepI="2.4992948770523071e-01" sepG="5.0584812164306641e+01" res="-9.9000000000000000e+01" rms="0.0000000000000000e+00" nType="0" CC="5.0584888323781342e+01">
            <Node pos="l" depth="3" Seq="1" IVar="-1" Cut="0.0000000000000000e+00" cType="1" nS="3.0215778808593750e+03" nB="2.4783652343750000e+03" nEv="5.4999433593750000e+03" nSuw="9.1900000000000000e+02" nBuw="3.6740000000000000e+03" nEvuw="4.5930000000000000e+03" sepI="2.4756127595901489e-01" sepG="-1.0000000000000000e+00" res="-9.9000000000000000e+01" rms="0.0000000000000000e+00" nType="1" CC="1.0000000000000000e+05"/>
            <Node pos="r" depth="3" Seq="5" IVar="-1" Cut="0.0000000000000000e+00" cType="1" nS="1.2229547119140625e+03" nB="1.9111682128906250e+03" nEv="3.1341230468750000e+03" nSuw="2.3700000000000000e+02" nBuw="2.6460000000000000e+03" nEvuw="2.8830000000000000e+03" sepI="2.3794534802436829e-01" sepG="-1.0000000000000000e+00" res="-9.9000000000000000e+01" rms="0.0000000000000000e+00" nType="-1" CC="1.0000000000000000e+05"/>
          </Node>
          <Node pos="r" depth="2" Seq="3" IVar="-1" Cut="9.1672027111053467e-01" cType="0" nS="2.3879995117187500e+03" nB="3.7504958496093750e+03" nEv="6.1384951171875000e+03" nSuw="7.8600000000000000e+02" nBuw="6.5250000000000000e+03" nEvuw="7.3110000000000000e+03" sepI="2.3768351972103119e-01" sepG="-1.0000000000000000e+00" res="-9.9000000000000000e+01" rms="0.0000000000000000e+00" nType="-1" CC="1.0000000000000000e+05"/>
        </Node>
      </Node>
    </BinaryTree>
    <BinaryTree type="DecisionTree" boostWeight="1.6334659494805184e-01" itree="18">
      <Node pos="s" depth="0" Seq="0" IVar="16" Cut="7.6666665077209473e+00" cType="1" nS="7.1436572265625000e+03" nB="7.8579384765625000e+03" nEv="1.5001595703125000e+04" nSuw="1.9520000000000000e+03" nBuw="1.2886000000000000e+04" nEvuw="1.4838000000000000e+04" sepI="2.4943323433399200e-01" sepG="2.9778930664062500e+01" res="-9.9000000000000000e+01" rms="0.0000000000000000e+00" nType="0" CC="3.2596742633377744e+01">
        <Node pos="l" depth="1" Seq="0" IVar="9" Cut="1.9944788515567780e-01" cType="0" nS="6.9442763671875000e+03" nB="7.3389125976562500e+03" nEv="1.4283188476562500e+04" nSuw="1.7410000000000000e+03" nBuw="9.6830000000000000e+03" nEvuw="1.1424000000000000e+04" sepI="2.4980916082859039e-01" sepG="2.5427511215209961e+01" res="-9.9000000000000000e+01" rms="0.0000000000000000e+00" nType="0" CC="2.5427613952498177e+01">
          <Node pos="l" depth="2" Seq="0" IVar="9" Cut="2.3819378018379211e-01" cType="1" nS="6.9117070312500000e+03" nB="7.1520317382812500e+03" nEv="1.4063738281250000e+04" nSuw="1.7200000000000000e+03" nBuw="9.5720000000000000e+03" nEvuw="1.1292000000000000e+04" sepI="2.4992699921131134e-01" sepG="2.3760200500488281e+01" res="-9.9000000000000000e+01" rms="0.0000000000000000e+00" nType="0" CC="2.3760271576140440e+01">
            <Node pos="l" depth="3" Seq="0" IVar="-1" Cut="0.0000000000000000e+00" cType="1" nS="2.2973027038574219e+02" nB="6.8312324523925781e+01" nEv="2.9804260253906250e+02" nSuw="6.1000000000000000e+01" nBuw="1.1900000000000000e+02" nEvuw="1.8000000000000000e+02" sepI="1.7666910588741302e-01" sepG="-1.0000000000000000e+00" res="-9.9000000000000000e+01" rms="0.0000000000000000e+00" nType="1" CC="1.0000000000000000e+05"/>
            <Node pos="r" depth="3" Seq="4" IVar="-1" Cut="0.0000000000000000e+00" cType="1" nS="6.6819765625000000e+03" nB="7.0837197265625000e+03" nEv="1.3765696289062500e+04" nSuw="1.6590000000000000e+03" nBuw="9.4530000000000000e+03" nEvuw="1.1112000000000000e+04" sepI="2.4978706240653992e-01" sepG="-1.0000000000000000e+00" res="-9.9000000000000000e+01" rms="0.0000000000000000e+00" nType="-1" CC="1.0000000000000000e+05"/>
          </Node>
          <Node pos="r" depth="2" Seq="2" IVar="-1" Cut="2.3333332538604736e+00" cType="1" nS="3.2569614410400391e+01" nB="1.8688046264648438e+02" nEv="2.1945007324218750e+02" nSuw="2.1000000000000000e+01" nBuw="1.1100000000000000e+02" nEvuw="1.3200000000000000e+02" sepI="1.2638777494430542e-01" sepG="-1.0000000000000000e+00" res="-9.9000000000000000e+01" rms="0.0000000000000000e+00" nType="-1" CC="1.0000000000000000e+05"/>
        </Node>
        <Node pos="r" depth="1" Seq="1" IVar="17" Cut="1.0632083415985107e+00" cType="1" nS="1.9938073730468750e+02" nB="5.1902587890625000e+02" nEv="7.1840661621093750e+02" nSuw="2.1100000000000000e+02" nBuw="3.2030000000000000e+03" nEvuw="3.4140000000000000e+03" sepI="2.0050793886184692e-01" sepG="3.5414627075195312e+01" res="-9.9000000000000000e+01" rms="0.0000000000000000e+00" nType="0" CC="3.5414628010338674e+01">
          <Node pos="l" depth="2" Seq="1" IVar="7" Cut="2.4652481079101562e+00" cType="1" nS="1.2332142639160156e+02" nB="6.7284614562988281e+01" nEv="1.9060603332519531e+02" nSuw="5.8000000000000000e+01" nBuw="8.9100000000000000e+02" nEvuw="9.4900000000000000e+02" sepI="2.2839204967021942e-01" sepG="1.0339121818542480e+01" res="-9.9000000000000000e+01" rms="0.0000000000000000e+00" nType="0" CC="1.0339122092789289e+01">
            <Node pos="l" depth="3" Seq="1" IVar="-1" Cut="0.0000000000000000e+00" cType="1" nS="8.8566978454589844e+01" nB="1.4118906974792480e+01" nEv="1.0268588256835938e+02" nSuw="4.5000000000000000e+01" nBuw="2.2600000000000000e+02" nEvuw="2.7100000000000000e+02" sepI="1.1859091371297836e-01" sepG="-1.0000000000000000e+00" res="-9.9000000000000000e+01" rms="0.0000000000000000e+00" nType="1" CC="1.0000000000000000e+05"/>
            <Node pos="r" depth="3" Seq="5" IVar="-1" Cut="0.0000000000000000e+00" cType="1" nS="3.4754451751708984e+01" nB="5.3165702819824219e+01" nEv="8.7920158386230469e+01" nSuw="1.3000000000000000e+01" nBuw="6.6500000000000000e+02" nEvuw="6.7800000000000000e+02" sepI="2.3903699219226837e-01" sepG="-1.0000000000000000e+00" res="-9.9000000000000000e+01" rms="0.0000000000000000e+00" nType="-1" CC="1.0000000000000000e+05"/>
          </Node>
          <Node pos="r" depth="2" Seq="3" IVar="13" Cut="7.7969093322753906e+01" cType="0" nS="7.6059310913085938e+01" nB="4.5174127197265625e+02" nEv="5.2780059814453125e+02" nSuw="1.5300000000000000e+02" nBuw="2.3120000000000000e+03" nEvuw="2.4650000000000000e+03" sepI="1.2333957105875015e-01" sepG="1.3822535514831543e+01" res="-9.9000000000000000e+01" rms="0.0000000000000000e+00" nType="0" CC="1.3822532559172892e+01">
            <Node pos="l" depth="3" Seq="3" IVar="-1" Cut="0.0000000000000000e+00" cType="1" nS="2.3839765548706055e+01" nB="5.5899872779846191e+00" nEv="2.9429754257202148e+01" nSuw="2.6000000000000000e+01" nBuw="5.3000000000000000e+01" nEvuw="7.9000000000000000e+01" sepI="1.5386490523815155e-01" sepG="-1.0000000000000000e+00" res="-9.9000000000000000e+01" rms="0.0000000000000000e+00" nType="1" CC="1.0000000000000000e+05"/>
            <Node pos="r" depth="3" Seq="7" IVar="-1" Cut="0.0000000000000000e+00" cType="1" nS="5.2219547271728516e+01" nB="4.4615130615234375e+02" nEv="4.9837084960937500e+02" nSuw="1.2700000000000000e+02" nBuw="2.2590000000000000e+03" nEvuw="2.3860000000000000e+03" sepI="9.3801550567150116e-02" sepG="-1.0000000000000000e+00" res="-9.9000000000000000e+01" rms="0.0000000000000000e+00" nType="-1" CC="1.0000000000000000e+05"/>
          </Node>
        </Node>
      </Node>
    </BinaryTree>
    <BinaryTree type="DecisionTree" boostWeight="1.9599176698023546e-01" itree="19">
      <Node pos="s" depth="0" Seq="0" IVar="16" Cut="7.6666665077209473e+00" cType="1" nS="7.7213237304687500e+03" nB="7.2802719726562500e+03" nEv="1.5001595703125000e+04" nSuw="1.9520000000000000e+03" nBuw="1.2886000000000000e+04" nEvuw="1.4838000000000000e+04" sepI="2.4978390336036682e-01" sepG="3.5633964538574219e+01" res="-9.9000000000000000e+01" rms="0.0000000000000000e+00" nType="0" CC="3.5633958222183992e+01">
        <Node pos="l" depth="1" Seq="0" IVar="-1" Cut="1.9944788515567780e-01" cType="0" nS="7.5226962890625000e+03" nB="6.7971215820312500e+03" nEv="1.4319818359375000e+04" nSuw="1.7410000000000000e+03" nBuw="9.6830000000000000e+03" nEvuw="1.1424000000000000e+04" sepI="2.4935816228389740e-01" sepG="-1.0000000000000000e+00" res="-9.9000000000000000e+01" rms="0.0000000000000000e+00" nType="1" CC="2.6643313863472940e+01"/>
        <Node pos="r" depth="1" Seq="1" IVar="17" Cut="1.0632083415985107e+00" cType="1" nS="1.9862724304199219e+02" nB="4.8315017700195312e+02" nEv="6.8177740478515625e+02" nSuw="2.1100000000000000e+02" nBuw="3.2030000000000000e+03" nEvuw="3.4140000000000000e+03" sepI="2.0645990967750549e-01" sepG="3.2443569183349609e+01" res="-9.9000000000000000e+01" rms="0.0000000000000000e+00" nType="0" CC="3.2443569817601087e+01">
          <Node pos="l" depth="2" Seq="1" IVar="-1" Cut="4.2826980590820312e+01" cType="0" nS="1.1973126220703125e+02" nB="6.4531150817871094e+01" nEv="1.8426240539550781e+02" nSuw="5.8000000000000000e+01" nBuw="8.9100000000000000e+02" nEvuw="9.4900000000000000e+02" sepI="2.2756394743919373e-01" sepG="-1.0000000000000000e+00" res="-9.9000000000000000e+01" rms="0.0000000000000000e+00" nType="1" CC="7.7309265823262763e+00"/>
          <Node pos="r" depth="2" Seq="3" IVar="-1" Cut="7.7969093322753906e+01" cType="0" nS="7.8895988464355469e+01" nB="4.1861901855468750e+02" nEv="4.9751501464843750e+02" nSuw="1.5300000000000000e+02" nBuw="2.3120000000000000e+03" nEvuw="2.4650000000000000e+03" sepI="1.3343246281147003e-01" sepG="-1.0000000000000000e+00" res="-9.9000000000000000e+01" rms="0.0000000000000000e+00" nType="-1" CC="1.1648906610150632e+01"/>
        </Node>
      </Node>
    </BinaryTree>
    <BinaryTree type="DecisionTree" boostWeight="1.7580982238442028e-01" itree="20">
      <Node pos="s" depth="0" Seq="0" IVar="1" Cut="1.2198847198486328e+02" cType="0" nS="7.0542402343750000e+03" nB="7.9473554687500000e+03" nEv="1.5001595703125000e+04" nSuw="1.9520000000000000e+03" nBuw="1.2886000000000000e+04" nEvuw="1.4838000000000000e+04" sepI="2.4911390244960785e-01" sepG="2.3476728439331055e+01" res="-9.9000000000000000e+01" rms="0.0000000000000000e+00" nType="0" CC="2.9316641427775419e+01">
        <Node pos="l" depth="1" Seq="0" IVar="-1" Cut="0.0000000000000000e+00" cType="1" nS="1.6551451110839844e+02" nB="3.9829284667968750e+01" nEv="2.0534379577636719e+02" nSuw="1.0000000000000000e+01" nBuw="4.1000000000000000e+01" nEvuw="5.1000000000000000e+01" sepI="1.5634191036224365e-01" sepG="-1.0000000000000000e+00" res="-9.9000000000000000e+01" rms="0.0000000000000000e+00" nType="1" CC="1.0000000000000000e+05"/>
        <Node pos="r" depth="1" Seq="1" IVar="0" Cut="1.6432620239257812e+02" cType="1" nS="6.8887255859375000e+03" nB="7.9075258789062500e+03" nEv="1.4796251953125000e+04" nSuw="1.9420000000000000e+03" nBuw="1.2845000000000000e+04" nEvuw="1.4787000000000000e+04" sepI="2.4881473183631897e-01" sepG="3.0512601852416992e+01" res="-9.9000000000000000e+01" rms="0.0000000000000000e+00" nType="0" CC="3.2236528713569896e+01">
          <Node pos="l" depth="2" Seq="1" IVar="0" Cut="6.2231945037841797e+01" cType="0" nS="6.7968061523437500e+03" nB="7.5559165039062500e+03" nEv="1.4352722656250000e+04" nSuw="1.9070000000000000e+03" nBuw="1.2369000000000000e+04" nEvuw="1.4276000000000000e+04" sepI="2.4930067360401154e-01" sepG="3.3960529327392578e+01" res="-9.9000000000000000e+01" rms="0.0000000000000000e+00" nType="0" CC="3.3960597321922251e+01">
            <Node pos="l" depth="3" Seq="1" IVar="-1" Cut="0.0000000000000000e+00" cType="1" nS="5.2277509765625000e+03" nB="5.1519877929687500e+03" nEv="1.0379738281250000e+04" nSuw="1.3290000000000000e+03" nBuw="7.6510000000000000e+03" nEvuw="8.9800000000000000e+03" sepI="2.4998667836189270e-01" sepG="-1.0000000000000000e+00" res="-9.9000000000000000e+01" rms="0.0000000000000000e+00" nType="1" CC="1.0000000000000000e+05"/>
            <Node pos="r" depth="3" Seq="5" IVar="-1" Cut="0.0000000000000000e+00" cType="1" nS="1.5690554199218750e+03" nB="2.4039284667968750e+03" nEv="3.9729838867187500e+03" nSuw="5.7800000000000000e+02" nBuw="4.7180000000000000e+03" nEvuw="5.2960000000000000e+03" sepI="2.3896054923534393e-01" sepG="-1.0000000000000000e+00" res="-9.9000000000000000e+01" rms="0.0000000000000000e+00" nType="-1" CC="1.0000000000000000e+05"/>
          </Node>
          <Node pos="r" depth="2" Seq="3" IVar="3" Cut="9.2738388061523438e+01" cType="0" nS="9.1919296264648438e+01" nB="3.5160971069335938e+02" nEv="4.4352902221679688e+02" nSuw="3.5000000000000000e+01" nBuw="4.7600000000000000e+02" nEvuw="5.1100000000000000e+02" sepI="1.6429467499256134e-01" sepG="1.9296745300292969e+01" res="-9.9000000000000000e+01" rms="0.0000000000000000e+00" nType="0" CC="1.9296746888531629e+01">
            <Node pos="l" depth="3" Seq="3" IVar="-1" Cut="0.0000000000000000e+00" cType="1" nS="6.7842506408691406e+01" nB="5.8184467315673828e+01" nEv="1.2602697753906250e+02" nSuw="1.4000000000000000e+01" nBuw="1.6600000000000000e+02" nEvuw="1.8000000000000000e+02" sepI="2.4853177368640900e-01" sepG="-1.0000000000000000e+00" res="-9.9000000000000000e+01" rms="0.0000000000000000e+00" nType="1" CC="1.0000000000000000e+05"/>
            <Node pos="r" depth="3" Seq="7" IVar="-1" Cut="0.0000000000000000e+00" cType="1" nS="2.4076791763305664e+01" nB="2.9342523193359375e+02" nEv="3.1750204467773438e+02" nSuw="2.1000000000000000e+01" nBuw="3.1000000000000000e+02" nEvuw="3.3100000000000000e+02" sepI="7.0081442594528198e-02" sepG="-1.0000000000000000e+00" res="-9.9000000000000000e+01" rms="0.0000000000000000e+00" nType="-1" CC="1.0000000000000000e+05"/>
          </Node>
        </Node>
      </Node>
    </BinaryTree>
    <BinaryTree type="DecisionTree" boostWeight="3.8249601528781429e-01" itree="21">
      <Node pos="s" depth="0" Seq="0" IVar="11" Cut="1.2466031312942505e+00" cType="0" nS="6.7671225585937500e+03" nB="8.2344736328125000e+03" nEv="1.5001595703125000e+04" nSuw="1.9520000000000000e+03" nBuw="1.2886000000000000e+04" nEvuw="1.4838000000000000e+04" sepI="2.4760815501213074e-01" sepG="2.8904150009155273e+01" res="-9.9000000000000000e+01" rms="0.0000000000000000e+00" nType="0" CC="4.9204469577299278e+01">
        <Node pos="l" depth="1" Seq="0" IVar="3" Cut="8.6933097839355469e+01" cType="0" nS="1.6374013671875000e+03" nB="1.4054606933593750e+03" nEv="3.0428620605468750e+03" nSuw="7.5200000000000000e+02" nBuw="2.6360000000000000e+03" nEvuw="3.3880000000000000e+03" sepI="2.4854744970798492e-01" sepG="6.9504653930664062e+01" res="-9.9000000000000000e+01" rms="0.0000000000000000e+00" nType="0" CC="6.9504651137920291e+01">
          <Node pos="l" depth="2" Seq="0" IVar="-1" Cut="7.3504561185836792e-01" cType="0" nS="1.4832854003906250e+03" nB="9.2621276855468750e+02" nEv="2.4094982910156250e+03" nSuw="6.5600000000000000e+02" nBuw="2.1420000000000000e+03" nEvuw="2.7980000000000000e+03" sepI="2.3663680255413055e-01" sepG="-1.0000000000000000e+00" res="-9.9000000000000000e+01" rms="0.0000000000000000e+00" nType="1" CC="1.0000000000000000e+05"/>
          <Node pos="r" depth="2" Seq="2" IVar="-1" Cut="1.0000000000000000e+00" cType="1" nS="1.5411592102050781e+02" nB="4.7924789428710938e+02" nEv="6.3336383056640625e+02" nSuw="9.6000000000000000e+01" nBuw="4.9400000000000000e+02" nEvuw="5.9000000000000000e+02" sepI="1.8412010371685028e-01" sepG="-1.0000000000000000e+00" res="-9.9000000000000000e+01" rms="0.0000000000000000e+00" nType="-1" CC="1.0000000000000000e+05"/>
        </Node>
        <Node pos="r" depth="1" Seq="1" IVar="9" Cut="9.1102701425552368e-01" cType="1" nS="5.1297211914062500e+03" nB="6.8290126953125000e+03" nEv="1.1958733398437500e+04" nSuw="1.2000000000000000e+03" nBuw="1.0250000000000000e+04" nEvuw="1.1450000000000000e+04" sepI="2.4495215713977814e-01" sepG="3.1066417694091797e+01" res="-9.9000000000000000e+01" rms="0.0000000000000000e+00" nType="0" CC="3.1066413362070307e+01">
          <Node pos="l" depth="2" Seq="1" IVar="1" Cut="1.2199140930175781e+02" cType="0" nS="4.5774829101562500e+03" nB="5.5863261718750000e+03" nEv="1.0163808593750000e+04" nSuw="1.0950000000000000e+03" nBuw="7.6690000000000000e+03" nEvuw="8.7640000000000000e+03" sepI="2.4753694236278534e-01" sepG="2.9745689392089844e+01" res="-9.9000000000000000e+01" rms="0.0000000000000000e+00" nType="0" CC="2.9745799212621023e+01">
