<?xml version="1.0"?>
<MethodSetup Method="BDT::BDT">
  <GeneralInfo>
    <Info name="TMVA Release" value="4.0.7 [262151]"/>
    <Info name="ROOT Release" value="5.27/06 [334598]"/>
    <Info name="Creator" value="andreypz"/>
    <Info name="Date" value="Tue Sep  4 22:14:19 2012"/>
    <Info name="Host" value="Linux lxbuild168.cern.ch 2.6.18-274.12.1.el5 #1 SMP Wed Nov 30 08:57:58 CET 2011 x86_64 x86_64 x86_64 GNU/Linux"/>
    <Info name="Dir" value="/uscms_data/d2/andreypz/cmssw/higgs2/CMSSW_4_4_4/src/NWU/Higgs/mva"/>
    <Info name="Training events" value="28384"/>
    <Info name="TrainingTime" value="25.5528"/>
    <Info name="AnalysisType" value="Classification"/>
  </GeneralInfo>
  <Options>
    <Option name="V" modified="Yes">False</Option>
    <Option name="VerbosityLevel" modified="No">Default</Option>
    <Option name="VarTransform" modified="No">None</Option>
    <Option name="H" modified="Yes">False</Option>
    <Option name="CreateMVAPdfs" modified="No">False</Option>
    <Option name="IgnoreNegWeightsInTraining" modified="No">False</Option>
    <Option name="NTrees" modified="Yes">400</Option>
    <Option name="BoostType" modified="Yes">AdaBoost</Option>
    <Option name="AdaBoostR2Loss" modified="No">quadratic</Option>
    <Option name="UseBaggedGrad" modified="No">False</Option>
    <Option name="GradBaggingFraction" modified="No">6.000000e-01</Option>
    <Option name="Shrinkage" modified="No">1.000000e+00</Option>
    <Option name="AdaBoostBeta" modified="Yes">1.000000e+00</Option>
    <Option name="UseRandomisedTrees" modified="No">False</Option>
    <Option name="UseNvars" modified="No">2</Option>
    <Option name="UseNTrainEvents" modified="No">28384</Option>
    <Option name="UseWeightedTrees" modified="No">True</Option>
    <Option name="UseYesNoLeaf" modified="No">True</Option>
    <Option name="NodePurityLimit" modified="No">5.000000e-01</Option>
    <Option name="SeparationType" modified="Yes">giniindex</Option>
    <Option name="nEventsMin" modified="Yes">40</Option>
    <Option name="nCuts" modified="Yes">20</Option>
    <Option name="PruneStrength" modified="No">-1.000000e+00</Option>
    <Option name="PruneMethod" modified="No">costcomplexity</Option>
    <Option name="PruneBeforeBoost" modified="No">False</Option>
    <Option name="PruningValFraction" modified="No">5.000000e-01</Option>
    <Option name="NNodesMax" modified="No">100000</Option>
    <Option name="MaxDepth" modified="Yes">3</Option>
  </Options>
  <Variables NVar="20">
    <Variable VarIndex="0" Expression="lep1Pt" Label="lep1Pt" Title="p_{T}(l_{1})" Unit="GeV" Internal="lep1Pt" Type="F" Min="21.2888" Max="642.508"/>
    <Variable VarIndex="1" Expression="lep2Pt" Label="lep2Pt" Title="p_{T}(l_{2})" Unit="GeV" Internal="lep2Pt" Type="F" Min="20.0013" Max="252.492"/>
    <Variable VarIndex="2" Expression="diLepPt" Label="diLepPt" Title="p_{T}(ll)" Unit="GeV" Internal="diLepPt" Type="F" Min="30.0029" Max="720.21"/>
    <Variable VarIndex="3" Expression="diLepM" Label="diLepM" Title="m_{ll}" Unit="GeV" Internal="diLepM" Type="F" Min="70.0031" Max="106"/>
    <Variable VarIndex="4" Expression="diLepEta" Label="diLepEta" Title="|#eta(ll)|" Unit="" Internal="diLepEta" Type="F" Min="-3.38927" Max="3.35982"/>
    <Variable VarIndex="5" Expression="lepDeltaPhi" Label="lepDeltaPhi" Title="#Delta#phi(l_{1},l_{2})" Unit="rad" Internal="lepDeltaPhi" Type="F" Min="0.000168085" Max="3.14158"/>
    <Variable VarIndex="6" Expression="lepDeltaEta" Label="lepDeltaEta" Title="#Delta#eta(l_{1},l_{2})" Unit="" Internal="lepDeltaEta" Type="F" Min="1.71065e-05" Max="4.59719"/>
    <Variable VarIndex="7" Expression="lepDeltaR" Label="lepDeltaR" Title="#Delta R(l_{1},l_{2})" Unit="" Internal="lepDeltaR" Type="F" Min="0.301409" Max="5.29177"/>
    <Variable VarIndex="8" Expression="lepAngle" Label="lepAngle" Title="Open Angle(l_{1},l_{2})" Unit="rad" Internal="lepAngle" Type="F" Min="0.132223" Max="3.11203"/>
    <Variable VarIndex="9" Expression="lepPtRatio" Label="lepPtRatio" Title="p_{T}_{l_{2}}/p_{T}_{l_{1}}" Unit="" Internal="lepPtRatio" Type="F" Min="0.0660268" Max="0.999974"/>
    <Variable VarIndex="10" Expression="met" Label="met" Title="MET" Unit="GeV" Internal="met" Type="F" Min="30.0026" Max="917.746"/>
    <Variable VarIndex="11" Expression="metOverQt" Label="metOverQt" Title="MET/p_{T}(ll)" Unit="" Internal="metOverQt" Type="F" Min="0.0599769" Max="12.4283"/>
    <Variable VarIndex="12" Expression="metProjOnQt" Label="metProjOnQt" Title="MET || p_{T}(ll)" Unit="GeV" Internal="metProjOnQt" Type="F" Min="-910.259" Max="603.244"/>
    <Variable VarIndex="13" Expression="metPerpQt" Label="metPerpQt" Title="MET perp  p_{T}(ll)" Unit="GeV" Internal="metPerpQt" Type="F" Min="0.00148665" Max="532.392"/>
    <Variable VarIndex="14" Expression="dPhiMetDiLep" Label="dPhiMetDiLep" Title="#Delta#phi(p_{ll},MET)" Unit="rad" Internal="dPhiMetDiLep" Type="F" Min="0.000249687" Max="3.14158"/>
    <Variable VarIndex="15" Expression="mt" Label="mt" Title="m_{T}(HZZ hypothesis)" Unit="GeV" Internal="mt" Type="F" Min="141.729" Max="1192.35"/>
    <Variable VarIndex="16" Expression="nJets15" Label="nJets15" Title="Number of jets with p_{T}&gt;15" Unit="" Internal="nJets15" Type="I" Min="0" Max="24"/>
    <Variable VarIndex="17" Expression="deltaEtaDiJet" Label="deltaEtaDiJet" Title="#Delta#eta(jet1,jet2)" Unit="rad" Internal="deltaEtaDiJet" Type="F" Min="6.31124e-05" Max="8.59847"/>
    <Variable VarIndex="18" Expression="massDiJet" Label="massDiJet" Title="M(jet1,jet2)" Unit="GeV" Internal="massDiJet" Type="F" Min="19.4314" Max="3493.08"/>
    <Variable VarIndex="19" Expression="zeppDiJetDiLep" Label="zeppDiJetDiLep" Title="#eta* = #eta_{Z} - 0.5(#eta_{j_{1}} + #eta_{j_{2}})" Unit="" Internal="zeppDiJetDiLep" Type="F" Min="-6.15925" Max="6.28738"/>
  </Variables>
  <Spectators NSpec="0"/>
  <Transformations NTransformations="0"/>
  <MVAPdfs/>
  <Weights NTrees="400" TreeType="0">
    <BinaryTree type="DecisionTree" boostWeight="2.8447782659606236e+00" itree="0">
      <Node pos="s" depth="0" Seq="0" IVar="10" Cut="7.2279914855957031e+01" cType="0" nS="1.2351136474609375e+03" nB="1.2943131835937500e+04" nEv="1.4178246093750000e+04" nSuw="1.2760000000000000e+03" nBuw="1.2916000000000000e+04" nEvuw="1.4192000000000000e+04" sepI="7.9524561762809753e-02" sepG="3.4210076904296875e+02" res="-9.9000000000000000e+01" rms="0.0000000000000000e+00" nType="0" CC="3.4210076058810273e+02">
        <Node pos="l" depth="1" Seq="0" IVar="12" Cut="-3.8364116668701172e+01" cType="0" nS="5.8778857421875000e+02" nB="2.3813694763183594e+02" nEv="8.2592553710937500e+02" nSuw="5.9700000000000000e+02" nBuw="3.1510000000000000e+03" nEvuw="3.7480000000000000e+03" sepI="2.0519471168518066e-01" sepG="4.7080219268798828e+01" res="-9.9000000000000000e+01" rms="0.0000000000000000e+00" nType="0" CC="4.7080225056402185e+01">
          <Node pos="l" depth="2" Seq="0" IVar="-1" Cut="8.7005668640136719e+01" cType="0" nS="5.7527978515625000e+02" nB="1.3796051025390625e+02" nEv="7.1324029541015625e+02" nSuw="5.7400000000000000e+02" nBuw="1.0610000000000000e+03" nEvuw="1.6350000000000000e+03" sepI="1.5601348876953125e-01" sepG="-1.0000000000000000e+00" res="-9.9000000000000000e+01" rms="0.0000000000000000e+00" nType="1" CC="1.0000000000000000e+05"/>
          <Node pos="r" depth="2" Seq="2" IVar="15" Cut="2.1312644958496094e+02" cType="1" nS="1.2508769989013672e+01" nB="1.0017644500732422e+02" nEv="1.1268521118164062e+02" nSuw="2.3000000000000000e+01" nBuw="2.0900000000000000e+03" nEvuw="2.1130000000000000e+03" sepI="9.8683908581733704e-02" sepG="2.6030566692352295e+00" res="-9.9000000000000000e+01" rms="0.0000000000000000e+00" nType="0" CC="2.6030568904860587e+00">
            <Node pos="l" depth="3" Seq="2" IVar="-1" Cut="0.0000000000000000e+00" cType="1" nS="7.1666808128356934e+00" nB="6.7042379379272461e+00" nEv="1.3870919227600098e+01" nSuw="8.0000000000000000e+00" nBuw="8.5000000000000000e+01" nEvuw="9.3000000000000000e+01" sepI="2.4972212314605713e-01" sepG="-1.0000000000000000e+00" res="-9.9000000000000000e+01" rms="0.0000000000000000e+00" nType="1" CC="1.0000000000000000e+05"/>
            <Node pos="r" depth="3" Seq="6" IVar="-1" Cut="0.0000000000000000e+00" cType="1" nS="5.3420886993408203e+00" nB="9.3472206115722656e+01" nEv="9.8814292907714844e+01" nSuw="1.5000000000000000e+01" nBuw="2.0050000000000000e+03" nEvuw="2.0200000000000000e+03" sepI="5.1139213144779205e-02" sepG="-1.0000000000000000e+00" res="-9.9000000000000000e+01" rms="0.0000000000000000e+00" nType="-1" CC="1.0000000000000000e+05"/>
          </Node>
        </Node>
        <Node pos="r" depth="1" Seq="1" IVar="10" Cut="5.6163276672363281e+01" cType="0" nS="6.4732501220703125e+02" nB="1.2704995117187500e+04" nEv="1.3352320312500000e+04" nSuw="6.7900000000000000e+02" nBuw="9.7650000000000000e+03" nEvuw="1.0444000000000000e+04" sepI="4.6129994094371796e-02" sepG="5.6337524414062500e+01" res="-9.9000000000000000e+01" rms="0.0000000000000000e+00" nType="0" CC="5.6337470319973022e+01">
          <Node pos="l" depth="2" Seq="1" IVar="7" Cut="2.8858964443206787e+00" cType="1" nS="2.4124705505371094e+02" nB="5.3887518310546875e+02" nEv="7.8012225341796875e+02" nSuw="2.2900000000000000e+02" nBuw="1.5140000000000000e+03" nEvuw="1.7430000000000000e+03" sepI="2.1361163258552551e-01" sepG="2.6102388381958008e+01" res="-9.9000000000000000e+01" rms="0.0000000000000000e+00" nType="0" CC="2.6102390832091714e+01">
            <Node pos="l" depth="3" Seq="1" IVar="-1" Cut="0.0000000000000000e+00" cType="1" nS="1.6923706054687500e+02" nB="1.5102624511718750e+02" nEv="3.2026330566406250e+02" nSuw="1.6700000000000000e+02" nBuw="8.9600000000000000e+02" nEvuw="1.0630000000000000e+03" sepI="2.4919167160987854e-01" sepG="-1.0000000000000000e+00" res="-9.9000000000000000e+01" rms="0.0000000000000000e+00" nType="1" CC="1.0000000000000000e+05"/>
            <Node pos="r" depth="3" Seq="5" IVar="-1" Cut="0.0000000000000000e+00" cType="1" nS="7.2009994506835938e+01" nB="3.8784893798828125e+02" nEv="4.5985894775390625e+02" nSuw="6.2000000000000000e+01" nBuw="6.1800000000000000e+02" nEvuw="6.8000000000000000e+02" sepI="1.3207060098648071e-01" sepG="-1.0000000000000000e+00" res="-9.9000000000000000e+01" rms="0.0000000000000000e+00" nType="-1" CC="1.0000000000000000e+05"/>
          </Node>
          <Node pos="r" depth="2" Seq="3" IVar="-1" Cut="2.6914329528808594e+00" cType="1" nS="4.0607797241210938e+02" nB="1.2166120117187500e+04" nEv="1.2572198242187500e+04" nSuw="4.5000000000000000e+02" nBuw="8.2510000000000000e+03" nEvuw="8.7010000000000000e+03" sepI="3.1256411224603653e-02" sepG="-1.0000000000000000e+00" res="-9.9000000000000000e+01" rms="0.0000000000000000e+00" nType="-1" CC="1.0000000000000000e+05"/>
        </Node>
      </Node>
    </BinaryTree>
    <BinaryTree type="DecisionTree" boostWeight="1.2950900235135072e+00" itree="1">
      <Node pos="s" depth="0" Seq="0" IVar="5" Cut="2.6932468414306641e+00" cType="1" nS="4.7963642578125000e+03" nB="9.3818818359375000e+03" nEv="1.4178246093750000e+04" nSuw="1.2760000000000000e+03" nBuw="1.2916000000000000e+04" nEvuw="1.4192000000000000e+04" sepI="2.2384999692440033e-01" sepG="3.0032962036132812e+02" res="-9.9000000000000000e+01" rms="0.0000000000000000e+00" nType="0" CC="3.0032975957551571e+02">
        <Node pos="l" depth="1" Seq="0" IVar="10" Cut="5.7357986450195312e+01" cType="1" nS="3.1794697265625000e+03" nB="3.1852023925781250e+03" nEv="6.3646723632812500e+03" nSuw="9.3300000000000000e+02" nBuw="5.7180000000000000e+03" nEvuw="6.6510000000000000e+03" sepI="2.4999979138374329e-01" sepG="2.8045327758789062e+02" res="-9.9000000000000000e+01" rms="0.0000000000000000e+00" nType="0" CC="2.8045322645126180e+02">
          <Node pos="l" depth="2" Seq="0" IVar="-1" Cut="2.2428102111816406e+02" cType="1" nS="2.7303107910156250e+03" nB="1.4679672851562500e+03" nEv="4.1982783203125000e+03" nSuw="3.4500000000000000e+02" nBuw="2.6960000000000000e+03" nEvuw="3.0410000000000000e+03" sepI="2.2739769518375397e-01" sepG="-1.0000000000000000e+00" res="-9.9000000000000000e+01" rms="0.0000000000000000e+00" nType="1" CC="7.1509148764005545e+01"/>
          <Node pos="r" depth="2" Seq="2" IVar="-1" Cut="2.8790872097015381e+00" cType="0" nS="4.4915893554687500e+02" nB="1.7172352294921875e+03" nEv="2.1663940429687500e+03" nSuw="5.8800000000000000e+02" nBuw="3.0220000000000000e+03" nEvuw="3.6100000000000000e+03" sepI="1.6434438526630402e-01" sepG="-1.0000000000000000e+00" res="-9.9000000000000000e+01" rms="0.0000000000000000e+00" nType="-1" CC="3.8412646624753506e+01"/>
        </Node>
        <Node pos="r" depth="1" Seq="1" IVar="-1" Cut="5.9873932600021362e-01" cType="1" nS="1.6168944091796875e+03" nB="6.1966791992187500e+03" nEv="7.8135737304687500e+03" nSuw="3.4300000000000000e+02" nBuw="7.1980000000000000e+03" nEvuw="7.5410000000000000e+03" sepI="1.6411234438419342e-01" sepG="-1.0000000000000000e+00" res="-9.9000000000000000e+01" rms="0.0000000000000000e+00" nType="-1" CC="2.3474939519103600e+02"/>
      </Node>
    </BinaryTree>
    <BinaryTree type="DecisionTree" boostWeight="9.2380326607692520e-01" itree="2">
      <Node pos="s" depth="0" Seq="0" IVar="17" Cut="3.6850948333740234e+00" cType="0" nS="5.1075131835937500e+03" nB="9.0707324218750000e+03" nEv="1.4178246093750000e+04" nSuw="1.2760000000000000e+03" nBuw="1.2916000000000000e+04" nEvuw="1.4192000000000000e+04" sepI="2.3046599328517914e-01" sepG="2.9562808227539062e+02" res="-9.9000000000000000e+01" rms="0.0000000000000000e+00" nType="0" CC="2.9562789409336983e+02">
        <Node pos="l" depth="1" Seq="0" IVar="10" Cut="4.3827968597412109e+01" cType="0" nS="1.6152864990234375e+03" nB="7.4989221191406250e+02" nEv="2.3651787109375000e+03" nSuw="5.5600000000000000e+02" nBuw="1.8440000000000000e+03" nEvuw="2.4000000000000000e+03" sepI="2.1653120219707489e-01" sepG="6.0894733428955078e+01" res="-9.9000000000000000e+01" rms="0.0000000000000000e+00" nType="0" CC="6.0894744203324080e+01">
          <Node pos="l" depth="2" Seq="0" IVar="8" Cut="5.1579236984252930e-01" cType="0" nS="1.0485568847656250e+03" nB="2.0950871276855469e+02" nEv="1.2580656738281250e+03" nSuw="4.4900000000000000e+02" nBuw="9.7000000000000000e+02" nEvuw="1.4190000000000000e+03" sepI="1.3879936933517456e-01" sepG="2.6746547698974609e+01" res="-9.9000000000000000e+01" rms="0.0000000000000000e+00" nType="0" CC="2.6746546688167427e+01">
            <Node pos="l" depth="3" Seq="0" IVar="-1" Cut="0.0000000000000000e+00" cType="1" nS="1.0365047607421875e+03" nB="1.5940409851074219e+02" nEv="1.1959089355468750e+03" nSuw="4.3600000000000000e+02" nBuw="8.9900000000000000e+02" nEvuw="1.3350000000000000e+03" sepI="1.1552463471889496e-01" sepG="-1.0000000000000000e+00" res="-9.9000000000000000e+01" rms="0.0000000000000000e+00" nType="1" CC="1.0000000000000000e+05"/>
            <Node pos="r" depth="3" Seq="4" IVar="-1" Cut="0.0000000000000000e+00" cType="1" nS="1.2052124977111816e+01" nB="5.0104610443115234e+01" nEv="6.2156738281250000e+01" nSuw="1.3000000000000000e+01" nBuw="7.1000000000000000e+01" nEvuw="8.4000000000000000e+01" sepI="1.5630213916301727e-01" sepG="-1.0000000000000000e+00" res="-9.9000000000000000e+01" rms="0.0000000000000000e+00" nType="-1" CC="1.0000000000000000e+05"/>
          </Node>
          <Node pos="r" depth="2" Seq="2" IVar="16" Cut="1.0952380895614624e+00" cType="1" nS="5.6672961425781250e+02" nB="5.4038348388671875e+02" nEv="1.1071131591796875e+03" nSuw="1.0700000000000000e+02" nBuw="8.7400000000000000e+02" nEvuw="9.8100000000000000e+02" sepI="2.4985842406749725e-01" sepG="3.1791610717773438e+01" res="-9.9000000000000000e+01" rms="0.0000000000000000e+00" nType="0" CC="3.1791604230065104e+01">
            <Node pos="l" depth="3" Seq="2" IVar="-1" Cut="0.0000000000000000e+00" cType="1" nS="3.9004653930664062e+02" nB="1.8885865783691406e+02" nEv="5.7890521240234375e+02" nSuw="5.5000000000000000e+01" nBuw="1.1500000000000000e+02" nEvuw="1.7000000000000000e+02" sepI="2.1980543434619904e-01" sepG="-1.0000000000000000e+00" res="-9.9000000000000000e+01" rms="0.0000000000000000e+00" nType="1" CC="1.0000000000000000e+05"/>
            <Node pos="r" depth="3" Seq="6" IVar="-1" Cut="0.0000000000000000e+00" cType="1" nS="1.7668309020996094e+02" nB="3.5152484130859375e+02" nEv="5.2820794677734375e+02" nSuw="5.2000000000000000e+01" nBuw="7.5900000000000000e+02" nEvuw="8.1100000000000000e+02" sepI="2.2260820865631104e-01" sepG="-1.0000000000000000e+00" res="-9.9000000000000000e+01" rms="0.0000000000000000e+00" nType="-1" CC="1.0000000000000000e+05"/>
          </Node>
        </Node>
        <Node pos="r" depth="1" Seq="1" IVar="-1" Cut="2.5353399276733398e+01" cType="0" nS="3.4922268066406250e+03" nB="8.3208408203125000e+03" nEv="1.1813067382812500e+04" nSuw="7.2000000000000000e+02" nBuw="1.1072000000000000e+04" nEvuw="1.1792000000000000e+04" sepI="2.0823046565055847e-01" sepG="-1.0000000000000000e+00" res="-9.9000000000000000e+01" rms="0.0000000000000000e+00" nType="-1" CC="1.0000000000000000e+05"/>
      </Node>
    </BinaryTree>
    <BinaryTree type="DecisionTree" boostWeight="7.9167044562019717e-01" itree="3">
      <Node pos="s" depth="0" Seq="0" IVar="13" Cut="2.5353399276733398e+01" cType="0" nS="7.4728310546875000e+03" nB="6.7054150390625000e+03" nEv="1.4178246093750000e+04" nSuw="1.2760000000000000e+03" nBuw="1.2916000000000000e+04" nEvuw="1.4192000000000000e+04" sepI="2.4926759302616119e-01" sepG="1.7232543945312500e+02" res="-9.9000000000000000e+01" rms="0.0000000000000000e+00" nType="0" CC="1.7232558055106347e+02">
        <Node pos="l" depth="1" Seq="0" IVar="7" Cut="3.1739153861999512e+00" cType="1" nS="5.2604438476562500e+03" nB="3.2682873535156250e+03" nEv="8.5287314453125000e+03" nSuw="9.2900000000000000e+02" nBuw="7.1670000000000000e+03" nEvuw="8.0960000000000000e+03" sepI="2.3635987937450409e-01" sepG="1.0398897552490234e+02" res="-9.9000000000000000e+01" rms="0.0000000000000000e+00" nType="0" CC="1.0398897942652457e+02">
          <Node pos="l" depth="2" Seq="0" IVar="-1" Cut="2.3277340698242188e+02" cType="1" nS="4.8679653320312500e+03" nB="2.5010996093750000e+03" nEv="7.3690649414062500e+03" nSuw="8.5600000000000000e+02" nBuw="5.6290000000000000e+03" nEvuw="6.4850000000000000e+03" sepI="2.2420933842658997e-01" sepG="-1.0000000000000000e+00" res="-9.9000000000000000e+01" rms="0.0000000000000000e+00" nType="1" CC="5.4394405146416375e+01"/>
          <Node pos="r" depth="2" Seq="2" IVar="-1" Cut="7.7582395076751709e-01" cType="1" nS="3.9247854614257812e+02" nB="7.6718762207031250e+02" nEv="1.1596661376953125e+03" nSuw="7.3000000000000000e+01" nBuw="1.5380000000000000e+03" nEvuw="1.6110000000000000e+03" sepI="2.2389867901802063e-01" sepG="-1.0000000000000000e+00" res="-9.9000000000000000e+01" rms="0.0000000000000000e+00" nType="-1" CC="5.5608217401832690e+01"/>
        </Node>
        <Node pos="r" depth="1" Seq="1" IVar="17" Cut="2.2744710445404053e+00" cType="0" nS="2.2123872070312500e+03" nB="3.4371276855468750e+03" nEv="5.6495151367187500e+03" nSuw="3.4700000000000000e+02" nBuw="5.7490000000000000e+03" nEvuw="6.0960000000000000e+03" sepI="2.3825086653232574e-01" sepG="8.2464958190917969e+01" res="-9.9000000000000000e+01" rms="0.0000000000000000e+00" nType="0" CC="8.2464907252155172e+01">
          <Node pos="l" depth="2" Seq="1" IVar="-1" Cut="1.2032198905944824e+00" cType="1" nS="1.3014067382812500e+03" nB="1.1576905517578125e+03" nEv="2.4590974121093750e+03" nSuw="2.4300000000000000e+02" nBuw="2.1070000000000000e+03" nEvuw="2.3500000000000000e+03" sepI="2.4914611876010895e-01" sepG="-1.0000000000000000e+00" res="-9.9000000000000000e+01" rms="0.0000000000000000e+00" nType="1" CC="5.4984260239412379e+01"/>
          <Node pos="r" depth="2" Seq="3" IVar="-1" Cut="4.9720958709716797e+01" cType="0" nS="9.1098046875000000e+02" nB="2.2794372558593750e+03" nEv="3.1904177246093750e+03" nSuw="1.0400000000000000e+02" nBuw="3.6420000000000000e+03" nEvuw="3.7460000000000000e+03" sepI="2.0400537550449371e-01" sepG="-1.0000000000000000e+00" res="-9.9000000000000000e+01" rms="0.0000000000000000e+00" nType="-1" CC="5.6985681738668063e+01"/>
        </Node>
      </Node>
    </BinaryTree>
    <BinaryTree type="DecisionTree" boostWeight="5.9669660164218485e-01" itree="4">
      <Node pos="s" depth="0" Seq="0" IVar="8" Cut="8.4105795621871948e-01" cType="0" nS="6.1062744140625000e+03" nB="8.0719716796875000e+03" nEv="1.4178246093750000e+04" nSuw="1.2760000000000000e+03" nBuw="1.2916000000000000e+04" nEvuw="1.4192000000000000e+04" sepI="2.4519461393356323e-01" sepG="9.9636169433593750e+01" res="-9.9000000000000000e+01" rms="0.0000000000000000e+00" nType="0" CC="9.9636293542735075e+01">
        <Node pos="l" depth="1" Seq="0" IVar="1" Cut="3.9448089599609375e+01" cType="0" nS="5.2447221679687500e+03" nB="5.7861865234375000e+03" nEv="1.1030909179687500e+04" nSuw="1.0860000000000000e+03" nBuw="9.2250000000000000e+03" nEvuw="1.0311000000000000e+04" sepI="2.4939763545989990e-01" sepG="4.8800952911376953e+01" res="-9.9000000000000000e+01" rms="0.0000000000000000e+00" nType="0" CC="7.8277446497677374e+01">
          <Node pos="l" depth="2" Seq="0" IVar="-1" Cut="5.6370198726654053e-01" cType="0" nS="1.9073131103515625e+03" nB="1.3973449707031250e+03" nEv="3.3046582031250000e+03" nSuw="3.4200000000000000e+02" nBuw="2.6220000000000000e+03" nEvuw="2.9640000000000000e+03" sepI="2.4404649436473846e-01" sepG="-1.0000000000000000e+00" res="-9.9000000000000000e+01" rms="0.0000000000000000e+00" nType="1" CC="4.5290847913066955e+01"/>
          <Node pos="r" depth="2" Seq="2" IVar="7" Cut="2.9476664066314697e+00" cType="1" nS="3.3374091796875000e+03" nB="4.3888413085937500e+03" nEv="7.7262509765625000e+03" nSuw="7.4400000000000000e+02" nBuw="6.6030000000000000e+03" nEvuw="7.3470000000000000e+03" sepI="2.4537016451358795e-01" sepG="1.0775399780273438e+02" res="-9.9000000000000000e+01" rms="0.0000000000000000e+00" nType="0" CC="1.0775392152283712e+02">
            <Node pos="l" depth="3" Seq="2" IVar="-1" Cut="0.0000000000000000e+00" cType="1" nS="2.5504665527343750e+03" nB="2.3355087890625000e+03" nEv="4.8859755859375000e+03" nSuw="5.9400000000000000e+02" nBuw="3.2170000000000000e+03" nEvuw="3.8110000000000000e+03" sepI="2.4951611459255219e-01" sepG="-1.0000000000000000e+00" res="-9.9000000000000000e+01" rms="0.0000000000000000e+00" nType="1" CC="1.0000000000000000e+05"/>
            <Node pos="r" depth="3" Seq="6" IVar="-1" Cut="0.0000000000000000e+00" cType="1" nS="7.8694256591796875e+02" nB="2.0533327636718750e+03" nEv="2.8402753906250000e+03" nSuw="1.5000000000000000e+02" nBuw="3.3860000000000000e+03" nEvuw="3.5360000000000000e+03" sepI="2.0030024647712708e-01" sepG="-1.0000000000000000e+00" res="-9.9000000000000000e+01" rms="0.0000000000000000e+00" nType="-1" CC="1.0000000000000000e+05"/>
          </Node>
        </Node>
        <Node pos="r" depth="1" Seq="1" IVar="-1" Cut="5.0705314636230469e+01" cType="0" nS="8.6155200195312500e+02" nB="2.2857851562500000e+03" nEv="3.1473371582031250e+03" nSuw="1.9000000000000000e+02" nBuw="3.6910000000000000e+03" nEvuw="3.8810000000000000e+03" sepI="1.9880639016628265e-01" sepG="-1.0000000000000000e+00" res="-9.9000000000000000e+01" rms="0.0000000000000000e+00" nType="-1" CC="5.8196650331407909e+01"/>
      </Node>
    </BinaryTree>
    <BinaryTree type="DecisionTree" boostWeight="4.8428491195793744e-01" itree="5">
      <Node pos="s" depth="0" Seq="0" IVar="15" Cut="1.8578713989257812e+02" cType="0" nS="5.9203603515625000e+03" nB="8.2578857421875000e+03" nEv="1.4178246093750000e+04" nSuw="1.2760000000000000e+03" nBuw="1.2916000000000000e+04" nEvuw="1.4192000000000000e+04" sepI="2.4320471286773682e-01" sepG="6.5824081420898438e+01" res="-9.9000000000000000e+01" rms="0.0000000000000000e+00" nType="0" CC="6.5823990212434182e+01">
        <Node pos="l" depth="1" Seq="0" IVar="14" Cut="1.9448821544647217e+00" cType="1" nS="4.9029414062500000e+03" nB="5.8482875976562500e+03" nEv="1.0751228515625000e+04" nSuw="1.0340000000000000e+03" nBuw="1.0697000000000000e+04" nEvuw="1.1731000000000000e+04" sepI="2.4806711077690125e-01" sepG="5.5234142303466797e+01" res="-9.9000000000000000e+01" rms="0.0000000000000000e+00" nType="0" CC="5.7490751347309015e+01">
          <Node pos="l" depth="2" Seq="0" IVar="15" Cut="2.1015005493164062e+02" cType="1" nS="3.7233454589843750e+03" nB="3.6573254394531250e+03" nEv="7.3806708984375000e+03" nSuw="8.2300000000000000e+02" nBuw="4.3560000000000000e+03" nEvuw="5.1790000000000000e+03" sepI="2.4998000264167786e-01" sepG="5.9747341156005859e+01" res="-9.9000000000000000e+01" rms="0.0000000000000000e+00" nType="0" CC="5.9747391080618399e+01">
            <Node pos="l" depth="3" Seq="0" IVar="-1" Cut="0.0000000000000000e+00" cType="1" nS="3.4947907714843750e+03" nB="3.0063474121093750e+03" nEv="6.5011381835937500e+03" nSuw="7.7300000000000000e+02" nBuw="3.2310000000000000e+03" nEvuw="4.0040000000000000e+03" sepI="2.4858880043029785e-01" sepG="-1.0000000000000000e+00" res="-9.9000000000000000e+01" rms="0.0000000000000000e+00" nType="1" CC="1.0000000000000000e+05"/>
            <Node pos="r" depth="3" Seq="4" IVar="-1" Cut="0.0000000000000000e+00" cType="1" nS="2.2855459594726562e+02" nB="6.5097796630859375e+02" nEv="8.7953259277343750e+02" nSuw="5.0000000000000000e+01" nBuw="1.1250000000000000e+03" nEvuw="1.1750000000000000e+03" sepI="1.9233238697052002e-01" sepG="-1.0000000000000000e+00" res="-9.9000000000000000e+01" rms="0.0000000000000000e+00" nType="-1" CC="1.0000000000000000e+05"/>
          </Node>
          <Node pos="r" depth="2" Seq="2" IVar="-1" Cut="1.8954031467437744e+00" cType="0" nS="1.1795958251953125e+03" nB="2.1909619140625000e+03" nEv="3.3705578613281250e+03" nSuw="2.1100000000000000e+02" nBuw="6.3410000000000000e+03" nEvuw="6.5520000000000000e+03" sepI="2.2749115526676178e-01" sepG="-1.0000000000000000e+00" res="-9.9000000000000000e+01" rms="0.0000000000000000e+00" nType="-1" CC="1.0000000000000000e+05"/>
        </Node>
        <Node pos="r" depth="1" Seq="1" IVar="-1" Cut="4.4077110290527344e+01" cType="0" nS="1.0174192504882812e+03" nB="2.4095981445312500e+03" nEv="3.4270173339843750e+03" nSuw="2.4200000000000000e+02" nBuw="2.2190000000000000e+03" nEvuw="2.4610000000000000e+03" sepI="2.0874302089214325e-01" sepG="-1.0000000000000000e+00" res="-9.9000000000000000e+01" rms="0.0000000000000000e+00" nType="-1" CC="3.7646172080629867e+01"/>
      </Node>
    </BinaryTree>
    <BinaryTree type="DecisionTree" boostWeight="5.3544017499092977e-01" itree="6">
      <Node pos="s" depth="0" Seq="0" IVar="8" Cut="5.5752402544021606e-01" cType="0" nS="5.7504858398437500e+03" nB="8.4277607421875000e+03" nEv="1.4178246093750000e+04" nSuw="1.2760000000000000e+03" nBuw="1.2916000000000000e+04" nEvuw="1.4192000000000000e+04" sepI="2.4108582735061646e-01" sepG="4.5634918212890625e+01" res="-9.9000000000000000e+01" rms="0.0000000000000000e+00" nType="0" CC="5.8022066225914841e+01">
        <Node pos="l" depth="1" Seq="0" IVar="1" Cut="4.3030696868896484e+01" cType="0" nS="5.5673974609375000e+03" nB="7.6644287109375000e+03" nEv="1.3231826171875000e+04" nSuw="1.2290000000000000e+03" nBuw="1.1516000000000000e+04" nEvuw="1.2745000000000000e+04" sepI="2.4372071027755737e-01" sepG="7.0409126281738281e+01" res="-9.9000000000000000e+01" rms="0.0000000000000000e+00" nType="0" CC="7.0409156206460466e+01">
          <Node pos="l" depth="2" Seq="0" IVar="4" Cut="1.4084944128990173e-01" cType="0" nS="1.7713803710937500e+03" nB="1.4537008056640625e+03" nEv="3.2250812988281250e+03" nSuw="3.0500000000000000e+02" nBuw="2.7550000000000000e+03" nEvuw="3.0600000000000000e+03" sepI="2.4757429957389832e-01" sepG="3.9822002410888672e+01" res="-9.9000000000000000e+01" rms="0.0000000000000000e+00" nType="0" CC="3.9821986333026871e+01">
            <Node pos="l" depth="3" Seq="0" IVar="-1" Cut="0.0000000000000000e+00" cType="1" nS="1.0537181396484375e+03" nB="5.3853491210937500e+02" nEv="1.5922530517578125e+03" nSuw="1.4800000000000000e+02" nBuw="1.2470000000000000e+03" nEvuw="1.3950000000000000e+03" sepI="2.2382785379886627e-01" sepG="-1.0000000000000000e+00" res="-9.9000000000000000e+01" rms="0.0000000000000000e+00" nType="1" CC="1.0000000000000000e+05"/>
            <Node pos="r" depth="3" Seq="4" IVar="-1" Cut="0.0000000000000000e+00" cType="1" nS="7.1766229248046875e+02" nB="9.1516595458984375e+02" nEv="1.6328282470703125e+03" nSuw="1.5700000000000000e+02" nBuw="1.5080000000000000e+03" nEvuw="1.6650000000000000e+03" sepI="2.4634228646755219e-01" sepG="-1.0000000000000000e+00" res="-9.9000000000000000e+01" rms="0.0000000000000000e+00" nType="-1" CC="1.0000000000000000e+05"/>
          </Node>
          <Node pos="r" depth="2" Seq="2" IVar="-1" Cut="3.2857143878936768e+00" cType="1" nS="3.7960168457031250e+03" nB="6.2107275390625000e+03" nEv="1.0006745117187500e+04" nSuw="9.2400000000000000e+02" nBuw="8.7610000000000000e+03" nEvuw="9.6850000000000000e+03" sepI="2.3544257879257202e-01" sepG="-1.0000000000000000e+00" res="-9.9000000000000000e+01" rms="0.0000000000000000e+00" nType="-1" CC="1.0000000000000000e+05"/>
        </Node>
        <Node pos="r" depth="1" Seq="1" IVar="-1" Cut="2.9287958145141602e+00" cType="1" nS="1.8308836364746094e+02" nB="7.6333178710937500e+02" nEv="9.4642016601562500e+02" nSuw="4.7000000000000000e+01" nBuw="1.4000000000000000e+03" nEvuw="1.4470000000000000e+03" sepI="1.5602928400039673e-01" sepG="-1.0000000000000000e+00" res="-9.9000000000000000e+01" rms="0.0000000000000000e+00" nType="-1" CC="1.0000000000000000e+05"/>
      </Node>
    </BinaryTree>
    <BinaryTree type="DecisionTree" boostWeight="3.9071413538671085e-01" itree="7">
      <Node pos="s" depth="0" Seq="0" IVar="5" Cut="2.9921000003814697e+00" cType="1" nS="7.1951811523437500e+03" nB="6.9830649414062500e+03" nEv="1.4178246093750000e+04" nSuw="1.2760000000000000e+03" nBuw="1.2916000000000000e+04" nEvuw="1.4192000000000000e+04" sepI="2.4994404613971710e-01" sepG="4.9126419067382812e+01" res="-9.9000000000000000e+01" rms="0.0000000000000000e+00" nType="0" CC="6.0604811605865656e+01">
        <Node pos="l" depth="1" Seq="0" IVar="3" Cut="7.8638420104980469e+01" cType="0" nS="6.3310839843750000e+03" nB="5.5371025390625000e+03" nEv="1.1868186523437500e+04" nSuw="1.1660000000000000e+03" nBuw="9.0740000000000000e+03" nEvuw="1.0240000000000000e+04" sepI="2.4888110160827637e-01" sepG="3.6128734588623047e+01" res="-9.9000000000000000e+01" rms="0.0000000000000000e+00" nType="0" CC="4.3069210302271813e+01">
          <Node pos="l" depth="2" Seq="0" IVar="3" Cut="9.0393333435058594e+01" cType="1" nS="6.2096484375000000e+03" nB="5.1924672851562500e+03" nEv="1.1402116210937500e+04" nSuw="1.1340000000000000e+03" nBuw="8.6980000000000000e+03" nEvuw="9.8320000000000000e+03" sepI="2.4801039695739746e-01" sepG="5.0009597778320312e+01" res="-9.9000000000000000e+01" rms="0.0000000000000000e+00" nType="0" CC="5.0009575066014804e+01">
            <Node pos="l" depth="3" Seq="0" IVar="-1" Cut="0.0000000000000000e+00" cType="1" nS="3.2642138671875000e+03" nB="2.0379346923828125e+03" nEv="5.3021484375000000e+03" nSuw="5.2800000000000000e+02" nBuw="3.5300000000000000e+03" nEvuw="4.0580000000000000e+03" sepI="2.3662742972373962e-01" sepG="-1.0000000000000000e+00" res="-9.9000000000000000e+01" rms="0.0000000000000000e+00" nType="1" CC="1.0000000000000000e+05"/>
            <Node pos="r" depth="3" Seq="4" IVar="-1" Cut="0.0000000000000000e+00" cType="1" nS="2.9454345703125000e+03" nB="3.1545327148437500e+03" nEv="6.0999672851562500e+03" nSuw="6.0600000000000000e+02" nBuw="5.1680000000000000e+03" nEvuw="5.7740000000000000e+03" sepI="2.4970623850822449e-01" sepG="-1.0000000000000000e+00" res="-9.9000000000000000e+01" rms="0.0000000000000000e+00" nType="-1" CC="1.0000000000000000e+05"/>
          </Node>
          <Node pos="r" depth="2" Seq="2" IVar="-1" Cut="1.6507456302642822e+00" cType="0" nS="1.2143543243408203e+02" nB="3.4463522338867188e+02" nEv="4.6607067871093750e+02" nSuw="3.2000000000000000e+01" nBuw="3.7600000000000000e+02" nEvuw="4.0800000000000000e+02" sepI="1.9266444444656372e-01" sepG="-1.0000000000000000e+00" res="-9.9000000000000000e+01" rms="0.0000000000000000e+00" nType="-1" CC="1.0000000000000000e+05"/>
        </Node>
        <Node pos="r" depth="1" Seq="1" IVar="9" Cut="8.7960392236709595e-01" cType="1" nS="8.6409747314453125e+02" nB="1.4459621582031250e+03" nEv="2.3100595703125000e+03" nSuw="1.1000000000000000e+02" nBuw="3.8420000000000000e+03" nEvuw="3.9520000000000000e+03" sepI="2.3413874208927155e-01" sepG="6.5784767150878906e+01" res="-9.9000000000000000e+01" rms="0.0000000000000000e+00" nType="0" CC="6.6344015630827215e+01">
          <Node pos="l" depth="2" Seq="1" IVar="8" Cut="8.6953222751617432e-01" cType="0" nS="7.5675347900390625e+02" nB="7.7352014160156250e+02" nEv="1.5302736816406250e+03" nSuw="9.8000000000000000e+01" nBuw="1.9080000000000000e+03" nEvuw="2.0060000000000000e+03" sepI="2.4996998906135559e-01" sepG="6.6903259277343750e+01" res="-9.9000000000000000e+01" rms="0.0000000000000000e+00" nType="0" CC="6.6903257257070834e+01">
            <Node pos="l" depth="3" Seq="1" IVar="-1" Cut="0.0000000000000000e+00" cType="1" nS="7.4474523925781250e+02" nB="5.1408740234375000e+02" nEv="1.2588326416015625e+03" nSuw="9.0000000000000000e+01" nBuw="1.3030000000000000e+03" nEvuw="1.3930000000000000e+03" sepI="2.4160654842853546e-01" sepG="-1.0000000000000000e+00" res="-9.9000000000000000e+01" rms="0.0000000000000000e+00" nType="1" CC="1.0000000000000000e+05"/>
            <Node pos="r" depth="3" Seq="5" IVar="-1" Cut="0.0000000000000000e+00" cType="1" nS="1.2008243560791016e+01" nB="2.5943276977539062e+02" nEv="2.7144100952148438e+02" nSuw="8.0000000000000000e+00" nBuw="6.0500000000000000e+02" nEvuw="6.1300000000000000e+02" sepI="4.2281795293092728e-02" sepG="-1.0000000000000000e+00" res="-9.9000000000000000e+01" rms="0.0000000000000000e+00" nType="-1" CC="1.0000000000000000e+05"/>
          </Node>
          <Node pos="r" depth="2" Seq="3" IVar="10" Cut="6.1777915954589844e+01" cType="0" nS="1.0734399414062500e+02" nB="6.7244195556640625e+02" nEv="7.7978594970703125e+02" nSuw="1.2000000000000000e+01" nBuw="1.9340000000000000e+03" nEvuw="1.9460000000000000e+03" sepI="1.1870847642421722e-01" sepG="2.8783912658691406e+01" res="-9.9000000000000000e+01" rms="0.0000000000000000e+00" nType="0" CC="2.8783908973015343e+01">
            <Node pos="l" depth="3" Seq="3" IVar="-1" Cut="0.0000000000000000e+00" cType="1" nS="7.4372184753417969e+01" nB="5.7693691253662109e+01" nEv="1.3206587219238281e+02" nSuw="1.0000000000000000e+01" nBuw="1.1700000000000000e+02" nEvuw="1.2700000000000000e+02" sepI="2.4601276218891144e-01" sepG="-1.0000000000000000e+00" res="-9.9000000000000000e+01" rms="0.0000000000000000e+00" nType="1" CC="1.0000000000000000e+05"/>
            <Node pos="r" depth="3" Seq="7" IVar="-1" Cut="0.0000000000000000e+00" cType="1" nS="3.2971809387207031e+01" nB="6.1474829101562500e+02" nEv="6.4772009277343750e+02" nSuw="2.0000000000000000e+00" nBuw="1.8170000000000000e+03" nEvuw="1.8190000000000000e+03" sepI="4.8313155770301819e-02" sepG="-1.0000000000000000e+00" res="-9.9000000000000000e+01" rms="0.0000000000000000e+00" nType="-1" CC="1.0000000000000000e+05"/>
          </Node>
        </Node>
      </Node>
    </BinaryTree>
    <BinaryTree type="DecisionTree" boostWeight="5.1268242593784019e-01" itree="8">
      <Node pos="s" depth="0" Seq="0" IVar="5" Cut="2.9921000003814697e+00" cType="1" nS="7.2786406250000000e+03" nB="6.8996054687500000e+03" nEv="1.4178246093750000e+04" nSuw="1.2760000000000000e+03" nBuw="1.2916000000000000e+04" nEvuw="1.4192000000000000e+04" sepI="2.4982133507728577e-01" sepG="7.7602340698242188e+01" res="-9.9000000000000000e+01" rms="0.0000000000000000e+00" nType="0" CC="7.7602445527797499e+01">
        <Node pos="l" depth="1" Seq="0" IVar="16" Cut="3.2857143878936768e+00" cType="1" nS="6.5362543945312500e+03" nB="5.4583437500000000e+03" nEv="1.1994598632812500e+04" nSuw="1.1660000000000000e+03" nBuw="9.0740000000000000e+03" nEvuw="1.0240000000000000e+04" sepI="2.4798101186752319e-01" sepG="3.8726165771484375e+01" res="-9.9000000000000000e+01" rms="0.0000000000000000e+00" nType="0" CC="4.3158451494316068e+01">
          <Node pos="l" depth="2" Seq="0" IVar="15" Cut="1.8732679748535156e+02" cType="0" nS="5.2550488281250000e+03" nB="3.8538293457031250e+03" nEv="9.1088779296875000e+03" nSuw="8.0300000000000000e+02" nBuw="4.5510000000000000e+03" nEvuw="5.3540000000000000e+03" sepI="2.4408407509326935e-01" sepG="4.3358135223388672e+01" res="-9.9000000000000000e+01" rms="0.0000000000000000e+00" nType="0" CC="4.3358093251885293e+01">
            <Node pos="l" depth="3" Seq="0" IVar="-1" Cut="0.0000000000000000e+00" cType="1" nS="4.2033974609375000e+03" nB="2.6096232910156250e+03" nEv="6.8130205078125000e+03" nSuw="5.9600000000000000e+02" nBuw="3.7470000000000000e+03" nEvuw="4.3430000000000000e+03" sepI="2.3631910979747772e-01" sepG="-1.0000000000000000e+00" res="-9.9000000000000000e+01" rms="0.0000000000000000e+00" nType="1" CC="1.0000000000000000e+05"/>
            <Node pos="r" depth="3" Seq="4" IVar="-1" Cut="0.0000000000000000e+00" cType="1" nS="1.0516514892578125e+03" nB="1.2442061767578125e+03" nEv="2.2958576660156250e+03" nSuw="2.0700000000000000e+02" nBuw="8.0400000000000000e+02" nEvuw="1.0110000000000000e+03" sepI="2.4824143946170807e-01" sepG="-1.0000000000000000e+00" res="-9.9000000000000000e+01" rms="0.0000000000000000e+00" nType="-1" CC="1.0000000000000000e+05"/>
          </Node>
          <Node pos="r" depth="2" Seq="2" IVar="7" Cut="2.9648599624633789e+00" cType="0" nS="1.2812054443359375e+03" nB="1.6045145263671875e+03" nEv="2.8857199707031250e+03" nSuw="3.6300000000000000e+02" nBuw="4.5230000000000000e+03" nEvuw="4.8860000000000000e+03" sepI="2.4686188995838165e-01" sepG="4.7391040802001953e+01" res="-9.9000000000000000e+01" rms="0.0000000000000000e+00" nType="0" CC="4.7391066460412731e+01">
            <Node pos="l" depth="3" Seq="2" IVar="-1" Cut="0.0000000000000000e+00" cType="1" nS="5.4720898437500000e+02" nB="3.0528585815429688e+02" nEv="8.5249487304687500e+02" nSuw="5.0000000000000000e+01" nBuw="1.3660000000000000e+03" nEvuw="1.4160000000000000e+03" sepI="2.2986686229705811e-01" sepG="-1.0000000000000000e+00" res="-9.9000000000000000e+01" rms="0.0000000000000000e+00" nType="1" CC="1.0000000000000000e+05"/>
            <Node pos="r" depth="3" Seq="6" IVar="-1" Cut="0.0000000000000000e+00" cType="1" nS="7.3399639892578125e+02" nB="1.2992286376953125e+03" nEv="2.0332249755859375e+03" nSuw="3.1300000000000000e+02" nBuw="3.1570000000000000e+03" nEvuw="3.4700000000000000e+03" sepI="2.3067928850650787e-01" sepG="-1.0000000000000000e+00" res="-9.9000000000000000e+01" rms="0.0000000000000000e+00" nType="-1" CC="1.0000000000000000e+05"/>
          </Node>
        </Node>
        <Node pos="r" depth="1" Seq="1" IVar="9" Cut="6.7898637056350708e-01" cType="1" nS="7.4238641357421875e+02" nB="1.4412614746093750e+03" nEv="2.1836477050781250e+03" nSuw="1.1000000000000000e+02" nBuw="3.8420000000000000e+03" nEvuw="3.9520000000000000e+03" sepI="2.2439210116863251e-01" sepG="4.4811046600341797e+01" res="-9.9000000000000000e+01" rms="0.0000000000000000e+00" nType="0" CC="4.4811038181287131e+01">
          <Node pos="l" depth="2" Seq="1" IVar="-1" Cut="3.1130416393280029e+00" cType="1" nS="4.0120761108398438e+02" nB="3.4281491088867188e+02" nEv="7.4402252197265625e+02" nSuw="6.8000000000000000e+01" nBuw="5.8800000000000000e+02" nEvuw="6.5600000000000000e+02" sepI="2.4846012890338898e-01" sepG="-1.0000000000000000e+00" res="-9.9000000000000000e+01" rms="0.0000000000000000e+00" nType="1" CC="1.8849955587121315e+01"/>
          <Node pos="r" depth="2" Seq="3" IVar="13" Cut="3.9868930816650391e+01" cType="0" nS="3.4117880249023438e+02" nB="1.0984465332031250e+03" nEv="1.4396252441406250e+03" nSuw="4.2000000000000000e+01" nBuw="3.2540000000000000e+03" nEvuw="3.2960000000000000e+03" sepI="1.8082647025585175e-01" sepG="2.6968416213989258e+01" res="-9.9000000000000000e+01" rms="0.0000000000000000e+00" nType="0" CC="2.6968433688005689e+01">
            <Node pos="l" depth="3" Seq="3" IVar="-1" Cut="0.0000000000000000e+00" cType="1" nS="1.4435998535156250e+02" nB="1.3567518615722656e+02" nEv="2.8003515625000000e+02" nSuw="2.6000000000000000e+01" nBuw="4.3300000000000000e+02" nEvuw="4.5900000000000000e+02" sepI="2.4975953996181488e-01" sepG="-1.0000000000000000e+00" res="-9.9000000000000000e+01" rms="0.0000000000000000e+00" nType="1" CC="1.0000000000000000e+05"/>
            <Node pos="r" depth="3" Seq="7" IVar="-1" Cut="0.0000000000000000e+00" cType="1" nS="1.9681881713867188e+02" nB="9.6277130126953125e+02" nEv="1.1595900878906250e+03" nSuw="1.6000000000000000e+01" nBuw="2.8210000000000000e+03" nEvuw="2.8370000000000000e+03" sepI="1.4092262089252472e-01" sepG="-1.0000000000000000e+00" res="-9.9000000000000000e+01" rms="0.0000000000000000e+00" nType="-1" CC="1.0000000000000000e+05"/>
          </Node>
        </Node>
      </Node>
    </BinaryTree>
    <BinaryTree type="DecisionTree" boostWeight="2.8485171316752089e-01" itree="9">
      <Node pos="s" depth="0" Seq="0" IVar="5" Cut="2.9921000003814697e+00" cType="1" nS="6.8827983398437500e+03" nB="7.2954477539062500e+03" nEv="1.4178246093750000e+04" nSuw="1.2760000000000000e+03" nBuw="1.2916000000000000e+04" nEvuw="1.4192000000000000e+04" sepI="2.4978823959827423e-01" sepG="5.2471069335937500e+01" res="-9.9000000000000000e+01" rms="0.0000000000000000e+00" nType="0" CC="5.2471259617735996e+01">
        <Node pos="l" depth="1" Seq="0" IVar="8" Cut="4.3664956092834473e-01" cType="0" nS="6.1814707031250000e+03" nB="5.9243920898437500e+03" nEv="1.2105863281250000e+04" nSuw="1.1660000000000000e+03" nBuw="9.0740000000000000e+03" nEvuw="1.0240000000000000e+04" sepI="2.4988725781440735e-01" sepG="2.9799583435058594e+01" res="-9.9000000000000000e+01" rms="0.0000000000000000e+00" nType="0" CC="2.9799449613498382e+01">
          <Node pos="l" depth="2" Seq="0" IVar="6" Cut="1.7514568567276001e+00" cType="1" nS="6.1118203125000000e+03" nB="5.6669062500000000e+03" nEv="1.1778726562500000e+04" nSuw="1.1520000000000000e+03" nBuw="8.6920000000000000e+03" nEvuw="9.8440000000000000e+03" sepI="2.4964331090450287e-01" sepG="2.7028463363647461e+01" res="-9.9000000000000000e+01" rms="0.0000000000000000e+00" nType="0" CC="2.7028573840943864e+01">
            <Node pos="l" depth="3" Seq="0" IVar="-1" Cut="0.0000000000000000e+00" cType="1" nS="5.5505703125000000e+03" nB="4.7905600585937500e+03" nEv="1.0341130859375000e+04" nSuw="1.0410000000000000e+03" nBuw="7.5200000000000000e+03" nEvuw="8.5610000000000000e+03" sepI="2.4864965677261353e-01" sepG="-1.0000000000000000e+00" res="-9.9000000000000000e+01" rms="0.0000000000000000e+00" nType="1" CC="1.0000000000000000e+05"/>
            <Node pos="r" depth="3" Seq="4" IVar="-1" Cut="0.0000000000000000e+00" cType="1" nS="5.6125030517578125e+02" nB="8.7634588623046875e+02" nEv="1.4375961914062500e+03" nSuw="1.1100000000000000e+02" nBuw="1.1720000000000000e+03" nEvuw="1.2830000000000000e+03" sepI="2.3798978328704834e-01" sepG="-1.0000000000000000e+00" res="-9.9000000000000000e+01" rms="0.0000000000000000e+00" nType="-1" CC="1.0000000000000000e+05"/>
          </Node>
          <Node pos="r" depth="2" Seq="2" IVar="-1" Cut="1.8539694547653198e+00" cType="1" nS="6.9650276184082031e+01" nB="2.5748614501953125e+02" nEv="3.2713644409179688e+02" nSuw="1.4000000000000000e+01" nBuw="3.8200000000000000e+02" nEvuw="3.9600000000000000e+02" sepI="1.6757874190807343e-01" sepG="-1.0000000000000000e+00" res="-9.9000000000000000e+01" rms="0.0000000000000000e+00" nType="-1" CC="1.2488798247284308e+01"/>
        </Node>
        <Node pos="r" depth="1" Seq="1" IVar="4" Cut="-7.8536343574523926e-01" cType="0" nS="7.0132733154296875e+02" nB="1.3710556640625000e+03" nEv="2.0723830566406250e+03" nSuw="1.1000000000000000e+02" nBuw="3.8420000000000000e+03" nEvuw="3.9520000000000000e+03" sepI="2.2389057278633118e-01" sepG="3.7421436309814453e+01" res="-9.9000000000000000e+01" rms="0.0000000000000000e+00" nType="0" CC="3.7421450759428353e+01">
          <Node pos="l" depth="2" Seq="1" IVar="16" Cut="2.0000000000000000e+00" cType="1" nS="6.2244329833984375e+02" nB="8.4221795654296875e+02" nEv="1.4646612548828125e+03" nSuw="8.2000000000000000e+01" nBuw="2.3970000000000000e+03" nEvuw="2.4790000000000000e+03" sepI="2.4437113106250763e-01" sepG="3.2045974731445312e+01" res="-9.9000000000000000e+01" rms="0.0000000000000000e+00" nType="0" CC="2.0797577637359154e+01">
            <Node pos="l" depth="3" Seq="1" IVar="-1" Cut="0.0000000000000000e+00" cType="1" nS="5.0881536865234375e+02" nB="4.9810696411132812e+02" nEv="1.0069223632812500e+03" nSuw="5.1000000000000000e+01" nBuw="7.9400000000000000e+02" nEvuw="8.4500000000000000e+02" sepI="2.4997173249721527e-01" sepG="-1.0000000000000000e+00" res="-9.9000000000000000e+01" rms="0.0000000000000000e+00" nType="1" CC="1.0000000000000000e+05"/>
            <Node pos="r" depth="3" Seq="5" IVar="-1" Cut="0.0000000000000000e+00" cType="1" nS="1.1362792968750000e+02" nB="3.4411102294921875e+02" nEv="4.5773892211914062e+02" nSuw="3.1000000000000000e+01" nBuw="1.6030000000000000e+03" nEvuw="1.6340000000000000e+03" sepI="1.8661560118198395e-01" sepG="-1.0000000000000000e+00" res="-9.9000000000000000e+01" rms="0.0000000000000000e+00" nType="-1" CC="1.0000000000000000e+05"/>
          </Node>
          <Node pos="r" depth="2" Seq="3" IVar="-1" Cut="4.0346467494964600e-01" cType="1" nS="7.8884002685546875e+01" nB="5.2883770751953125e+02" nEv="6.0772167968750000e+02" nSuw="2.8000000000000000e+01" nBuw="1.4450000000000000e+03" nEvuw="1.4730000000000000e+03" sepI="1.1295406520366669e-01" sepG="-1.0000000000000000e+00" res="-9.9000000000000000e+01" rms="0.0000000000000000e+00" nType="-1" CC="9.5773125224659168e+00"/>
        </Node>
      </Node>
    </BinaryTree>
    <BinaryTree type="DecisionTree" boostWeight="4.2099019229003387e-01" itree="10">
      <Node pos="s" depth="0" Seq="0" IVar="5" Cut="2.3943939208984375e+00" cType="1" nS="6.2512807617187500e+03" nB="7.9269653320312500e+03" nEv="1.4178246093750000e+04" nSuw="1.2760000000000000e+03" nBuw="1.2916000000000000e+04" nEvuw="1.4192000000000000e+04" sepI="2.4650795757770538e-01" sepG="4.1418708801269531e+01" res="-9.9000000000000000e+01" rms="0.0000000000000000e+00" nType="0" CC="4.5402667590102737e+01">
        <Node pos="l" depth="1" Seq="0" IVar="14" Cut="2.6927475929260254e+00" cType="0" nS="2.6518139648437500e+03" nB="2.5258059082031250e+03" nEv="5.1776201171875000e+03" nSuw="6.7600000000000000e+02" nBuw="4.0880000000000000e+03" nEvuw="4.7640000000000000e+03" sepI="2.4985192716121674e-01" sepG="2.2802824020385742e+01" res="-9.9000000000000000e+01" rms="0.0000000000000000e+00" nType="0" CC="2.9153551351672302e+01">
          <Node pos="l" depth="2" Seq="0" IVar="12" Cut="-5.4316829681396484e+01" cType="0" nS="4.4405197143554688e+02" nB="2.0134381103515625e+02" nEv="6.4539581298828125e+02" nSuw="4.5000000000000000e+01" nBuw="1.2060000000000000e+03" nEvuw="1.2510000000000000e+03" sepI="2.1464453637599945e-01" sepG="3.1449586868286133e+01" res="-9.9000000000000000e+01" rms="0.0000000000000000e+00" nType="0" CC="3.1449580938388578e+01">
            <Node pos="l" depth="3" Seq="0" IVar="-1" Cut="0.0000000000000000e+00" cType="1" nS="4.1969128417968750e+02" nB="1.1119130706787109e+02" nEv="5.3088256835937500e+02" nSuw="3.2000000000000000e+01" nBuw="3.4900000000000000e+02" nEvuw="3.8100000000000000e+02" sepI="1.6557845473289490e-01" sepG="-1.0000000000000000e+00" res="-9.9000000000000000e+01" rms="0.0000000000000000e+00" nType="1" CC="1.0000000000000000e+05"/>
            <Node pos="r" depth="3" Seq="4" IVar="-1" Cut="0.0000000000000000e+00" cType="1" nS="2.4360691070556641e+01" nB="9.0152511596679688e+01" nEv="1.1451319885253906e+02" nSuw="1.3000000000000000e+01" nBuw="8.5700000000000000e+02" nEvuw="8.7000000000000000e+02" sepI="1.6747744381427765e-01" sepG="-1.0000000000000000e+00" res="-9.9000000000000000e+01" rms="0.0000000000000000e+00" nType="-1" CC="1.0000000000000000e+05"/>
          </Node>
          <Node pos="r" depth="2" Seq="2" IVar="6" Cut="9.9801844358444214e-01" cType="1" nS="2.2077619628906250e+03" nB="2.3244621582031250e+03" nEv="4.5322241210937500e+03" nSuw="6.3100000000000000e+02" nBuw="2.8820000000000000e+03" nEvuw="3.5130000000000000e+03" sepI="2.4983425438404083e-01" sepG="3.3208286285400391e+01" res="-9.9000000000000000e+01" rms="0.0000000000000000e+00" nType="0" CC="3.3208282229923498e+01">
            <Node pos="l" depth="3" Seq="2" IVar="-1" Cut="0.0000000000000000e+00" cType="1" nS="1.3997128906250000e+03" nB="1.0772210693359375e+03" nEv="2.4769338378906250e+03" nSuw="3.7500000000000000e+02" nBuw="1.6520000000000000e+03" nEvuw="2.0270000000000000e+03" sepI="2.4576212465763092e-01" sepG="-1.0000000000000000e+00" res="-9.9000000000000000e+01" rms="0.0000000000000000e+00" nType="1" CC="1.0000000000000000e+05"/>
            <Node pos="r" depth="3" Seq="6" IVar="-1" Cut="0.0000000000000000e+00" cType="1" nS="8.0804913330078125e+02" nB="1.2472410888671875e+03" nEv="2.0552902832031250e+03" nSuw="2.5600000000000000e+02" nBuw="1.2300000000000000e+03" nEvuw="1.4860000000000000e+03" sepI="2.3858430981636047e-01" sepG="-1.0000000000000000e+00" res="-9.9000000000000000e+01" rms="0.0000000000000000e+00" nType="-1" CC="1.0000000000000000e+05"/>
          </Node>
        </Node>
        <Node pos="r" depth="1" Seq="1" IVar="0" Cut="1.2762525177001953e+02" cType="1" nS="3.5994665527343750e+03" nB="5.4011591796875000e+03" nEv="9.0006259765625000e+03" nSuw="6.0000000000000000e+02" nBuw="8.8280000000000000e+03" nEvuw="9.4280000000000000e+03" sepI="2.3998257517814636e-01" sepG="4.9386623382568359e+01" res="-9.9000000000000000e+01" rms="0.0000000000000000e+00" nType="0" CC="4.9386493446080749e+01">
          <Node pos="l" depth="2" Seq="1" IVar="-1" Cut="3.9807727813720703e+01" cType="0" nS="3.5417958984375000e+03" nB="4.9186440429687500e+03" nEv="8.4604404296875000e+03" nSuw="5.6800000000000000e+02" nBuw="8.1470000000000000e+03" nEvuw="8.7150000000000000e+03" sepI="2.4337896704673767e-01" sepG="-1.0000000000000000e+00" res="-9.9000000000000000e+01" rms="0.0000000000000000e+00" nType="-1" CC="1.0000000000000000e+05"/>
          <Node pos="r" depth="2" Seq="3" IVar="10" Cut="9.1732139587402344e+01" cType="0" nS="5.7670680999755859e+01" nB="4.8251538085937500e+02" nEv="5.4018609619140625e+02" nSuw="3.2000000000000000e+01" nBuw="6.8100000000000000e+02" nEvuw="7.1300000000000000e+02" sepI="9.5362909138202667e-02" sepG="1.2079686164855957e+01" res="-9.9000000000000000e+01" rms="0.0000000000000000e+00" nType="0" CC="1.2079686080221066e+01">
            <Node pos="l" depth="3" Seq="3" IVar="-1" Cut="0.0000000000000000e+00" cType="1" nS="3.3030071258544922e+01" nB="3.1294116973876953e+01" nEv="6.4324188232421875e+01" nSuw="2.1000000000000000e+01" nBuw="1.6800000000000000e+02" nEvuw="1.8900000000000000e+02" sepI="2.4981792271137238e-01" sepG="-1.0000000000000000e+00" res="-9.9000000000000000e+01" rms="0.0000000000000000e+00" nType="1" CC="1.0000000000000000e+05"/>
            <Node pos="r" depth="3" Seq="7" IVar="-1" Cut="0.0000000000000000e+00" cType="1" nS="2.4640607833862305e+01" nB="4.5122128295898438e+02" nEv="4.7586187744140625e+02" nSuw="1.1000000000000000e+01" nBuw="5.1300000000000000e+02" nEvuw="5.2400000000000000e+02" sepI="4.9099735915660858e-02" sepG="-1.0000000000000000e+00" res="-9.9000000000000000e+01" rms="0.0000000000000000e+00" nType="-1" CC="1.0000000000000000e+05"/>
          </Node>
        </Node>
      </Node>
    </BinaryTree>
    <BinaryTree type="DecisionTree" boostWeight="2.4541593850243990e-01" itree="11">
      <Node pos="s" depth="0" Seq="0" IVar="0" Cut="1.3197190856933594e+02" cType="1" nS="7.0843598632812500e+03" nB="7.0938862304687500e+03" nEv="1.4178246093750000e+04" nSuw="1.2760000000000000e+03" nBuw="1.2916000000000000e+04" nEvuw="1.4192000000000000e+04" sepI="2.4999988079071045e-01" sepG="4.7645282745361328e+01" res="-9.9000000000000000e+01" rms="0.0000000000000000e+00" nType="0" CC="4.7645323162611021e+01">
        <Node pos="l" depth="1" Seq="0" IVar="17" Cut="3.2756469249725342e+00" cType="0" nS="6.8781083984375000e+03" nB="6.5100234375000000e+03" nEv="1.3388131835937500e+04" nSuw="1.2250000000000000e+03" nBuw="1.1882000000000000e+04" nEvuw="1.3107000000000000e+04" sepI="2.4981102347373962e-01" sepG="2.4536468505859375e+01" res="-9.9000000000000000e+01" rms="0.0000000000000000e+00" nType="0" CC="3.7207642218988440e+01">
          <Node pos="l" depth="2" Seq="0" IVar="3" Cut="9.3997856140136719e+01" cType="1" nS="1.8715935058593750e+03" nB="1.2972391357421875e+03" nEv="3.1688327636718750e+03" nSuw="6.4000000000000000e+02" nBuw="2.3410000000000000e+03" nEvuw="2.9810000000000000e+03" sepI="2.4178701639175415e-01" sepG="3.2860347747802734e+01" res="-9.9000000000000000e+01" rms="0.0000000000000000e+00" nType="0" CC="3.2860352493685241e+01">
            <Node pos="l" depth="3" Seq="0" IVar="-1" Cut="0.0000000000000000e+00" cType="1" nS="1.8006805419921875e+03" nB="1.0946638183593750e+03" nEv="2.8953444824218750e+03" nSuw="5.7400000000000000e+02" nBuw="1.9760000000000000e+03" nEvuw="2.5500000000000000e+03" sepI="2.3513484001159668e-01" sepG="-1.0000000000000000e+00" res="-9.9000000000000000e+01" rms="0.0000000000000000e+00" nType="1" CC="1.0000000000000000e+05"/>
            <Node pos="r" depth="3" Seq="4" IVar="-1" Cut="0.0000000000000000e+00" cType="1" nS="7.0912979125976562e+01" nB="2.0257536315917969e+02" nEv="2.7348834228515625e+02" nSuw="6.6000000000000000e+01" nBuw="3.6500000000000000e+02" nEvuw="4.3100000000000000e+02" sepI="1.9205902516841888e-01" sepG="-1.0000000000000000e+00" res="-9.9000000000000000e+01" rms="0.0000000000000000e+00" nType="-1" CC="1.0000000000000000e+05"/>
          </Node>
          <Node pos="r" depth="2" Seq="2" IVar="18" Cut="4.5490515136718750e+02" cType="1" nS="5.0065151367187500e+03" nB="5.2127846679687500e+03" nEv="1.0219299804687500e+04" nSuw="5.8500000000000000e+02" nBuw="9.5410000000000000e+03" nEvuw="1.0126000000000000e+04" sepI="2.4989815056324005e-01" sepG="4.9878967285156250e+01" res="-9.9000000000000000e+01" rms="0.0000000000000000e+00" nType="0" CC="4.9879079201402419e+01">
            <Node pos="l" depth="3" Seq="2" IVar="-1" Cut="0.0000000000000000e+00" cType="1" nS="4.9470957031250000e+03" nB="4.8663056640625000e+03" nEv="9.8134013671875000e+03" nSuw="5.5700000000000000e+02" nBuw="9.2840000000000000e+03" nEvuw="9.8410000000000000e+03" sepI="2.4998305737972260e-01" sepG="-1.0000000000000000e+00" res="-9.9000000000000000e+01" rms="0.0000000000000000e+00" nType="1" CC="1.0000000000000000e+05"/>
            <Node pos="r" depth="3" Seq="6" IVar="-1" Cut="0.0000000000000000e+00" cType="1" nS="5.9419357299804688e+01" nB="3.4647866821289062e+02" nEv="4.0589804077148438e+02" nSuw="2.8000000000000000e+01" nBuw="2.5700000000000000e+02" nEvuw="2.8500000000000000e+02" sepI="1.2495987117290497e-01" sepG="-1.0000000000000000e+00" res="-9.9000000000000000e+01" rms="0.0000000000000000e+00" nType="-1" CC="1.0000000000000000e+05"/>
          </Node>
        </Node>
        <Node pos="r" depth="1" Seq="1" IVar="12" Cut="3.4263088226318359e+01" cType="0" nS="2.0625152587890625e+02" nB="5.8386248779296875e+02" nEv="7.9011401367187500e+02" nSuw="5.1000000000000000e+01" nBuw="1.0340000000000000e+03" nEvuw="1.0850000000000000e+03" sepI="1.9289822876453400e-01" sepG="2.0446859359741211e+01" res="-9.9000000000000000e+01" rms="0.0000000000000000e+00" nType="0" CC="2.5358714792989304e+01">
          <Node pos="l" depth="2" Seq="1" IVar="14" Cut="6.3109278678894043e-01" cType="0" nS="2.0625152587890625e+02" nB="3.6638980102539062e+02" nEv="5.7264135742187500e+02" nSuw="5.1000000000000000e+01" nBuw="2.1900000000000000e+02" nEvuw="2.7000000000000000e+02" sepI="2.3044918477535248e-01" sepG="3.0270566940307617e+01" res="-9.9000000000000000e+01" rms="0.0000000000000000e+00" nType="0" CC="3.0270562780408454e+01">
            <Node pos="l" depth="3" Seq="1" IVar="-1" Cut="0.0000000000000000e+00" cType="1" nS="1.0868723297119141e+02" nB="3.4704830169677734e+01" nEv="1.4339205932617188e+02" nSuw="7.0000000000000000e+00" nBuw="4.8000000000000000e+01" nEvuw="5.5000000000000000e+01" sepI="1.8345022201538086e-01" sepG="-1.0000000000000000e+00" res="-9.9000000000000000e+01" rms="0.0000000000000000e+00" nType="1" CC="1.0000000000000000e+05"/>
            <Node pos="r" depth="3" Seq="5" IVar="-1" Cut="0.0000000000000000e+00" cType="1" nS="9.7564300537109375e+01" nB="3.3168496704101562e+02" nEv="4.2924926757812500e+02" nSuw="4.4000000000000000e+01" nBuw="1.7100000000000000e+02" nEvuw="2.1500000000000000e+02" sepI="1.7562955617904663e-01" sepG="-1.0000000000000000e+00" res="-9.9000000000000000e+01" rms="0.0000000000000000e+00" nType="-1" CC="1.0000000000000000e+05"/>
          </Node>
          <Node pos="r" depth="2" Seq="3" IVar="0" Cut="1.4898544311523438e+02" cType="0" nS="0.0000000000000000e+00" nB="2.1747265625000000e+02" nEv="2.1747265625000000e+02" nSuw="0.0000000000000000e+00" nBuw="8.1500000000000000e+02" nEvuw="8.1500000000000000e+02" sepI="0.0000000000000000e+00" sepG="0.0000000000000000e+00" res="-9.9000000000000000e+01" rms="0.0000000000000000e+00" nType="-1" CC="1.0000000000000000e+05"/>
        </Node>
      </Node>
    </BinaryTree>
    <BinaryTree type="DecisionTree" boostWeight="4.3745594228247914e-01" itree="12">
      <Node pos="s" depth="0" Seq="0" IVar="17" Cut="3.2756469249725342e+00" cType="0" nS="6.3700000000000000e+03" nB="7.8082460937500000e+03" nEv="1.4178246093750000e+04" nSuw="1.2760000000000000e+03" nBuw="1.2916000000000000e+04" nEvuw="1.4192000000000000e+04" sepI="2.4742746353149414e-01" sepG="3.0154621124267578e+01" res="-9.9000000000000000e+01" rms="0.0000000000000000e+00" nType="0" CC="3.5626413798714019e+01">
        <Node pos="l" depth="1" Seq="0" IVar="10" Cut="4.6478664398193359e+01" cType="0" nS="1.7051964111328125e+03" nB="1.4826239013671875e+03" nEv="3.1878203125000000e+03" nSuw="6.6000000000000000e+02" nBuw="2.4530000000000000e+03" nEvuw="3.1130000000000000e+03" sepI="2.4878130853176117e-01" sepG="3.2269077301025391e+01" res="-9.9000000000000000e+01" rms="0.0000000000000000e+00" nType="0" CC="3.5741715497620589e+01">
          <Node pos="l" depth="2" Seq="0" IVar="-1" Cut="2.1904761791229248e+00" cType="1" nS="8.7918688964843750e+02" nB="4.6823785400390625e+02" nEv="1.3474246826171875e+03" nSuw="5.1100000000000000e+02" nBuw="1.1490000000000000e+03" nEvuw="1.6600000000000000e+03" sepI="2.2674550116062164e-01" sepG="-1.0000000000000000e+00" res="-9.9000000000000000e+01" rms="0.0000000000000000e+00" nType="1" CC="1.0000000000000000e+05"/>
          <Node pos="r" depth="2" Seq="2" IVar="9" Cut="7.4670815467834473e-01" cType="1" nS="8.2600958251953125e+02" nB="1.0143859863281250e+03" nEv="1.8403956298828125e+03" nSuw="1.4900000000000000e+02" nBuw="1.3040000000000000e+03" nEvuw="1.4530000000000000e+03" sepI="2.4738079309463501e-01" sepG="3.9214344024658203e+01" res="-9.9000000000000000e+01" rms="0.0000000000000000e+00" nType="0" CC="3.9214336492421353e+01">
            <Node pos="l" depth="3" Seq="2" IVar="-1" Cut="0.0000000000000000e+00" cType="1" nS="5.9526062011718750e+02" nB="4.3383895874023438e+02" nEv="1.0290994873046875e+03" nSuw="1.0700000000000000e+02" nBuw="4.4600000000000000e+02" nEvuw="5.5300000000000000e+02" sepI="2.4384894967079163e-01" sepG="-1.0000000000000000e+00" res="-9.9000000000000000e+01" rms="0.0000000000000000e+00" nType="1" CC="1.0000000000000000e+05"/>
            <Node pos="r" depth="3" Seq="6" IVar="-1" Cut="0.0000000000000000e+00" cType="1" nS="2.3074900817871094e+02" nB="5.8054705810546875e+02" nEv="8.1129602050781250e+02" nSuw="4.2000000000000000e+01" nBuw="8.5800000000000000e+02" nEvuw="9.0000000000000000e+02" sepI="2.0352536439895630e-01" sepG="-1.0000000000000000e+00" res="-9.9000000000000000e+01" rms="0.0000000000000000e+00" nType="-1" CC="1.0000000000000000e+05"/>
          </Node>
        </Node>
        <Node pos="r" depth="1" Seq="1" IVar="18" Cut="6.7264202880859375e+02" cType="1" nS="4.6648037109375000e+03" nB="6.3256220703125000e+03" nEv="1.0990425781250000e+04" nSuw="6.1600000000000000e+02" nBuw="1.0463000000000000e+04" nEvuw="1.1079000000000000e+04" sepI="2.4429106712341309e-01" sepG="3.5139835357666016e+01" res="-9.9000000000000000e+01" rms="0.0000000000000000e+00" nType="0" CC="3.8247060323281403e+01">
          <Node pos="l" depth="2" Seq="1" IVar="18" Cut="5.0349742889404297e+01" cType="1" nS="4.6534951171875000e+03" nB="6.0958105468750000e+03" nEv="1.0749305664062500e+04" nSuw="6.1100000000000000e+02" nBuw="1.0377000000000000e+04" nEvuw="1.0988000000000000e+04" sepI="2.4549908936023712e-01" sepG="4.1354171752929688e+01" res="-9.9000000000000000e+01" rms="0.0000000000000000e+00" nType="0" CC="4.1354197785546148e+01">
            <Node pos="l" depth="3" Seq="1" IVar="-1" Cut="0.0000000000000000e+00" cType="1" nS="4.6588781738281250e+02" nB="2.3105557250976562e+02" nEv="6.9694342041015625e+02" nSuw="3.5000000000000000e+01" nBuw="6.3400000000000000e+02" nEvuw="6.6900000000000000e+02" sepI="2.2161684930324554e-01" sepG="-1.0000000000000000e+00" res="-9.9000000000000000e+01" rms="0.0000000000000000e+00" nType="1" CC="1.0000000000000000e+05"/>
            <Node pos="r" depth="3" Seq="5" IVar="-1" Cut="0.0000000000000000e+00" cType="1" nS="4.1876069335937500e+03" nB="5.8647548828125000e+03" nEv="1.0052362304687500e+04" nSuw="5.7600000000000000e+02" nBuw="9.7430000000000000e+03" nEvuw="1.0319000000000000e+04" sepI="2.4304100871086121e-01" sepG="-1.0000000000000000e+00" res="-9.9000000000000000e+01" rms="0.0000000000000000e+00" nType="-1" CC="1.0000000000000000e+05"/>
          </Node>
          <Node pos="r" depth="2" Seq="3" IVar="-1" Cut="3.7749126553535461e-01" cType="1" nS="1.1308537483215332e+01" nB="2.2981182861328125e+02" nEv="2.4112036132812500e+02" nSuw="5.0000000000000000e+00" nBuw="8.6000000000000000e+01" nEvuw="9.1000000000000000e+01" sepI="4.4700361788272858e-02" sepG="-1.0000000000000000e+00" res="-9.9000000000000000e+01" rms="0.0000000000000000e+00" nType="-1" CC="1.0000000000000000e+05"/>
        </Node>
      </Node>
    </BinaryTree>
    <BinaryTree type="DecisionTree" boostWeight="2.3157167442934920e-01" itree="13">
      <Node pos="s" depth="0" Seq="0" IVar="15" Cut="2.2944276428222656e+02" cType="1" nS="7.2416630859375000e+03" nB="6.9365830078125000e+03" nEv="1.4178246093750000e+04" nSuw="1.2760000000000000e+03" nBuw="1.2916000000000000e+04" nEvuw="1.4192000000000000e+04" sepI="2.4988424777984619e-01" sepG="3.3165477752685547e+01" res="-9.9000000000000000e+01" rms="0.0000000000000000e+00" nType="0" CC="3.3165368510542976e+01">
        <Node pos="l" depth="1" Seq="0" IVar="16" Cut="6.5714287757873535e+00" cType="1" nS="7.1548627929687500e+03" nB="6.6340317382812500e+03" nEv="1.3788894531250000e+04" nSuw="1.2660000000000000e+03" nBuw="9.9070000000000000e+03" nEvuw="1.1173000000000000e+04" sepI="2.4964332580566406e-01" sepG="2.8247245788574219e+01" res="-9.9000000000000000e+01" rms="0.0000000000000000e+00" nType="0" CC="2.8914184996541053e+01">
          <Node pos="l" depth="2" Seq="0" IVar="13" Cut="3.5930049896240234e+01" cType="0" nS="6.7724741210937500e+03" nB="5.9595000000000000e+03" nEv="1.2731973632812500e+04" nSuw="1.0850000000000000e+03" nBuw="6.5820000000000000e+03" nEvuw="7.6670000000000000e+03" sepI="2.4898070096969604e-01" sepG="2.9581104278564453e+01" res="-9.9000000000000000e+01" rms="0.0000000000000000e+00" nType="0" CC="2.9581046685176261e+01">
            <Node pos="l" depth="3" Seq="0" IVar="-1" Cut="0.0000000000000000e+00" cType="1" nS="2.5858798828125000e+03" nB="1.7293562011718750e+03" nEv="4.3152358398437500e+03" nSuw="6.1900000000000000e+02" nBuw="1.8700000000000000e+03" nEvuw="2.4890000000000000e+03" sepI="2.4015060067176819e-01" sepG="-1.0000000000000000e+00" res="-9.9000000000000000e+01" rms="0.0000000000000000e+00" nType="1" CC="1.0000000000000000e+05"/>
            <Node pos="r" depth="3" Seq="4" IVar="-1" Cut="0.0000000000000000e+00" cType="1" nS="4.1865942382812500e+03" nB="4.2301440429687500e+03" nEv="8.4167382812500000e+03" nSuw="4.6600000000000000e+02" nBuw="4.7120000000000000e+03" nEvuw="5.1780000000000000e+03" sepI="2.4999330937862396e-01" sepG="-1.0000000000000000e+00" res="-9.9000000000000000e+01" rms="0.0000000000000000e+00" nType="-1" CC="1.0000000000000000e+05"/>
          </Node>
          <Node pos="r" depth="2" Seq="2" IVar="17" Cut="3.7745261192321777e-01" cType="1" nS="3.8238882446289062e+02" nB="6.7453143310546875e+02" nEv="1.0569202880859375e+03" nSuw="1.8100000000000000e+02" nBuw="3.3250000000000000e+03" nEvuw="3.5060000000000000e+03" sepI="2.3089946806430817e-01" sepG="2.4150094985961914e+01" res="-9.9000000000000000e+01" rms="0.0000000000000000e+00" nType="0" CC="2.4150085486498483e+01">
            <Node pos="l" depth="3" Seq="2" IVar="-1" Cut="0.0000000000000000e+00" cType="1" nS="1.1795900726318359e+02" nB="4.7583942413330078e+01" nEv="1.6554295349121094e+02" nSuw="1.9000000000000000e+01" nBuw="5.1600000000000000e+02" nEvuw="5.3500000000000000e+02" sepI="2.0481896400451660e-01" sepG="-1.0000000000000000e+00" res="-9.9000000000000000e+01" rms="0.0000000000000000e+00" nType="1" CC="1.0000000000000000e+05"/>
            <Node pos="r" depth="3" Seq="6" IVar="-1" Cut="0.0000000000000000e+00" cType="1" nS="2.6442984008789062e+02" nB="6.2694750976562500e+02" nEv="8.9137731933593750e+02" nSuw="1.6200000000000000e+02" nBuw="2.8090000000000000e+03" nEvuw="2.9710000000000000e+03" sepI="2.0865002274513245e-01" sepG="-1.0000000000000000e+00" res="-9.9000000000000000e+01" rms="0.0000000000000000e+00" nType="-1" CC="1.0000000000000000e+05"/>
          </Node>
        </Node>
        <Node pos="r" depth="1" Seq="1" IVar="-1" Cut="3.7731835246086121e-01" cType="1" nS="8.6800422668457031e+01" nB="3.0255133056640625e+02" nEv="3.8935174560546875e+02" nSuw="1.0000000000000000e+01" nBuw="3.0090000000000000e+03" nEvuw="3.0190000000000000e+03" sepI="1.7323538661003113e-01" sepG="-1.0000000000000000e+00" res="-9.9000000000000000e+01" rms="0.0000000000000000e+00" nType="-1" CC="1.4609509069790995e+01"/>
      </Node>
    </BinaryTree>
    <BinaryTree type="DecisionTree" boostWeight="2.4931760485984439e-01" itree="14">
      <Node pos="s" depth="0" Seq="0" IVar="15" Cut="2.2944276428222656e+02" cType="1" nS="7.5351420898437500e+03" nB="6.6431040039062500e+03" nEv="1.4178246093750000e+04" nSuw="1.2760000000000000e+03" nBuw="1.2916000000000000e+04" nEvuw="1.4192000000000000e+04" sepI="2.4901039898395538e-01" sepG="3.5290420532226562e+01" res="-9.9000000000000000e+01" rms="0.0000000000000000e+00" nType="0" CC="3.5290406746580629e+01">
        <Node pos="l" depth="1" Seq="0" IVar="16" Cut="1.0952380895614624e+00" cType="1" nS="7.4553251953125000e+03" nB="6.3635341796875000e+03" nEv="1.3818859375000000e+04" nSuw="1.2660000000000000e+03" nBuw="9.9070000000000000e+03" nEvuw="1.1173000000000000e+04" sepI="2.4843946099281311e-01" sepG="3.0120250701904297e+01" res="-9.9000000000000000e+01" rms="0.0000000000000000e+00" nType="0" CC="3.3279964370256039e+01">
          <Node pos="l" depth="2" Seq="0" IVar="-1" Cut="3.6773853302001953e+01" cType="0" nS="4.1277929687500000e+03" nB="2.9255129394531250e+03" nEv="7.0533061523437500e+03" nSuw="6.0900000000000000e+02" nBuw="2.5540000000000000e+03" nEvuw="3.1630000000000000e+03" sepI="2.4273617565631866e-01" sepG="-1.0000000000000000e+00" res="-9.9000000000000000e+01" rms="0.0000000000000000e+00" nType="1" CC="1.0000000000000000e+05"/>
          <Node pos="r" depth="2" Seq="2" IVar="0" Cut="3.8286254882812500e+01" cType="0" nS="3.3275322265625000e+03" nB="3.4380209960937500e+03" nEv="6.7655532226562500e+03" nSuw="6.5700000000000000e+02" nBuw="7.3530000000000000e+03" nEvuw="8.0100000000000000e+03" sepI="2.4993331730365753e-01" sepG="3.6439651489257812e+01" res="-9.9000000000000000e+01" rms="0.0000000000000000e+00" nType="0" CC="3.6439616304301126e+01">
            <Node pos="l" depth="3" Seq="2" IVar="-1" Cut="0.0000000000000000e+00" cType="1" nS="3.2896816406250000e+03" nB="3.1988652343750000e+03" nEv="6.4885468750000000e+03" nSuw="6.4300000000000000e+02" nBuw="7.0860000000000000e+03" nEvuw="7.7290000000000000e+03" sepI="2.4995101988315582e-01" sepG="-1.0000000000000000e+00" res="-9.9000000000000000e+01" rms="0.0000000000000000e+00" nType="1" CC="1.0000000000000000e+05"/>
            <Node pos="r" depth="3" Seq="6" IVar="-1" Cut="0.0000000000000000e+00" cType="1" nS="3.7850605010986328e+01" nB="2.3915583801269531e+02" nEv="2.7700643920898438e+02" nSuw="1.4000000000000000e+01" nBuw="2.6700000000000000e+02" nEvuw="2.8100000000000000e+02" sepI="1.1797066777944565e-01" sepG="-1.0000000000000000e+00" res="-9.9000000000000000e+01" rms="0.0000000000000000e+00" nType="-1" CC="1.0000000000000000e+05"/>
          </Node>
        </Node>
        <Node pos="r" depth="1" Seq="1" IVar="9" Cut="3.7731835246086121e-01" cType="1" nS="7.9817108154296875e+01" nB="2.7956988525390625e+02" nEv="3.5938699340820312e+02" nSuw="1.0000000000000000e+01" nBuw="3.0090000000000000e+03" nEvuw="3.0190000000000000e+03" sepI="1.7276734113693237e-01" sepG="1.2180266380310059e+01" res="-9.9000000000000000e+01" rms="0.0000000000000000e+00" nType="0" CC="1.2180261303965381e+01">
          <Node pos="l" depth="2" Seq="1" IVar="-1" Cut="3.6192661523818970e-01" cType="0" nS="3.2666847229003906e+01" nB="1.4147852897644043e+01" nEv="4.6814701080322266e+01" nSuw="1.0000000000000000e+00" nBuw="4.3000000000000000e+02" nEvuw="4.3100000000000000e+02" sepI="2.1087896823883057e-01" sepG="-1.0000000000000000e+00" res="-9.9000000000000000e+01" rms="0.0000000000000000e+00" nType="1" CC="9.3102942288582984e+00"/>
          <Node pos="r" depth="2" Seq="3" IVar="-1" Cut="3.2692518234252930e+00" cType="0" nS="4.7150260925292969e+01" nB="2.6542205810546875e+02" nEv="3.1257229614257812e+02" nSuw="9.0000000000000000e+00" nBuw="2.5790000000000000e+03" nEvuw="2.5880000000000000e+03" sepI="1.2809143960475922e-01" sepG="-1.0000000000000000e+00" res="-9.9000000000000000e+01" rms="0.0000000000000000e+00" nType="-1" CC="1.0000000000000000e+05"/>
        </Node>
      </Node>
    </BinaryTree>
    <BinaryTree type="DecisionTree" boostWeight="4.7042789137435426e-01" itree="15">
      <Node pos="s" depth="0" Seq="0" IVar="12" Cut="3.2925708770751953e+01" cType="0" nS="6.7251738281250000e+03" nB="7.4530722656250000e+03" nEv="1.4178246093750000e+04" nSuw="1.2760000000000000e+03" nBuw="1.2916000000000000e+04" nEvuw="1.4192000000000000e+04" sepI="2.4934107065200806e-01" sepG="3.1437149047851562e+01" res="-9.9000000000000000e+01" rms="0.0000000000000000e+00" nType="0" CC="4.2699753513737882e+01">
        <Node pos="l" depth="1" Seq="0" IVar="16" Cut="1.9047619104385376e+00" cType="1" nS="2.4353276367187500e+03" nB="2.0445620117187500e+03" nEv="4.4798896484375000e+03" nSuw="6.6700000000000000e+02" nBuw="2.1080000000000000e+03" nEvuw="2.7750000000000000e+03" sepI="2.4809788167476654e-01" sepG="3.9545856475830078e+01" res="-9.9000000000000000e+01" rms="0.0000000000000000e+00" nType="0" CC="4.3090998210288184e+01">
          <Node pos="l" depth="2" Seq="0" IVar="4" Cut="-1.0723603963851929e+00" cType="0" nS="1.6135546875000000e+03" nB="9.7215203857421875e+02" nEv="2.5857067871093750e+03" nSuw="3.5900000000000000e+02" nBuw="7.1700000000000000e+02" nEvuw="1.0760000000000000e+03" sepI="2.3461693525314331e-01" sepG="4.6514896392822266e+01" res="-9.9000000000000000e+01" rms="0.0000000000000000e+00" nType="0" CC="4.6514929406062038e+01">
            <Node pos="l" depth="3" Seq="0" IVar="-1" Cut="0.0000000000000000e+00" cType="1" nS="1.4155694580078125e+03" nB="6.2639093017578125e+02" nEv="2.0419604492187500e+03" nSuw="2.8100000000000000e+02" nBuw="5.1300000000000000e+02" nEvuw="7.9400000000000000e+02" sepI="2.1265813708305359e-01" sepG="-1.0000000000000000e+00" res="-9.9000000000000000e+01" rms="0.0000000000000000e+00" nType="1" CC="1.0000000000000000e+05"/>
            <Node pos="r" depth="3" Seq="4" IVar="-1" Cut="0.0000000000000000e+00" cType="1" nS="1.9798516845703125e+02" nB="3.4576110839843750e+02" nEv="5.4374627685546875e+02" nSuw="7.8000000000000000e+01" nBuw="2.0400000000000000e+02" nEvuw="2.8200000000000000e+02" sepI="2.3153476417064667e-01" sepG="-1.0000000000000000e+00" res="-9.9000000000000000e+01" rms="0.0000000000000000e+00" nType="-1" CC="1.0000000000000000e+05"/>
          </Node>
          <Node pos="r" depth="2" Seq="2" IVar="2" Cut="9.0631401062011719e+01" cType="0" nS="8.2177288818359375e+02" nB="1.0724100341796875e+03" nEv="1.8941828613281250e+03" nSuw="3.0800000000000000e+02" nBuw="1.3910000000000000e+03" nEvuw="1.6990000000000000e+03" sepI="2.4562288820743561e-01" sepG="4.3212181091308594e+01" res="-9.9000000000000000e+01" rms="0.0000000000000000e+00" nType="0" CC="4.3212201029786229e+01">
            <Node pos="l" depth="3" Seq="2" IVar="-1" Cut="0.0000000000000000e+00" cType="1" nS="5.1779479980468750e+02" nB="3.4723333740234375e+02" nEv="8.6502819824218750e+02" nSuw="1.4100000000000000e+02" nBuw="4.6000000000000000e+02" nEvuw="6.0100000000000000e+02" sepI="2.4028055369853973e-01" sepG="-1.0000000000000000e+00" res="-9.9000000000000000e+01" rms="0.0000000000000000e+00" nType="1" CC="1.0000000000000000e+05"/>
            <Node pos="r" depth="3" Seq="6" IVar="-1" Cut="0.0000000000000000e+00" cType="1" nS="3.0397802734375000e+02" nB="7.2517663574218750e+02" nEv="1.0291546630859375e+03" nSuw="1.6700000000000000e+02" nBuw="9.3100000000000000e+02" nEvuw="1.0980000000000000e+03" sepI="2.0812521874904633e-01" sepG="-1.0000000000000000e+00" res="-9.9000000000000000e+01" rms="0.0000000000000000e+00" nType="-1" CC="1.0000000000000000e+05"/>
          </Node>
        </Node>
        <Node pos="r" depth="1" Seq="1" IVar="0" Cut="1.1024040985107422e+02" cType="1" nS="4.2898461914062500e+03" nB="5.4085102539062500e+03" nEv="9.6983564453125000e+03" nSuw="6.0900000000000000e+02" nBuw="1.0808000000000000e+04" nEvuw="1.1417000000000000e+04" sepI="2.4667383730411530e-01" sepG="5.0543846130371094e+01" res="-9.9000000000000000e+01" rms="0.0000000000000000e+00" nType="0" CC="4.7744198645339338e+01">
          <Node pos="l" depth="2" Seq="1" IVar="12" Cut="-1.1215200424194336e+01" cType="1" nS="4.2544697265625000e+03" nB="5.0523632812500000e+03" nEv="9.3068330078125000e+03" nSuw="6.0000000000000000e+02" nBuw="9.4330000000000000e+03" nEvuw="1.0033000000000000e+04" sepI="2.4816250801086426e-01" sepG="4.4944549560546875e+01" res="-9.9000000000000000e+01" rms="0.0000000000000000e+00" nType="0" CC="4.4944624080777430e+01">
            <Node pos="l" depth="3" Seq="1" IVar="-1" Cut="0.0000000000000000e+00" cType="1" nS="2.0255384521484375e+03" nB="1.7118526611328125e+03" nEv="3.7373911132812500e+03" nSuw="2.6400000000000000e+02" nBuw="5.9930000000000000e+03" nEvuw="6.2570000000000000e+03" sepI="2.4823886156082153e-01" sepG="-1.0000000000000000e+00" res="-9.9000000000000000e+01" rms="0.0000000000000000e+00" nType="1" CC="1.0000000000000000e+05"/>
            <Node pos="r" depth="3" Seq="5" IVar="-1" Cut="0.0000000000000000e+00" cType="1" nS="2.2289311523437500e+03" nB="3.3405104980468750e+03" nEv="5.5694418945312500e+03" nSuw="3.3600000000000000e+02" nBuw="3.4400000000000000e+03" nEvuw="3.7760000000000000e+03" sepI="2.4004141986370087e-01" sepG="-1.0000000000000000e+00" res="-9.9000000000000000e+01" rms="0.0000000000000000e+00" nType="-1" CC="1.0000000000000000e+05"/>
          </Node>
          <Node pos="r" depth="2" Seq="3" IVar="-1" Cut="4.6622300148010254e-01" cType="1" nS="3.5376480102539062e+01" nB="3.5614703369140625e+02" nEv="3.9152352905273438e+02" nSuw="9.0000000000000000e+00" nBuw="1.3750000000000000e+03" nEvuw="1.3840000000000000e+03" sepI="8.2191757857799530e-02" sepG="-1.0000000000000000e+00" res="-9.9000000000000000e+01" rms="0.0000000000000000e+00" nType="-1" CC="1.0000000000000000e+05"/>
        </Node>
      </Node>
    </BinaryTree>
    <BinaryTree type="DecisionTree" boostWeight="4.0262408129474780e-01" itree="16">
      <Node pos="s" depth="0" Seq="0" IVar="14" Cut="1.7952951192855835e+00" cType="1" nS="6.8131752929687500e+03" nB="7.3650708007812500e+03" nEv="1.4178246093750000e+04" nSuw="1.2760000000000000e+03" nBuw="1.2916000000000000e+04" nEvuw="1.4192000000000000e+04" sepI="2.4962119758129120e-01" sepG="3.1137657165527344e+01" res="-9.9000000000000000e+01" rms="0.0000000000000000e+00" nType="0" CC="3.2602403854049349e+01">
        <Node pos="l" depth="1" Seq="0" IVar="18" Cut="6.8168682861328125e+02" cType="1" nS="5.1453188476562500e+03" nB="4.9353339843750000e+03" nEv="1.0080653320312500e+04" nSuw="1.0150000000000000e+03" nBuw="5.8120000000000000e+03" nEvuw="6.8270000000000000e+03" sepI="2.4989151954650879e-01" sepG="2.8755006790161133e+01" res="-9.9000000000000000e+01" rms="0.0000000000000000e+00" nType="0" CC="3.1646319260895780e+01">
          <Node pos="l" depth="2" Seq="0" IVar="2" Cut="5.9963645935058594e+01" cType="0" nS="4.9060507812500000e+03" nB="4.4299311523437500e+03" nEv="9.3359824218750000e+03" nSuw="7.2500000000000000e+02" nBuw="5.5650000000000000e+03" nEvuw="6.2900000000000000e+03" sepI="2.4934978783130646e-01" sepG="3.4537639617919922e+01" res="-9.9000000000000000e+01" rms="0.0000000000000000e+00" nType="0" CC="3.4537610706000123e+01">
            <Node pos="l" depth="3" Seq="0" IVar="-1" Cut="0.0000000000000000e+00" cType="1" nS="3.4276474609375000e+03" nB="2.5773520507812500e+03" nEv="6.0049995117187500e+03" nSuw="4.5600000000000000e+02" nBuw="3.0240000000000000e+03" nEvuw="3.4800000000000000e+03" sepI="2.4498750269412994e-01" sepG="-1.0000000000000000e+00" res="-9.9000000000000000e+01" rms="0.0000000000000000e+00" nType="1" CC="1.0000000000000000e+05"/>
            <Node pos="r" depth="3" Seq="4" IVar="-1" Cut="0.0000000000000000e+00" cType="1" nS="1.4784034423828125e+03" nB="1.8525789794921875e+03" nEv="3.3309824218750000e+03" nSuw="2.6900000000000000e+02" nBuw="2.5410000000000000e+03" nEvuw="2.8100000000000000e+03" sepI="2.4684539437294006e-01" sepG="-1.0000000000000000e+00" res="-9.9000000000000000e+01" rms="0.0000000000000000e+00" nType="-1" CC="1.0000000000000000e+05"/>
          </Node>
          <Node pos="r" depth="2" Seq="2" IVar="15" Cut="1.8950299072265625e+02" cType="1" nS="2.3926802062988281e+02" nB="5.0540280151367188e+02" nEv="7.4467083740234375e+02" nSuw="2.9000000000000000e+02" nBuw="2.4700000000000000e+02" nEvuw="5.3700000000000000e+02" sepI="2.1806885302066803e-01" sepG="2.5189357757568359e+01" res="-9.9000000000000000e+01" rms="0.0000000000000000e+00" nType="0" CC="2.5189362148284090e+01">
            <Node pos="l" depth="3" Seq="2" IVar="-1" Cut="0.0000000000000000e+00" cType="1" nS="1.3338432312011719e+02" nB="8.7138427734375000e+01" nEv="2.2052275085449219e+02" nSuw="1.0400000000000000e+02" nBuw="9.7000000000000000e+01" nEvuw="2.0100000000000000e+02" sepI="2.3900540173053741e-01" sepG="-1.0000000000000000e+00" res="-9.9000000000000000e+01" rms="0.0000000000000000e+00" nType="1" CC="1.0000000000000000e+05"/>
            <Node pos="r" depth="3" Seq="6" IVar="-1" Cut="0.0000000000000000e+00" cType="1" nS="1.0588369750976562e+02" nB="4.1826437377929688e+02" nEv="5.2414807128906250e+02" nSuw="1.8600000000000000e+02" nBuw="1.5000000000000000e+02" nEvuw="3.3600000000000000e+02" sepI="1.6120257973670959e-01" sepG="-1.0000000000000000e+00" res="-9.9000000000000000e+01" rms="0.0000000000000000e+00" nType="-1" CC="1.0000000000000000e+05"/>
          </Node>
        </Node>
        <Node pos="r" depth="1" Seq="1" IVar="17" Cut="2.0473029613494873e+00" cType="0" nS="1.6678560791015625e+03" nB="2.4297370605468750e+03" nEv="4.0975932617187500e+03" nSuw="2.6100000000000000e+02" nBuw="7.1040000000000000e+03" nEvuw="7.3650000000000000e+03" sepI="2.4135716259479523e-01" sepG="3.3194660186767578e+01" res="-9.9000000000000000e+01" rms="0.0000000000000000e+00" nType="0" CC="3.3334774954280419e+01">
          <Node pos="l" depth="2" Seq="1" IVar="0" Cut="6.4143295288085938e+01" cType="1" nS="1.0464384765625000e+03" nB="1.0716712646484375e+03" nEv="2.1181098632812500e+03" nSuw="1.9700000000000000e+02" nBuw="2.9100000000000000e+03" nEvuw="3.1070000000000000e+03" sepI="2.4996452033519745e-01" sepG="3.3474861145019531e+01" res="-9.9000000000000000e+01" rms="0.0000000000000000e+00" nType="0" CC="3.3474841901465879e+01">
            <Node pos="l" depth="3" Seq="1" IVar="-1" Cut="0.0000000000000000e+00" cType="1" nS="8.1658441162109375e+02" nB="5.8091912841796875e+02" nEv="1.3975035400390625e+03" nSuw="1.3800000000000000e+02" nBuw="1.3080000000000000e+03" nEvuw="1.4460000000000000e+03" sepI="2.4289071559906006e-01" sepG="-1.0000000000000000e+00" res="-9.9000000000000000e+01" rms="0.0000000000000000e+00" nType="1" CC="1.0000000000000000e+05"/>
            <Node pos="r" depth="3" Seq="5" IVar="-1" Cut="0.0000000000000000e+00" cType="1" nS="2.2985411071777344e+02" nB="4.9075219726562500e+02" nEv="7.2060632324218750e+02" nSuw="5.9000000000000000e+01" nBuw="1.6020000000000000e+03" nEvuw="1.6610000000000000e+03" sepI="2.1722930669784546e-01" sepG="-1.0000000000000000e+00" res="-9.9000000000000000e+01" rms="0.0000000000000000e+00" nType="-1" CC="1.0000000000000000e+05"/>
          </Node>
          <Node pos="r" depth="2" Seq="3" IVar="-1" Cut="1.6849180459976196e+00" cType="0" nS="6.2141754150390625e+02" nB="1.3580656738281250e+03" nEv="1.9794831542968750e+03" nSuw="6.4000000000000000e+01" nBuw="4.1940000000000000e+03" nEvuw="4.2580000000000000e+03" sepI="2.1537765860557556e-01" sepG="-1.0000000000000000e+00" res="-9.9000000000000000e+01" rms="0.0000000000000000e+00" nType="-1" CC="1.0000000000000000e+05"/>
        </Node>
      </Node>
    </BinaryTree>
    <BinaryTree type="DecisionTree" boostWeight="2.4851227466339268e-01" itree="17">
      <Node pos="s" depth="0" Seq="0" IVar="0" Cut="1.0430111694335938e+02" cType="1" nS="6.6914311523437500e+03" nB="7.4868144531250000e+03" nEv="1.4178246093750000e+04" nSuw="1.2760000000000000e+03" nBuw="1.2916000000000000e+04" nEvuw="1.4192000000000000e+04" sepI="2.4921323359012604e-01" sepG="5.2356616973876953e+01" res="-9.9000000000000000e+01" rms="0.0000000000000000e+00" nType="0" CC="5.2356497031072649e+01">
        <Node pos="l" depth="1" Seq="0" IVar="-1" Cut="1.0032872772216797e+02" cType="1" nS="6.1534643554687500e+03" nB="6.2860874023437500e+03" nEv="1.2439551757812500e+04" nSuw="1.1450000000000000e+03" nBuw="1.0861000000000000e+04" nEvuw="1.2006000000000000e+04" sepI="2.4997158348560333e-01" sepG="-1.0000000000000000e+00" res="-9.9000000000000000e+01" rms="0.0000000000000000e+00" nType="-1" CC="2.9274291568372064e+01"/>
        <Node pos="r" depth="1" Seq="1" IVar="8" Cut="1.6416699886322021e+00" cType="0" nS="5.3796722412109375e+02" nB="1.2007272949218750e+03" nEv="1.7386945800781250e+03" nSuw="1.3100000000000000e+02" nBuw="2.0550000000000000e+03" nEvuw="2.1860000000000000e+03" sepI="2.1367496252059937e-01" sepG="4.1273151397705078e+01" res="-9.9000000000000000e+01" rms="0.0000000000000000e+00" nType="0" CC="4.1273147098166646e+01">
          <Node pos="l" depth="2" Seq="1" IVar="-1" Cut="2.8420326232910156e+01" cType="1" nS="1.8001081848144531e+02" nB="8.8780754089355469e+01" nEv="2.6879156494140625e+02" nSuw="1.4000000000000000e+01" nBuw="8.2000000000000000e+01" nEvuw="9.6000000000000000e+01" sepI="2.2120052576065063e-01" sepG="-1.0000000000000000e+00" res="-9.9000000000000000e+01" rms="0.0000000000000000e+00" nType="1" CC="3.7224801791985556e+01"/>
          <Node pos="r" depth="2" Seq="3" IVar="-1" Cut="9.1161209106445312e+01" cType="0" nS="3.5795642089843750e+02" nB="1.1119465332031250e+03" nEv="1.4699029541015625e+03" nSuw="1.1700000000000000e+02" nBuw="1.9730000000000000e+03" nEvuw="2.0900000000000000e+03" sepI="1.8421998620033264e-01" sepG="-1.0000000000000000e+00" res="-9.9000000000000000e+01" rms="0.0000000000000000e+00" nType="-1" CC="1.8226799033634506e+01"/>
        </Node>
      </Node>
    </BinaryTree>
    <BinaryTree type="DecisionTree" boostWeight="3.7422824271936195e-01" itree="18">
      <Node pos="s" depth="0" Seq="0" IVar="0" Cut="1.0430111694335938e+02" cType="1" nS="7.3650556640625000e+03" nB="6.8131904296875000e+03" nEv="1.4178246093750000e+04" nSuw="1.2760000000000000e+03" nBuw="1.2916000000000000e+04" nEvuw="1.4192000000000000e+04" sepI="2.4962124228477478e-01" sepG="6.1559612274169922e+01" res="-9.9000000000000000e+01" rms="0.0000000000000000e+00" nType="0" CC="6.1559640286103786e+01">
        <Node pos="l" depth="1" Seq="0" IVar="0" Cut="1.0032872772216797e+02" cType="1" nS="6.8131757812500000e+03" nB="5.7278867187500000e+03" nEv="1.2541062500000000e+04" nSuw="1.1450000000000000e+03" nBuw="1.0861000000000000e+04" nEvuw="1.2006000000000000e+04" sepI="2.4812775850296021e-01" sepG="3.2826889038085938e+01" res="-9.9000000000000000e+01" rms="0.0000000000000000e+00" nType="0" CC="3.2826740468506159e+01">
          <Node pos="l" depth="2" Seq="0" IVar="0" Cut="4.7629608154296875e+01" cType="0" nS="6.7949350585937500e+03" nB="5.5758828125000000e+03" nEv="1.2370817382812500e+04" nSuw="1.1310000000000000e+03" nBuw="1.0625000000000000e+04" nEvuw="1.1756000000000000e+04" sepI="2.4757234752178192e-01" sepG="1.7332204818725586e+01" res="-9.9000000000000000e+01" rms="0.0000000000000000e+00" nType="0" CC="1.7332331033703667e+01">
            <Node pos="l" depth="3" Seq="0" IVar="-1" Cut="0.0000000000000000e+00" cType="1" nS="6.1679970703125000e+03" nB="4.7935849609375000e+03" nEv="1.0961582031250000e+04" nSuw="1.0130000000000000e+03" nBuw="9.4300000000000000e+03" nEvuw="1.0443000000000000e+04" sepI="2.4606968462467194e-01" sepG="-1.0000000000000000e+00" res="-9.9000000000000000e+01" rms="0.0000000000000000e+00" nType="1" CC="1.0000000000000000e+05"/>
            <Node pos="r" depth="3" Seq="4" IVar="-1" Cut="0.0000000000000000e+00" cType="1" nS="6.2693798828125000e+02" nB="7.8229772949218750e+02" nEv="1.4092357177734375e+03" nSuw="1.1800000000000000e+02" nBuw="1.1950000000000000e+03" nEvuw="1.3130000000000000e+03" sepI="2.4696156382560730e-01" sepG="-1.0000000000000000e+00" res="-9.9000000000000000e+01" rms="0.0000000000000000e+00" nType="-1" CC="1.0000000000000000e+05"/>
          </Node>
          <Node pos="r" depth="2" Seq="2" IVar="15" Cut="2.4248919677734375e+02" cType="0" nS="1.8241010665893555e+01" nB="1.5200396728515625e+02" nEv="1.7024497985839844e+02" nSuw="1.4000000000000000e+01" nBuw="2.3600000000000000e+02" nEvuw="2.5000000000000000e+02" sepI="9.5665469765663147e-02" sepG="7.1446957588195801e+00" res="-9.9000000000000000e+01" rms="0.0000000000000000e+00" nType="0" CC="7.1446961514391614e+00">
            <Node pos="l" depth="3" Seq="2" IVar="-1" Cut="0.0000000000000000e+00" cType="1" nS="1.0698978424072266e+01" nB="2.4023127555847168e+00" nEv="1.3101290702819824e+01" nSuw="1.0000000000000000e+00" nBuw="8.6000000000000000e+01" nEvuw="8.7000000000000000e+01" sepI="1.4974200725555420e-01" sepG="-1.0000000000000000e+00" res="-9.9000000000000000e+01" rms="0.0000000000000000e+00" nType="1" CC="1.0000000000000000e+05"/>
            <Node pos="r" depth="3" Seq="6" IVar="-1" Cut="0.0000000000000000e+00" cType="1" nS="7.5420317649841309e+00" nB="1.4960165405273438e+02" nEv="1.5714367675781250e+02" nSuw="1.3000000000000000e+01" nBuw="1.5000000000000000e+02" nEvuw="1.6300000000000000e+02" sepI="4.5691024512052536e-02" sepG="-1.0000000000000000e+00" res="-9.9000000000000000e+01" rms="0.0000000000000000e+00" nType="-1" CC="1.0000000000000000e+05"/>
          </Node>
        </Node>
        <Node pos="r" depth="1" Seq="1" IVar="3" Cut="9.2376663208007812e+01" cType="0" nS="5.5187969970703125e+02" nB="1.0853037109375000e+03" nEv="1.6371833496093750e+03" nSuw="1.3100000000000000e+02" nBuw="2.0550000000000000e+03" nEvuw="2.1860000000000000e+03" sepI="2.2346062958240509e-01" sepG="3.2514495849609375e+01" res="-9.9000000000000000e+01" rms="0.0000000000000000e+00" nType="0" CC="3.7960083670789629e+01">
          <Node pos="l" depth="2" Seq="1" IVar="3" Cut="9.3679428100585938e+01" cType="1" nS="2.6233361816406250e+02" nB="2.0648449707031250e+02" nEv="4.6881811523437500e+02" nSuw="3.6000000000000000e+01" nBuw="7.1600000000000000e+02" nEvuw="7.5200000000000000e+02" sepI="2.4645215272903442e-01" sepG="4.3405685424804688e+01" res="-9.9000000000000000e+01" rms="0.0000000000000000e+00" nType="0" CC="4.3405680065058846e+01">
            <Node pos="l" depth="3" Seq="1" IVar="-1" Cut="0.0000000000000000e+00" cType="1" nS="2.4747372436523438e+02" nB="7.7136833190917969e+01" nEv="3.2461056518554688e+02" nSuw="2.0000000000000000e+01" nBuw="2.3900000000000000e+02" nEvuw="2.5900000000000000e+02" sepI="1.8116137385368347e-01" sepG="-1.0000000000000000e+00" res="-9.9000000000000000e+01" rms="0.0000000000000000e+00" nType="1" CC="1.0000000000000000e+05"/>
            <Node pos="r" depth="3" Seq="5" IVar="-1" Cut="0.0000000000000000e+00" cType="1" nS="1.4859901428222656e+01" nB="1.2934765625000000e+02" nEv="1.4420756530761719e+02" nSuw="1.6000000000000000e+01" nBuw="4.7700000000000000e+02" nEvuw="4.9300000000000000e+02" sepI="9.2426910996437073e-02" sepG="-1.0000000000000000e+00" res="-9.9000000000000000e+01" rms="0.0000000000000000e+00" nType="-1" CC="1.0000000000000000e+05"/>
          </Node>
          <Node pos="r" depth="2" Seq="3" IVar="12" Cut="9.1161209106445312e+01" cType="0" nS="2.8954605102539062e+02" nB="8.7881921386718750e+02" nEv="1.1683652343750000e+03" nSuw="9.5000000000000000e+01" nBuw="1.3390000000000000e+03" nEvuw="1.4340000000000000e+03" sepI="1.8640601634979248e-01" sepG="1.9271778106689453e+01" res="-9.9000000000000000e+01" rms="0.0000000000000000e+00" nType="0" CC="1.9271792937279400e+01">
            <Node pos="l" depth="3" Seq="3" IVar="-1" Cut="0.0000000000000000e+00" cType="1" nS="6.4611213684082031e+01" nB="3.0515966415405273e+01" nEv="9.5127174377441406e+01" nSuw="4.6000000000000000e+01" nBuw="3.9000000000000000e+01" nEvuw="8.5000000000000000e+01" sepI="2.1788422763347626e-01" sepG="-1.0000000000000000e+00" res="-9.9000000000000000e+01" rms="0.0000000000000000e+00" nType="1" CC="1.0000000000000000e+05"/>
            <Node pos="r" depth="3" Seq="7" IVar="-1" Cut="0.0000000000000000e+00" cType="1" nS="2.2493482971191406e+02" nB="8.4830322265625000e+02" nEv="1.0732380371093750e+03" nSuw="4.9000000000000000e+01" nBuw="1.3000000000000000e+03" nEvuw="1.3490000000000000e+03" sepI="1.6565924882888794e-01" sepG="-1.0000000000000000e+00" res="-9.9000000000000000e+01" rms="0.0000000000000000e+00" nType="-1" CC="1.0000000000000000e+05"/>
          </Node>
        </Node>
      </Node>
    </BinaryTree>
    <BinaryTree type="DecisionTree" boostWeight="3.5239455491609800e-01" itree="19">
      <Node pos="s" depth="0" Seq="0" IVar="8" Cut="1.4081257581710815e+00" cType="0" nS="6.5503125000000000e+03" nB="7.6279335937500000e+03" nEv="1.4178246093750000e+04" nSuw="1.2760000000000000e+03" nBuw="1.2916000000000000e+04" nEvuw="1.4192000000000000e+04" sepI="2.4855579435825348e-01" sepG="2.6736562728881836e+01" res="-9.9000000000000000e+01" rms="0.0000000000000000e+00" nType="0" CC="3.1189546236404567e+01">
        <Node pos="l" depth="1" Seq="0" IVar="1" Cut="5.0631355285644531e+01" cType="1" nS="3.4694038085937500e+03" nB="3.3742326660156250e+03" nEv="6.8436362304687500e+03" nSuw="6.4600000000000000e+02" nBuw="5.0190000000000000e+03" nEvuw="5.6650000000000000e+03" sepI="2.4995164573192596e-01" sepG="2.8359144210815430e+01" res="-9.9000000000000000e+01" rms="0.0000000000000000e+00" nType="0" CC="2.8359152507595581e+01">
          <Node pos="l" depth="2" Seq="0" IVar="-1" Cut="2.6932468414306641e+00" cType="0" nS="3.4577448730468750e+03" nB="3.2354914550781250e+03" nEv="6.6932363281250000e+03" nSuw="6.3100000000000000e+02" nBuw="4.8340000000000000e+03" nEvuw="5.4650000000000000e+03" sepI="2.4972434341907501e-01" sepG="-1.0000000000000000e+00" res="-9.9000000000000000e+01" rms="0.0000000000000000e+00" nType="1" CC="2.5653402649830241e+01"/>
          <Node pos="r" depth="2" Seq="2" IVar="-1" Cut="3.6601065063476562e+02" cType="0" nS="1.1658768653869629e+01" nB="1.3874122619628906e+02" nEv="1.5039999389648438e+02" nSuw="1.5000000000000000e+01" nBuw="1.8500000000000000e+02" nEvuw="2.0000000000000000e+02" sepI="7.1509309113025665e-02" sepG="-1.0000000000000000e+00" res="-9.9000000000000000e+01" rms="0.0000000000000000e+00" nType="-1" CC="3.4633380074129043e+00"/>
        </Node>
        <Node pos="r" depth="1" Seq="1" IVar="7" Cut="2.9168548583984375e+00" cType="1" nS="3.0809086914062500e+03" nB="4.2537011718750000e+03" nEv="7.3346098632812500e+03" nSuw="6.3000000000000000e+02" nBuw="7.8970000000000000e+03" nEvuw="8.5270000000000000e+03" sepI="2.4360813200473785e-01" sepG="3.2893173217773438e+01" res="-9.9000000000000000e+01" rms="0.0000000000000000e+00" nType="0" CC="3.3416112833749139e+01">
          <Node pos="l" depth="2" Seq="1" IVar="10" Cut="5.7357986450195312e+01" cType="1" nS="2.1486472167968750e+03" nB="2.3989875488281250e+03" nEv="4.5476347656250000e+03" nSuw="4.9300000000000000e+02" nBuw="3.7220000000000000e+03" nEvuw="4.2150000000000000e+03" sepI="2.4924241006374359e-01" sepG="2.6163290023803711e+01" res="-9.9000000000000000e+01" rms="0.0000000000000000e+00" nType="0" CC="2.6163221717556098e+01">
            <Node pos="l" depth="3" Seq="1" IVar="-1" Cut="0.0000000000000000e+00" cType="1" nS="1.6840328369140625e+03" nB="1.5493029785156250e+03" nEv="3.2333356933593750e+03" nSuw="1.8500000000000000e+02" nBuw="1.6570000000000000e+03" nEvuw="1.8420000000000000e+03" sepI="2.4956592917442322e-01" sepG="-1.0000000000000000e+00" res="-9.9000000000000000e+01" rms="0.0000000000000000e+00" nType="1" CC="1.0000000000000000e+05"/>
            <Node pos="r" depth="3" Seq="5" IVar="-1" Cut="0.0000000000000000e+00" cType="1" nS="4.6461434936523438e+02" nB="8.4968469238281250e+02" nEv="1.3142989501953125e+03" nSuw="3.0800000000000000e+02" nBuw="2.0650000000000000e+03" nEvuw="2.3730000000000000e+03" sepI="2.2853989899158478e-01" sepG="-1.0000000000000000e+00" res="-9.9000000000000000e+01" rms="0.0000000000000000e+00" nType="-1" CC="1.0000000000000000e+05"/>
          </Node>
          <Node pos="r" depth="2" Seq="3" IVar="13" Cut="4.4085498809814453e+01" cType="0" nS="9.3226147460937500e+02" nB="1.8547135009765625e+03" nEv="2.7869748535156250e+03" nSuw="1.3700000000000000e+02" nBuw="4.1750000000000000e+03" nEvuw="4.3120000000000000e+03" sepI="2.2261193394660950e-01" sepG="3.3938934326171875e+01" res="-9.9000000000000000e+01" rms="0.0000000000000000e+00" nType="0" CC="3.3938956140060327e+01">
            <Node pos="l" depth="3" Seq="3" IVar="-1" Cut="0.0000000000000000e+00" cType="1" nS="3.2847021484375000e+02" nB="2.7483294677734375e+02" nEv="6.0330316162109375e+02" nSuw="5.9000000000000000e+01" nBuw="6.0700000000000000e+02" nEvuw="6.6600000000000000e+02" sepI="2.4802392721176147e-01" sepG="-1.0000000000000000e+00" res="-9.9000000000000000e+01" rms="0.0000000000000000e+00" nType="1" CC="1.0000000000000000e+05"/>
            <Node pos="r" depth="3" Seq="7" IVar="-1" Cut="0.0000000000000000e+00" cType="1" nS="6.0379125976562500e+02" nB="1.5798804931640625e+03" nEv="2.1836718750000000e+03" nSuw="7.8000000000000000e+01" nBuw="3.5680000000000000e+03" nEvuw="3.6460000000000000e+03" sepI="2.0004898309707642e-01" sepG="-1.0000000000000000e+00" res="-9.9000000000000000e+01" rms="0.0000000000000000e+00" nType="-1" CC="1.0000000000000000e+05"/>
          </Node>
        </Node>
      </Node>
    </BinaryTree>
    <BinaryTree type="DecisionTree" boostWeight="2.2795052144869624e-01" itree="20">
      <Node pos="s" depth="0" Seq="0" IVar="8" Cut="1.1245918273925781e+00" cType="0" nS="6.5861762695312500e+03" nB="7.5920698242187500e+03" nEv="1.4178246093750000e+04" nSuw="1.2760000000000000e+03" nBuw="1.2916000000000000e+04" nEvuw="1.4192000000000000e+04" sepI="2.4874165654182434e-01" sepG="4.2014255523681641e+01" res="-9.9000000000000000e+01" rms="0.0000000000000000e+00" nType="0" CC="4.2014214819424524e+01">
        <Node pos="l" depth="1" Seq="0" IVar="6" Cut="2.2663495540618896e+00" cType="0" nS="4.6042866210937500e+03" nB="4.5114116210937500e+03" nEv="9.1156982421875000e+03" nSuw="8.7800000000000000e+02" nBuw="7.0360000000000000e+03" nEvuw="7.9140000000000000e+03" sepI="2.4997404217720032e-01" sepG="2.1626695632934570e+01" res="-9.9000000000000000e+01" rms="0.0000000000000000e+00" nType="0" CC="3.0902368753920882e+01">
          <Node pos="l" depth="2" Seq="0" IVar="14" Cut="4.6201607584953308e-01" cType="0" nS="3.6133740234375000e+02" nB="1.5149626159667969e+02" nEv="5.1283367919921875e+02" nSuw="2.1000000000000000e+01" nBuw="2.8700000000000000e+02" nEvuw="3.0800000000000000e+02" sepI="2.0814299583435059e-01" sepG="4.0178077697753906e+01" res="-9.9000000000000000e+01" rms="0.0000000000000000e+00" nType="0" CC="4.0178074810551806e+01">
            <Node pos="l" depth="3" Seq="0" IVar="-1" Cut="0.0000000000000000e+00" cType="1" nS="3.5818206787109375e+02" nB="7.7239425659179688e+01" nEv="4.3542147827148438e+02" nSuw="1.7000000000000000e+01" nBuw="2.4600000000000000e+02" nEvuw="2.6300000000000000e+02" sepI="1.4592280983924866e-01" sepG="-1.0000000000000000e+00" res="-9.9000000000000000e+01" rms="0.0000000000000000e+00" nType="1" CC="1.0000000000000000e+05"/>
            <Node pos="r" depth="3" Seq="4" IVar="-1" Cut="0.0000000000000000e+00" cType="1" nS="3.1553452014923096e+00" nB="7.4256843566894531e+01" nEv="7.7412185668945312e+01" nSuw="4.0000000000000000e+00" nBuw="4.1000000000000000e+01" nEvuw="4.5000000000000000e+01" sepI="3.9098914712667465e-02" sepG="-1.0000000000000000e+00" res="-9.9000000000000000e+01" rms="0.0000000000000000e+00" nType="-1" CC="1.0000000000000000e+05"/>
          </Node>
          <Node pos="r" depth="2" Seq="2" IVar="7" Cut="3.5131583213806152e+00" cType="1" nS="4.2429492187500000e+03" nB="4.3599150390625000e+03" nEv="8.6028642578125000e+03" nSuw="8.5700000000000000e+02" nBuw="6.7490000000000000e+03" nEvuw="7.6060000000000000e+03" sepI="2.4995379149913788e-01" sepG="2.8457607269287109e+01" res="-9.9000000000000000e+01" rms="0.0000000000000000e+00" nType="0" CC="2.8457578868869859e+01">
            <Node pos="l" depth="3" Seq="2" IVar="-1" Cut="0.0000000000000000e+00" cType="1" nS="4.2334228515625000e+03" nB="4.2183447265625000e+03" nEv="8.4517675781250000e+03" nSuw="8.5200000000000000e+02" nBuw="6.4910000000000000e+03" nEvuw="7.3430000000000000e+03" sepI="2.4999921023845673e-01" sepG="-1.0000000000000000e+00" res="-9.9000000000000000e+01" rms="0.0000000000000000e+00" nType="1" CC="1.0000000000000000e+05"/>
            <Node pos="r" depth="3" Seq="6" IVar="-1" Cut="0.0000000000000000e+00" cType="1" nS="9.5263586044311523e+00" nB="1.4157043457031250e+02" nEv="1.5109678649902344e+02" nSuw="5.0000000000000000e+00" nBuw="2.5800000000000000e+02" nEvuw="2.6300000000000000e+02" sepI="5.9072997421026230e-02" sepG="-1.0000000000000000e+00" res="-9.9000000000000000e+01" rms="0.0000000000000000e+00" nType="-1" CC="1.0000000000000000e+05"/>
          </Node>
        </Node>
        <Node pos="r" depth="1" Seq="1" IVar="-1" Cut="2.9168548583984375e+00" cType="1" nS="1.9818898925781250e+03" nB="3.0806582031250000e+03" nEv="5.0625478515625000e+03" nSuw="3.9800000000000000e+02" nBuw="5.8800000000000000e+03" nEvuw="6.2780000000000000e+03" sepI="2.3822356760501862e-01" sepG="-1.0000000000000000e+00" res="-9.9000000000000000e+01" rms="0.0000000000000000e+00" nType="-1" CC="2.6961841267045202e+01"/>
      </Node>
    </BinaryTree>
    <BinaryTree type="DecisionTree" boostWeight="3.3362224973748222e-01" itree="21">
