<?xml version="1.0"?>
<MethodSetup Method="BDT::BDT">
  <GeneralInfo>
    <Info name="TMVA Release" value="4.0.7 [262151]"/>
    <Info name="ROOT Release" value="5.27/06 [334598]"/>
    <Info name="Creator" value="andreypz"/>
    <Info name="Date" value="Mon Aug 20 00:22:39 2012"/>
    <Info name="Host" value="Linux lxbuild168.cern.ch 2.6.18-274.12.1.el5 #1 SMP Wed Nov 30 08:57:58 CET 2011 x86_64 x86_64 x86_64 GNU/Linux"/>
    <Info name="Dir" value="/uscms_data/d2/andreypz/cmssw/higgs2/CMSSW_4_4_4/src/NWU/Higgs/mva"/>
    <Info name="Training events" value="6502"/>
    <Info name="TrainingTime" value="9.61125"/>
    <Info name="AnalysisType" value="Classification"/>
  </GeneralInfo>
  <Options>
    <Option name="V" modified="Yes">False</Option>
    <Option name="VerbosityLevel" modified="No">Default</Option>
    <Option name="VarTransform" modified="No">None</Option>
    <Option name="H" modified="Yes">False</Option>
    <Option name="CreateMVAPdfs" modified="No">False</Option>
    <Option name="IgnoreNegWeightsInTraining" modified="No">False</Option>
    <Option name="NTrees" modified="Yes">850</Option>
    <Option name="BoostType" modified="Yes">AdaBoost</Option>
    <Option name="AdaBoostR2Loss" modified="No">quadratic</Option>
    <Option name="UseBaggedGrad" modified="No">False</Option>
    <Option name="GradBaggingFraction" modified="No">6.000000e-01</Option>
    <Option name="Shrinkage" modified="No">1.000000e+00</Option>
    <Option name="AdaBoostBeta" modified="Yes">5.000000e-01</Option>
    <Option name="UseRandomisedTrees" modified="No">False</Option>
    <Option name="UseNvars" modified="No">3</Option>
    <Option name="UseNTrainEvents" modified="No">6502</Option>
    <Option name="UseWeightedTrees" modified="No">True</Option>
    <Option name="UseYesNoLeaf" modified="No">True</Option>
    <Option name="NodePurityLimit" modified="No">5.000000e-01</Option>
    <Option name="SeparationType" modified="Yes">giniindex</Option>
    <Option name="nEventsMin" modified="Yes">150</Option>
    <Option name="nCuts" modified="Yes">20</Option>
    <Option name="PruneStrength" modified="No">-1.000000e+00</Option>
    <Option name="PruneMethod" modified="Yes">nopruning</Option>
    <Option name="PruneBeforeBoost" modified="No">False</Option>
    <Option name="PruningValFraction" modified="No">5.000000e-01</Option>
    <Option name="NNodesMax" modified="No">100000</Option>
    <Option name="MaxDepth" modified="Yes">3</Option>
  </Options>
  <Variables NVar="10">
    <Variable VarIndex="0" Expression="lep1Pt" Label="lep1Pt" Title="p_{T}(l_{1})" Unit="GeV" Internal="lep1Pt" Type="F" Min="30.6359" Max="551.842"/>
    <Variable VarIndex="1" Expression="lep2Pt" Label="lep2Pt" Title="p_{T}(l_{2})" Unit="GeV" Internal="lep2Pt" Type="F" Min="20.0056" Max="257.973"/>
    <Variable VarIndex="2" Expression="diLepEta" Label="diLepEta" Title="|#eta(ll)|" Unit="" Internal="diLepEta" Type="F" Min="-2.90494" Max="2.80617"/>
    <Variable VarIndex="3" Expression="met" Label="met" Title="MET" Unit="GeV" Internal="met" Type="F" Min="40.0125" Max="915.996"/>
    <Variable VarIndex="4" Expression="diLepPt" Label="diLepPt" Title="p_{T}(ll)" Unit="GeV" Internal="diLepPt" Type="F" Min="55.007" Max="645.675"/>
    <Variable VarIndex="5" Expression="mt" Label="mt" Title="m_{T}(HZZ hypothesis)" Unit="GeV" Internal="mt" Type="F" Min="0.2279" Max="105.751"/>
    <Variable VarIndex="6" Expression="metProjOnQt" Label="metProjOnQt" Title="MET || p_{T}(ll)" Unit="GeV" Internal="metProjOnQt" Type="F" Min="-909.783" Max="568.648"/>
    <Variable VarIndex="7" Expression="metPerpQt" Label="metPerpQt" Title="MET perp  p_{T}(ll)" Unit="GeV" Internal="metPerpQt" Type="F" Min="-432.037" Max="363.53"/>
    <Variable VarIndex="8" Expression="diLepMetDeltaPhi" Label="diLepMetDeltaPhi" Title="#Delta#phi(p_{ll},MET)" Unit="rad" Internal="diLepMetDeltaPhi" Type="F" Min="0.000988279" Max="3.14148"/>
    <Variable VarIndex="9" Expression="diLepM" Label="diLepM" Title="m_{ll}" Unit="GeV" Internal="diLepM" Type="F" Min="76.0099" Max="105.996"/>
  </Variables>
  <Spectators NSpec="0"/>
  <Transformations NTransformations="0"/>
  <MVAPdfs/>
  <Weights NTrees="850" TreeType="0">
    <BinaryTree type="DecisionTree" boostWeight="1.0721249527132692e+00" itree="0">
      <Node pos="s" depth="0" Seq="0" IVar="3" Cut="8.1725990295410156e+01" cType="0" nS="1.6248211669921875e+03" nB="4.9706865234375000e+03" nEv="6.5955078125000000e+03" nSuw="1.6450000000000000e+03" nBuw="4.8570000000000000e+03" nEvuw="6.5020000000000000e+03" sepI="1.8566304445266724e-01" sepG="5.0352416992187500e+02" res="-9.9000000000000000e+01" rms="0.0000000000000000e+00" nType="0" CC="0.0000000000000000e+00">
        <Node pos="l" depth="1" Seq="0" IVar="9" Cut="8.4575668334960938e+01" cType="0" nS="1.0141806640625000e+03" nB="2.1870887756347656e+02" nEv="1.2328895263671875e+03" nSuw="9.6500000000000000e+02" nBuw="2.0950000000000000e+03" nEvuw="3.0600000000000000e+03" sepI="1.4592623710632324e-01" sepG="2.1320583343505859e+01" res="-9.9000000000000000e+01" rms="0.0000000000000000e+00" nType="0" CC="0.0000000000000000e+00">
          <Node pos="l" depth="2" Seq="0" IVar="9" Cut="9.6812438964843750e+01" cType="1" nS="9.5614569091796875e+02" nB="1.4538336181640625e+02" nEv="1.1015290527343750e+03" nSuw="9.0800000000000000e+02" nBuw="1.9290000000000000e+03" nEvuw="2.8370000000000000e+03" sepI="1.1456365138292313e-01" sepG="1.3370776176452637e+01" res="-9.9000000000000000e+01" rms="0.0000000000000000e+00" nType="0" CC="0.0000000000000000e+00">
            <Node pos="l" depth="3" Seq="0" IVar="-1" Cut="0.0000000000000000e+00" cType="1" nS="9.1488531494140625e+02" nB="1.0183934783935547e+02" nEv="1.0167246704101562e+03" nSuw="8.6800000000000000e+02" nBuw="1.7700000000000000e+03" nEvuw="2.6380000000000000e+03" sepI="9.0131282806396484e-02" sepG="-1.0000000000000000e+00" res="-9.9000000000000000e+01" rms="0.0000000000000000e+00" nType="1" CC="0.0000000000000000e+00"/>
            <Node pos="r" depth="3" Seq="4" IVar="-1" Cut="0.0000000000000000e+00" cType="1" nS="4.1260360717773438e+01" nB="4.3544010162353516e+01" nEv="8.4804374694824219e+01" nSuw="4.0000000000000000e+01" nBuw="1.5900000000000000e+02" nEvuw="1.9900000000000000e+02" sepI="2.4981871247291565e-01" sepG="-1.0000000000000000e+00" res="-9.9000000000000000e+01" rms="0.0000000000000000e+00" nType="-1" CC="0.0000000000000000e+00"/>
          </Node>
          <Node pos="r" depth="2" Seq="2" IVar="-1" Cut="0.0000000000000000e+00" cType="1" nS="5.8034973144531250e+01" nB="7.3325523376464844e+01" nEv="1.3136050415039062e+02" nSuw="5.7000000000000000e+01" nBuw="1.6600000000000000e+02" nEvuw="2.2300000000000000e+02" sepI="2.4661268293857574e-01" sepG="-1.0000000000000000e+00" res="-9.9000000000000000e+01" rms="0.0000000000000000e+00" nType="-1" CC="0.0000000000000000e+00"/>
        </Node>
        <Node pos="r" depth="1" Seq="1" IVar="3" Cut="6.7817428588867188e+01" cType="0" nS="6.1064050292968750e+02" nB="4.7519780273437500e+03" nEv="5.3626181640625000e+03" nSuw="6.8000000000000000e+02" nBuw="2.7620000000000000e+03" nEvuw="3.4420000000000000e+03" sepI="1.0090349614620209e-01" sepG="8.3165275573730469e+01" res="-9.9000000000000000e+01" rms="0.0000000000000000e+00" nType="0" CC="0.0000000000000000e+00">
          <Node pos="l" depth="2" Seq="1" IVar="8" Cut="8.9994555711746216e-01" cType="0" nS="2.2317141723632812e+02" nB="1.8372251892089844e+02" nEv="4.0689392089843750e+02" nSuw="2.5100000000000000e+02" nBuw="5.1700000000000000e+02" nEvuw="7.6800000000000000e+02" sepI="2.4765011668205261e-01" sepG="2.4488027572631836e+01" res="-9.9000000000000000e+01" rms="0.0000000000000000e+00" nType="0" CC="0.0000000000000000e+00">
            <Node pos="l" depth="3" Seq="1" IVar="-1" Cut="0.0000000000000000e+00" cType="1" nS="1.9754418945312500e+02" nB="7.7438423156738281e+01" nEv="2.7498260498046875e+02" nSuw="2.2500000000000000e+02" nBuw="3.9000000000000000e+02" nEvuw="6.1500000000000000e+02" sepI="2.0230671763420105e-01" sepG="-1.0000000000000000e+00" res="-9.9000000000000000e+01" rms="0.0000000000000000e+00" nType="1" CC="0.0000000000000000e+00"/>
            <Node pos="r" depth="3" Seq="5" IVar="-1" Cut="0.0000000000000000e+00" cType="1" nS="2.5627235412597656e+01" nB="1.0628409576416016e+02" nEv="1.3191133117675781e+02" nSuw="2.6000000000000000e+01" nBuw="1.2700000000000000e+02" nEvuw="1.5300000000000000e+02" sepI="1.5653297305107117e-01" sepG="-1.0000000000000000e+00" res="-9.9000000000000000e+01" rms="0.0000000000000000e+00" nType="-1" CC="0.0000000000000000e+00"/>
          </Node>
          <Node pos="r" depth="2" Seq="3" IVar="-1" Cut="1.1970645189285278e+00" cType="0" nS="3.8746905517578125e+02" nB="4.5682553710937500e+03" nEv="4.9557241210937500e+03" nSuw="4.2900000000000000e+02" nBuw="2.2450000000000000e+03" nEvuw="2.6740000000000000e+03" sepI="7.2073087096214294e-02" sepG="-1.0000000000000000e+00" res="-9.9000000000000000e+01" rms="0.0000000000000000e+00" nType="-1" CC="0.0000000000000000e+00"/>
        </Node>
      </Node>
    </BinaryTree>
    <BinaryTree type="DecisionTree" boostWeight="7.0282664254772642e-01" itree="1">
      <Node pos="s" depth="0" Seq="0" IVar="3" Cut="8.1725990295410156e+01" cType="0" nS="2.1717761230468750e+03" nB="4.4237319335937500e+03" nEv="6.5955078125000000e+03" nSuw="1.6450000000000000e+03" nBuw="4.8570000000000000e+03" nEvuw="6.5020000000000000e+03" sepI="2.2085505723953247e-01" sepG="2.9148403930664062e+02" res="-9.9000000000000000e+01" rms="0.0000000000000000e+00" nType="0" CC="0.0000000000000000e+00">
        <Node pos="l" depth="1" Seq="0" IVar="8" Cut="3.0007240176200867e-01" cType="0" nS="1.0028871459960938e+03" nB="3.4489886474609375e+02" nEv="1.3477860107421875e+03" nSuw="9.6500000000000000e+02" nBuw="2.0950000000000000e+03" nEvuw="3.0600000000000000e+03" sepI="1.9041535258293152e-01" sepG="1.6171596527099609e+01" res="-9.9000000000000000e+01" rms="0.0000000000000000e+00" nType="0" CC="0.0000000000000000e+00">
          <Node pos="l" depth="2" Seq="0" IVar="6" Cut="-1.1420873260498047e+02" cType="0" nS="9.4265960693359375e+02" nB="2.6330682373046875e+02" nEv="1.2059664306640625e+03" nSuw="9.2600000000000000e+02" nBuw="1.9810000000000000e+03" nEvuw="2.9070000000000000e+03" sepI="1.7066583037376404e-01" sepG="8.5961418151855469e+00" res="-9.9000000000000000e+01" rms="0.0000000000000000e+00" nType="0" CC="0.0000000000000000e+00">
            <Node pos="l" depth="3" Seq="0" IVar="-1" Cut="0.0000000000000000e+00" cType="1" nS="9.1440869140625000e+02" nB="2.2585118103027344e+02" nEv="1.1402598876953125e+03" nSuw="8.9600000000000000e+02" nBuw="1.4400000000000000e+03" nEvuw="2.3360000000000000e+03" sepI="1.5883822739124298e-01" sepG="-1.0000000000000000e+00" res="-9.9000000000000000e+01" rms="0.0000000000000000e+00" nType="1" CC="0.0000000000000000e+00"/>
            <Node pos="r" depth="3" Seq="4" IVar="-1" Cut="0.0000000000000000e+00" cType="1" nS="2.8250894546508789e+01" nB="3.7455646514892578e+01" nEv="6.5706542968750000e+01" nSuw="3.0000000000000000e+01" nBuw="5.4100000000000000e+02" nEvuw="5.7100000000000000e+02" sepI="2.4509377777576447e-01" sepG="-1.0000000000000000e+00" res="-9.9000000000000000e+01" rms="0.0000000000000000e+00" nType="-1" CC="0.0000000000000000e+00"/>
          </Node>
          <Node pos="r" depth="2" Seq="2" IVar="-1" Cut="0.0000000000000000e+00" cType="1" nS="6.0227546691894531e+01" nB="8.1592048645019531e+01" nEv="1.4181959533691406e+02" nSuw="3.9000000000000000e+01" nBuw="1.1400000000000000e+02" nEvuw="1.5300000000000000e+02" sepI="2.4432647228240967e-01" sepG="-1.0000000000000000e+00" res="-9.9000000000000000e+01" rms="0.0000000000000000e+00" nType="-1" CC="0.0000000000000000e+00"/>
        </Node>
        <Node pos="r" depth="1" Seq="1" IVar="8" Cut="1.1977109909057617e+00" cType="0" nS="1.1688889160156250e+03" nB="4.0788330078125000e+03" nEv="5.2477216796875000e+03" nSuw="6.8000000000000000e+02" nBuw="2.7620000000000000e+03" nEvuw="3.4420000000000000e+03" sepI="1.7312808334827423e-01" sepG="1.3123976135253906e+02" res="-9.9000000000000000e+01" rms="0.0000000000000000e+00" nType="0" CC="0.0000000000000000e+00">
          <Node pos="l" depth="2" Seq="1" IVar="3" Cut="4.9962463378906250e+01" cType="0" nS="8.7288311767578125e+02" nB="1.2213791503906250e+03" nEv="2.0942622070312500e+03" nSuw="5.5200000000000000e+02" nBuw="1.5430000000000000e+03" nEvuw="2.0950000000000000e+03" sepI="2.4307732284069061e-01" sepG="6.1566425323486328e+01" res="-9.9000000000000000e+01" rms="0.0000000000000000e+00" nType="0" CC="0.0000000000000000e+00">
            <Node pos="l" depth="3" Seq="1" IVar="-1" Cut="0.0000000000000000e+00" cType="1" nS="6.1698260498046875e+02" nB="4.3255517578125000e+02" nEv="1.0495378417968750e+03" nSuw="4.3300000000000000e+02" nBuw="1.0040000000000000e+03" nEvuw="1.4370000000000000e+03" sepI="2.4228039383888245e-01" sepG="-1.0000000000000000e+00" res="-9.9000000000000000e+01" rms="0.0000000000000000e+00" nType="1" CC="0.0000000000000000e+00"/>
            <Node pos="r" depth="3" Seq="5" IVar="-1" Cut="0.0000000000000000e+00" cType="1" nS="2.5590048217773438e+02" nB="7.8882403564453125e+02" nEv="1.0447244873046875e+03" nSuw="1.1900000000000000e+02" nBuw="5.3900000000000000e+02" nEvuw="6.5800000000000000e+02" sepI="1.8494716286659241e-01" sepG="-1.0000000000000000e+00" res="-9.9000000000000000e+01" rms="0.0000000000000000e+00" nType="-1" CC="0.0000000000000000e+00"/>
          </Node>
          <Node pos="r" depth="2" Seq="3" IVar="-1" Cut="6.7680656433105469e+01" cType="0" nS="2.9600576782226562e+02" nB="2.8574538574218750e+03" nEv="3.1534594726562500e+03" nSuw="1.2800000000000000e+02" nBuw="1.2190000000000000e+03" nEvuw="1.3470000000000000e+03" sepI="8.5055984556674957e-02" sepG="-1.0000000000000000e+00" res="-9.9000000000000000e+01" rms="0.0000000000000000e+00" nType="-1" CC="0.0000000000000000e+00"/>
        </Node>
      </Node>
    </BinaryTree>
    <BinaryTree type="DecisionTree" boostWeight="4.8261063808575461e-01" itree="2">
      <Node pos="s" depth="0" Seq="0" IVar="3" Cut="8.1725990295410156e+01" cType="0" nS="2.3523757324218750e+03" nB="4.2431323242187500e+03" nEv="6.5955078125000000e+03" nSuw="1.6450000000000000e+03" nBuw="4.8570000000000000e+03" nEvuw="6.5020000000000000e+03" sepI="2.2945459187030792e-01" sepG="1.5690455627441406e+02" res="-9.9000000000000000e+01" rms="0.0000000000000000e+00" nType="0" CC="0.0000000000000000e+00">
        <Node pos="l" depth="1" Seq="0" IVar="3" Cut="1.2146966552734375e+02" cType="0" nS="9.1033575439453125e+02" nB="4.7898638916015625e+02" nEv="1.3893221435546875e+03" nSuw="9.6500000000000000e+02" nBuw="2.0950000000000000e+03" nEvuw="3.0600000000000000e+03" sepI="2.2590136528015137e-01" sepG="1.2770958900451660e+01" res="-9.9000000000000000e+01" rms="0.0000000000000000e+00" nType="0" CC="0.0000000000000000e+00">
          <Node pos="l" depth="2" Seq="0" IVar="6" Cut="-1.3536682128906250e+02" cType="0" nS="4.2317993164062500e+02" nB="1.2335533905029297e+02" nEv="5.4653527832031250e+02" nSuw="3.7800000000000000e+02" nBuw="1.0520000000000000e+03" nEvuw="1.4300000000000000e+03" sepI="1.7476184666156769e-01" sepG="1.0383031845092773e+01" res="-9.9000000000000000e+01" rms="0.0000000000000000e+00" nType="0" CC="0.0000000000000000e+00">
            <Node pos="l" depth="3" Seq="0" IVar="-1" Cut="0.0000000000000000e+00" cType="1" nS="4.2108276367187500e+02" nB="1.0374284362792969e+02" nEv="5.2482562255859375e+02" nSuw="3.7600000000000000e+02" nBuw="6.7700000000000000e+02" nEvuw="1.0530000000000000e+03" sepI="1.5859723091125488e-01" sepG="-1.0000000000000000e+00" res="-9.9000000000000000e+01" rms="0.0000000000000000e+00" nType="1" CC="0.0000000000000000e+00"/>
            <Node pos="r" depth="3" Seq="4" IVar="-1" Cut="0.0000000000000000e+00" cType="1" nS="2.0971937179565430e+00" nB="1.9612499237060547e+01" nEv="2.1709692001342773e+01" nSuw="2.0000000000000000e+00" nBuw="3.7500000000000000e+02" nEvuw="3.7700000000000000e+02" sepI="8.7269835174083710e-02" sepG="-1.0000000000000000e+00" res="-9.9000000000000000e+01" rms="0.0000000000000000e+00" nType="-1" CC="0.0000000000000000e+00"/>
          </Node>
          <Node pos="r" depth="2" Seq="2" IVar="8" Cut="6.0509395599365234e-01" cType="0" nS="4.8715579223632812e+02" nB="3.5563107299804688e+02" nEv="8.4278686523437500e+02" nSuw="5.8700000000000000e+02" nBuw="1.0430000000000000e+03" nEvuw="1.6300000000000000e+03" sepI="2.4391137063503265e-01" sepG="1.0958838462829590e+01" res="-9.9000000000000000e+01" rms="0.0000000000000000e+00" nType="0" CC="0.0000000000000000e+00">
            <Node pos="l" depth="3" Seq="2" IVar="-1" Cut="0.0000000000000000e+00" cType="1" nS="4.2043072509765625e+02" nB="2.3821836853027344e+02" nEv="6.5864910888671875e+02" nSuw="5.4000000000000000e+02" nBuw="9.1700000000000000e+02" nEvuw="1.4570000000000000e+03" sepI="2.3086680471897125e-01" sepG="-1.0000000000000000e+00" res="-9.9000000000000000e+01" rms="0.0000000000000000e+00" nType="1" CC="0.0000000000000000e+00"/>
            <Node pos="r" depth="3" Seq="6" IVar="-1" Cut="0.0000000000000000e+00" cType="1" nS="6.6725074768066406e+01" nB="1.1741268157958984e+02" nEv="1.8413775634765625e+02" nSuw="4.7000000000000000e+01" nBuw="1.2600000000000000e+02" nEvuw="1.7300000000000000e+02" sepI="2.3105660080909729e-01" sepG="-1.0000000000000000e+00" res="-9.9000000000000000e+01" rms="0.0000000000000000e+00" nType="-1" CC="0.0000000000000000e+00"/>
          </Node>
        </Node>
        <Node pos="r" depth="1" Seq="1" IVar="8" Cut="1.0481902360916138e+00" cType="0" nS="1.4420400390625000e+03" nB="3.7641457519531250e+03" nEv="5.2061860351562500e+03" nSuw="6.8000000000000000e+02" nBuw="2.7620000000000000e+03" nEvuw="3.4420000000000000e+03" sepI="2.0026470720767975e-01" sepG="7.3522941589355469e+01" res="-9.9000000000000000e+01" rms="0.0000000000000000e+00" nType="0" CC="0.0000000000000000e+00">
          <Node pos="l" depth="2" Seq="1" IVar="-1" Cut="7.6735832214355469e+01" cType="0" nS="1.0148778076171875e+03" nB="1.5325616455078125e+03" nEv="2.5474394531250000e+03" nSuw="5.7300000000000000e+02" nBuw="1.6470000000000000e+03" nEvuw="2.2200000000000000e+03" sepI="2.3967568576335907e-01" sepG="-1.0000000000000000e+00" res="-9.9000000000000000e+01" rms="0.0000000000000000e+00" nType="-1" CC="0.0000000000000000e+00"/>
          <Node pos="r" depth="2" Seq="3" IVar="3" Cut="6.7685615539550781e+01" cType="0" nS="4.2716226196289062e+02" nB="2.2315842285156250e+03" nEv="2.6587463378906250e+03" nSuw="1.0700000000000000e+02" nBuw="1.1150000000000000e+03" nEvuw="1.2220000000000000e+03" sepI="1.3485042750835419e-01" sepG="3.8558349609375000e+01" res="-9.9000000000000000e+01" rms="0.0000000000000000e+00" nType="0" CC="0.0000000000000000e+00">
            <Node pos="l" depth="3" Seq="3" IVar="-1" Cut="0.0000000000000000e+00" cType="1" nS="1.1609687805175781e+02" nB="8.2538841247558594e+01" nEv="1.9863571166992188e+02" nSuw="3.4000000000000000e+01" nBuw="1.4800000000000000e+02" nEvuw="1.8200000000000000e+02" sepI="2.4286459386348724e-01" sepG="-1.0000000000000000e+00" res="-9.9000000000000000e+01" rms="0.0000000000000000e+00" nType="1" CC="0.0000000000000000e+00"/>
            <Node pos="r" depth="3" Seq="7" IVar="-1" Cut="0.0000000000000000e+00" cType="1" nS="3.1106539916992188e+02" nB="2.1490454101562500e+03" nEv="2.4601105957031250e+03" nSuw="7.3000000000000000e+01" nBuw="9.6700000000000000e+02" nEvuw="1.0400000000000000e+03" sepI="1.1045566201210022e-01" sepG="-1.0000000000000000e+00" res="-9.9000000000000000e+01" rms="0.0000000000000000e+00" nType="-1" CC="0.0000000000000000e+00"/>
          </Node>
        </Node>
      </Node>
    </BinaryTree>
    <BinaryTree type="DecisionTree" boostWeight="4.1835381276709932e-01" itree="3">
      <Node pos="s" depth="0" Seq="0" IVar="8" Cut="8.9827167987823486e-01" cType="0" nS="2.7474584960937500e+03" nB="3.8480495605468750e+03" nEv="6.5955078125000000e+03" nSuw="1.6450000000000000e+03" nBuw="4.8570000000000000e+03" nEvuw="6.5020000000000000e+03" sepI="2.4303860962390900e-01" sepG="1.0316698455810547e+02" res="-9.9000000000000000e+01" rms="0.0000000000000000e+00" nType="0" CC="0.0000000000000000e+00">
        <Node pos="l" depth="1" Seq="0" IVar="4" Cut="7.8843055725097656e+01" cType="0" nS="2.0659121093750000e+03" nB="1.9255332031250000e+03" nEv="3.9914453125000000e+03" nSuw="1.3860000000000000e+03" nBuw="3.5400000000000000e+03" nEvuw="4.9260000000000000e+03" sepI="2.4969077110290527e-01" sepG="3.6265773773193359e+01" res="-9.9000000000000000e+01" rms="0.0000000000000000e+00" nType="0" CC="0.0000000000000000e+00">
          <Node pos="l" depth="2" Seq="0" IVar="4" Cut="2.3779634094238281e+02" cType="1" nS="1.5493103027343750e+03" nB="1.0965455322265625e+03" nEv="2.6458557128906250e+03" nSuw="9.1300000000000000e+02" nBuw="2.4410000000000000e+03" nEvuw="3.3540000000000000e+03" sepI="2.4267929792404175e-01" sepG="2.6997402191162109e+01" res="-9.9000000000000000e+01" rms="0.0000000000000000e+00" nType="0" CC="0.0000000000000000e+00">
            <Node pos="l" depth="3" Seq="0" IVar="-1" Cut="0.0000000000000000e+00" cType="1" nS="1.5460228271484375e+03" nB="1.0128194580078125e+03" nEv="2.5588422851562500e+03" nSuw="9.1000000000000000e+02" nBuw="2.2600000000000000e+03" nEvuw="3.1700000000000000e+03" sepI="2.3914477229118347e-01" sepG="-1.0000000000000000e+00" res="-9.9000000000000000e+01" rms="0.0000000000000000e+00" nType="1" CC="0.0000000000000000e+00"/>
            <Node pos="r" depth="3" Seq="4" IVar="-1" Cut="0.0000000000000000e+00" cType="1" nS="3.2874531745910645e+00" nB="8.3726058959960938e+01" nEv="8.7013511657714844e+01" nSuw="3.0000000000000000e+00" nBuw="1.8100000000000000e+02" nEvuw="1.8400000000000000e+02" sepI="3.6353550851345062e-02" sepG="-1.0000000000000000e+00" res="-9.9000000000000000e+01" rms="0.0000000000000000e+00" nType="-1" CC="0.0000000000000000e+00"/>
          </Node>
          <Node pos="r" depth="2" Seq="2" IVar="3" Cut="1.1473431396484375e+02" cType="0" nS="5.1660180664062500e+02" nB="8.2898773193359375e+02" nEv="1.3455895996093750e+03" nSuw="4.7300000000000000e+02" nBuw="1.0990000000000000e+03" nEvuw="1.5720000000000000e+03" sepI="2.3652596771717072e-01" sepG="2.8871126174926758e+01" res="-9.9000000000000000e+01" rms="0.0000000000000000e+00" nType="0" CC="0.0000000000000000e+00">
            <Node pos="l" depth="3" Seq="2" IVar="-1" Cut="0.0000000000000000e+00" cType="1" nS="1.2806832885742188e+02" nB="3.7060882568359375e+01" nEv="1.6512921142578125e+02" nSuw="1.6300000000000000e+02" nBuw="2.0700000000000000e+02" nEvuw="3.7000000000000000e+02" sepI="1.7406429350376129e-01" sepG="-1.0000000000000000e+00" res="-9.9000000000000000e+01" rms="0.0000000000000000e+00" nType="1" CC="0.0000000000000000e+00"/>
            <Node pos="r" depth="3" Seq="6" IVar="-1" Cut="0.0000000000000000e+00" cType="1" nS="3.8853350830078125e+02" nB="7.9192687988281250e+02" nEv="1.1804603271484375e+03" nSuw="3.1000000000000000e+02" nBuw="8.9200000000000000e+02" nEvuw="1.2020000000000000e+03" sepI="2.2080592811107635e-01" sepG="-1.0000000000000000e+00" res="-9.9000000000000000e+01" rms="0.0000000000000000e+00" nType="-1" CC="0.0000000000000000e+00"/>
          </Node>
        </Node>
        <Node pos="r" depth="1" Seq="1" IVar="3" Cut="6.5217491149902344e+01" cType="0" nS="6.8154626464843750e+02" nB="1.9225164794921875e+03" nEv="2.6040627441406250e+03" nSuw="2.5900000000000000e+02" nBuw="1.3170000000000000e+03" nEvuw="1.5760000000000000e+03" sepI="1.9322465360164642e-01" sepG="6.3269645690917969e+01" res="-9.9000000000000000e+01" rms="0.0000000000000000e+00" nType="0" CC="0.0000000000000000e+00">
          <Node pos="l" depth="2" Seq="1" IVar="1" Cut="3.1412532806396484e+01" cType="0" nS="3.5235238647460938e+02" nB="3.1638455200195312e+02" nEv="6.6873693847656250e+02" nSuw="2.0300000000000000e+02" nBuw="5.0400000000000000e+02" nEvuw="7.0700000000000000e+02" sepI="2.4927680194377899e-01" sepG="1.9153333663940430e+01" res="-9.9000000000000000e+01" rms="0.0000000000000000e+00" nType="0" CC="0.0000000000000000e+00">
            <Node pos="l" depth="3" Seq="1" IVar="-1" Cut="0.0000000000000000e+00" cType="1" nS="2.9327221679687500e+02" nB="1.6337619018554688e+02" nEv="4.5664840698242188e+02" nSuw="1.6400000000000000e+02" nBuw="3.2600000000000000e+02" nEvuw="4.9000000000000000e+02" sepI="2.2977130115032196e-01" sepG="-1.0000000000000000e+00" res="-9.9000000000000000e+01" rms="0.0000000000000000e+00" nType="1" CC="0.0000000000000000e+00"/>
            <Node pos="r" depth="3" Seq="5" IVar="-1" Cut="0.0000000000000000e+00" cType="1" nS="5.9080158233642578e+01" nB="1.5300837707519531e+02" nEv="2.1208853149414062e+02" nSuw="3.9000000000000000e+01" nBuw="1.7800000000000000e+02" nEvuw="2.1700000000000000e+02" sepI="2.0096595585346222e-01" sepG="-1.0000000000000000e+00" res="-9.9000000000000000e+01" rms="0.0000000000000000e+00" nType="-1" CC="0.0000000000000000e+00"/>
          </Node>
          <Node pos="r" depth="2" Seq="3" IVar="-1" Cut="4.6036136627197266e+01" cType="0" nS="3.2919384765625000e+02" nB="1.6061318359375000e+03" nEv="1.9353256835937500e+03" nSuw="5.6000000000000000e+01" nBuw="8.1300000000000000e+02" nEvuw="8.6900000000000000e+02" sepI="1.4116427302360535e-01" sepG="-1.0000000000000000e+00" res="-9.9000000000000000e+01" rms="0.0000000000000000e+00" nType="-1" CC="0.0000000000000000e+00"/>
        </Node>
      </Node>
    </BinaryTree>
    <BinaryTree type="DecisionTree" boostWeight="2.7115790803338469e-01" itree="4">
      <Node pos="s" depth="0" Seq="0" IVar="8" Cut="5.9917724132537842e-01" cType="0" nS="2.7248906250000000e+03" nB="3.8706174316406250e+03" nEv="6.5955078125000000e+03" nSuw="1.6450000000000000e+03" nBuw="4.8570000000000000e+03" nEvuw="6.5020000000000000e+03" sepI="2.4245592951774597e-01" sepG="5.8336025238037109e+01" res="-9.9000000000000000e+01" rms="0.0000000000000000e+00" nType="0" CC="0.0000000000000000e+00">
        <Node pos="l" depth="1" Seq="0" IVar="2" Cut="1.4463829994201660e+00" cType="1" nS="2.2500268554687500e+03" nB="2.5249226074218750e+03" nEv="4.7749497070312500e+03" nSuw="1.4890000000000000e+03" nBuw="3.9410000000000000e+03" nEvuw="5.4300000000000000e+03" sepI="2.4917140603065491e-01" sepG="2.5553083419799805e+01" res="-9.9000000000000000e+01" rms="0.0000000000000000e+00" nType="0" CC="0.0000000000000000e+00">
          <Node pos="l" depth="2" Seq="0" IVar="2" Cut="-1.6620656251907349e+00" cType="0" nS="2.0466010742187500e+03" nB="2.0355711669921875e+03" nEv="4.0821721191406250e+03" nSuw="1.3300000000000000e+03" nBuw="3.2630000000000000e+03" nEvuw="4.5930000000000000e+03" sepI="2.4999818205833435e-01" sepG="2.9663757324218750e+01" res="-9.9000000000000000e+01" rms="0.0000000000000000e+00" nType="0" CC="0.0000000000000000e+00">
            <Node pos="l" depth="3" Seq="0" IVar="-1" Cut="0.0000000000000000e+00" cType="1" nS="1.9329045410156250e+03" nB="1.7066896972656250e+03" nEv="3.6395942382812500e+03" nSuw="1.2490000000000000e+03" nBuw="2.8080000000000000e+03" nEvuw="4.0570000000000000e+03" sepI="2.4903422594070435e-01" sepG="-1.0000000000000000e+00" res="-9.9000000000000000e+01" rms="0.0000000000000000e+00" nType="1" CC="0.0000000000000000e+00"/>
            <Node pos="r" depth="3" Seq="4" IVar="-1" Cut="0.0000000000000000e+00" cType="1" nS="1.1369649505615234e+02" nB="3.2888153076171875e+02" nEv="4.4257800292968750e+02" nSuw="8.1000000000000000e+01" nBuw="4.5500000000000000e+02" nEvuw="5.3600000000000000e+02" sepI="1.9090041518211365e-01" sepG="-1.0000000000000000e+00" res="-9.9000000000000000e+01" rms="0.0000000000000000e+00" nType="-1" CC="0.0000000000000000e+00"/>
          </Node>
          <Node pos="r" depth="2" Seq="2" IVar="-1" Cut="9.7395339965820312e+01" cType="1" nS="2.0342575073242188e+02" nB="4.8935153198242188e+02" nEv="6.9277728271484375e+02" nSuw="1.5900000000000000e+02" nBuw="6.7800000000000000e+02" nEvuw="8.3700000000000000e+02" sepI="2.0741473138332367e-01" sepG="-1.0000000000000000e+00" res="-9.9000000000000000e+01" rms="0.0000000000000000e+00" nType="-1" CC="0.0000000000000000e+00"/>
        </Node>
        <Node pos="r" depth="1" Seq="1" IVar="6" Cut="5.9348426818847656e+01" cType="0" nS="4.7486373901367188e+02" nB="1.3456947021484375e+03" nEv="1.8205584716796875e+03" nSuw="1.5600000000000000e+02" nBuw="9.1600000000000000e+02" nEvuw="1.0720000000000000e+03" sepI="1.9279967248439789e-01" sepG="3.6711368560791016e+01" res="-9.9000000000000000e+01" rms="0.0000000000000000e+00" nType="0" CC="0.0000000000000000e+00">
          <Node pos="l" depth="2" Seq="1" IVar="9" Cut="9.0080726623535156e+01" cType="0" nS="2.6453671264648438e+02" nB="2.9284237670898438e+02" nEv="5.5737908935546875e+02" nSuw="1.2700000000000000e+02" nBuw="3.5900000000000000e+02" nEvuw="4.8600000000000000e+02" sepI="2.4935525655746460e-01" sepG="1.3663044929504395e+01" res="-9.9000000000000000e+01" rms="0.0000000000000000e+00" nType="0" CC="0.0000000000000000e+00">
            <Node pos="l" depth="3" Seq="1" IVar="-1" Cut="0.0000000000000000e+00" cType="1" nS="1.6730406188964844e+02" nB="9.3460479736328125e+01" nEv="2.6076452636718750e+02" nSuw="7.7000000000000000e+01" nBuw="1.9600000000000000e+02" nEvuw="2.7300000000000000e+02" sepI="2.2995212674140930e-01" sepG="-1.0000000000000000e+00" res="-9.9000000000000000e+01" rms="0.0000000000000000e+00" nType="1" CC="0.0000000000000000e+00"/>
            <Node pos="r" depth="3" Seq="5" IVar="-1" Cut="0.0000000000000000e+00" cType="1" nS="9.7232643127441406e+01" nB="1.9938188171386719e+02" nEv="2.9661453247070312e+02" nSuw="5.0000000000000000e+01" nBuw="1.6300000000000000e+02" nEvuw="2.1300000000000000e+02" sepI="2.2034995257854462e-01" sepG="-1.0000000000000000e+00" res="-9.9000000000000000e+01" rms="0.0000000000000000e+00" nType="-1" CC="0.0000000000000000e+00"/>
          </Node>
          <Node pos="r" depth="2" Seq="3" IVar="-1" Cut="9.0406768798828125e+01" cType="0" nS="2.1032705688476562e+02" nB="1.0528524169921875e+03" nEv="1.2631794433593750e+03" nSuw="2.9000000000000000e+01" nBuw="5.5700000000000000e+02" nEvuw="5.8600000000000000e+02" sepI="1.3878180086612701e-01" sepG="-1.0000000000000000e+00" res="-9.9000000000000000e+01" rms="0.0000000000000000e+00" nType="-1" CC="0.0000000000000000e+00"/>
        </Node>
      </Node>
    </BinaryTree>
    <BinaryTree type="DecisionTree" boostWeight="2.9085591778020370e-01" itree="5">
      <Node pos="s" depth="0" Seq="0" IVar="8" Cut="1.4964606761932373e+00" cType="0" nS="2.6194936523437500e+03" nB="3.9760144042968750e+03" nEv="6.5955078125000000e+03" nSuw="1.6450000000000000e+03" nBuw="4.8570000000000000e+03" nEvuw="6.5020000000000000e+03" sepI="2.3942461609840393e-01" sepG="2.9491035461425781e+01" res="-9.9000000000000000e+01" rms="0.0000000000000000e+00" nType="0" CC="0.0000000000000000e+00">
        <Node pos="l" depth="1" Seq="0" IVar="9" Cut="9.4569015502929688e+01" cType="1" nS="1.3620592041015625e+03" nB="1.5166837158203125e+03" nEv="2.8787429199218750e+03" nSuw="1.0530000000000000e+03" nBuw="2.7840000000000000e+03" nEvuw="3.8370000000000000e+03" sepI="2.4927873909473419e-01" sepG="1.7805225372314453e+01" res="-9.9000000000000000e+01" rms="0.0000000000000000e+00" nType="0" CC="0.0000000000000000e+00">
          <Node pos="l" depth="2" Seq="0" IVar="9" Cut="8.2194915771484375e+01" cType="0" nS="1.2521773681640625e+03" nB="1.2292917480468750e+03" nEv="2.4814689941406250e+03" nSuw="9.6700000000000000e+02" nBuw="2.3770000000000000e+03" nEvuw="3.3440000000000000e+03" sepI="2.4997873604297638e-01" sepG="1.0911591529846191e+01" res="-9.9000000000000000e+01" rms="0.0000000000000000e+00" nType="0" CC="0.0000000000000000e+00">
            <Node pos="l" depth="3" Seq="0" IVar="-1" Cut="0.0000000000000000e+00" cType="1" nS="1.1952432861328125e+03" nB="1.0842272949218750e+03" nEv="2.2794707031250000e+03" nSuw="9.2200000000000000e+02" nBuw="2.2530000000000000e+03" nEvuw="3.1750000000000000e+03" sepI="2.4940700829029083e-01" sepG="-1.0000000000000000e+00" res="-9.9000000000000000e+01" rms="0.0000000000000000e+00" nType="1" CC="0.0000000000000000e+00"/>
            <Node pos="r" depth="3" Seq="4" IVar="-1" Cut="0.0000000000000000e+00" cType="1" nS="5.6933971405029297e+01" nB="1.4506439208984375e+02" nEv="2.0199836730957031e+02" nSuw="4.5000000000000000e+01" nBuw="1.2400000000000000e+02" nEvuw="1.6900000000000000e+02" sepI="2.0241215825080872e-01" sepG="-1.0000000000000000e+00" res="-9.9000000000000000e+01" rms="0.0000000000000000e+00" nType="-1" CC="0.0000000000000000e+00"/>
          </Node>
          <Node pos="r" depth="2" Seq="2" IVar="-1" Cut="-6.3753677368164062e+01" cType="1" nS="1.0988191986083984e+02" nB="2.8739196777343750e+02" nEv="3.9727389526367188e+02" nSuw="8.6000000000000000e+01" nBuw="4.0700000000000000e+02" nEvuw="4.9300000000000000e+02" sepI="2.0008790493011475e-01" sepG="-1.0000000000000000e+00" res="-9.9000000000000000e+01" rms="0.0000000000000000e+00" nType="-1" CC="0.0000000000000000e+00"/>
        </Node>
        <Node pos="r" depth="1" Seq="1" IVar="3" Cut="1.1553878021240234e+02" cType="0" nS="1.2574343261718750e+03" nB="2.4593308105468750e+03" nEv="3.7167651367187500e+03" nSuw="5.9200000000000000e+02" nBuw="2.0730000000000000e+03" nEvuw="2.6650000000000000e+03" sepI="2.2385770082473755e-01" sepG="5.2069259643554688e+01" res="-9.9000000000000000e+01" rms="0.0000000000000000e+00" nType="0" CC="0.0000000000000000e+00">
          <Node pos="l" depth="2" Seq="1" IVar="-1" Cut="1.2264908599853516e+02" cType="0" nS="2.4332490539550781e+02" nB="9.9592834472656250e+01" nEv="3.4291775512695312e+02" nSuw="2.4600000000000000e+02" nBuw="2.8300000000000000e+02" nEvuw="5.2900000000000000e+02" sepI="2.0607948303222656e-01" sepG="-1.0000000000000000e+00" res="-9.9000000000000000e+01" rms="0.0000000000000000e+00" nType="1" CC="0.0000000000000000e+00"/>
          <Node pos="r" depth="2" Seq="3" IVar="-1" Cut="4.7204067230224609e+01" cType="0" nS="1.0141094360351562e+03" nB="2.3597377929687500e+03" nEv="3.3738474121093750e+03" nSuw="3.4600000000000000e+02" nBuw="1.7900000000000000e+03" nEvuw="2.1360000000000000e+03" sepI="2.1023148298263550e-01" sepG="-1.0000000000000000e+00" res="-9.9000000000000000e+01" rms="0.0000000000000000e+00" nType="-1" CC="0.0000000000000000e+00"/>
        </Node>
      </Node>
    </BinaryTree>
    <BinaryTree type="DecisionTree" boostWeight="2.0304611632731318e-01" itree="6">
      <Node pos="s" depth="0" Seq="0" IVar="1" Cut="3.1337413787841797e+01" cType="0" nS="2.6922863769531250e+03" nB="3.9032216796875000e+03" nEv="6.5955078125000000e+03" nSuw="1.6450000000000000e+03" nBuw="4.8570000000000000e+03" nEvuw="6.5020000000000000e+03" sepI="2.4157275259494781e-01" sepG="2.4925094604492188e+01" res="-9.9000000000000000e+01" rms="0.0000000000000000e+00" nType="0" CC="0.0000000000000000e+00">
        <Node pos="l" depth="1" Seq="0" IVar="2" Cut="-1.2731956243515015e+00" cType="0" nS="2.0504123535156250e+03" nB="2.5141110839843750e+03" nEv="4.5645234375000000e+03" nSuw="1.2000000000000000e+03" nBuw="3.2100000000000000e+03" nEvuw="4.4100000000000000e+03" sepI="2.4741999804973602e-01" sepG="1.7322738647460938e+01" res="-9.9000000000000000e+01" rms="0.0000000000000000e+00" nType="0" CC="0.0000000000000000e+00">
          <Node pos="l" depth="2" Seq="0" IVar="2" Cut="1.4478486776351929e+00" cType="1" nS="1.8124617919921875e+03" nB="1.9887456054687500e+03" nEv="3.8012072753906250e+03" nSuw="1.0400000000000000e+03" nBuw="2.5830000000000000e+03" nEvuw="3.6230000000000000e+03" sepI="2.4946232140064240e-01" sepG="1.9397439956665039e+01" res="-9.9000000000000000e+01" rms="0.0000000000000000e+00" nType="0" CC="0.0000000000000000e+00">
            <Node pos="l" depth="3" Seq="0" IVar="-1" Cut="0.0000000000000000e+00" cType="1" nS="1.6125632324218750e+03" nB="1.5574875488281250e+03" nEv="3.1700507812500000e+03" nSuw="9.1300000000000000e+02" nBuw="2.0340000000000000e+03" nEvuw="2.9470000000000000e+03" sepI="2.4992454051971436e-01" sepG="-1.0000000000000000e+00" res="-9.9000000000000000e+01" rms="0.0000000000000000e+00" nType="1" CC="0.0000000000000000e+00"/>
            <Node pos="r" depth="3" Seq="4" IVar="-1" Cut="0.0000000000000000e+00" cType="1" nS="1.9989849853515625e+02" nB="4.3125805664062500e+02" nEv="6.3115655517578125e+02" nSuw="1.2700000000000000e+02" nBuw="5.4900000000000000e+02" nEvuw="6.7600000000000000e+02" sepI="2.1640762686729431e-01" sepG="-1.0000000000000000e+00" res="-9.9000000000000000e+01" rms="0.0000000000000000e+00" nType="-1" CC="0.0000000000000000e+00"/>
          </Node>
          <Node pos="r" depth="2" Seq="2" IVar="-1" Cut="9.0587097406387329e-01" cType="0" nS="2.3795053100585938e+02" nB="5.2536541748046875e+02" nEv="7.6331597900390625e+02" nSuw="1.6000000000000000e+02" nBuw="6.2700000000000000e+02" nEvuw="7.8700000000000000e+02" sepI="2.1455541253089905e-01" sepG="-1.0000000000000000e+00" res="-9.9000000000000000e+01" rms="0.0000000000000000e+00" nType="-1" CC="0.0000000000000000e+00"/>
        </Node>
        <Node pos="r" depth="1" Seq="1" IVar="-1" Cut="6.1067142486572266e+01" cType="0" nS="6.4187402343750000e+02" nB="1.3891107177734375e+03" nEv="2.0309847412109375e+03" nSuw="4.4500000000000000e+02" nBuw="1.6470000000000000e+03" nEvuw="2.0920000000000000e+03" sepI="2.1615901589393616e-01" sepG="-1.0000000000000000e+00" res="-9.9000000000000000e+01" rms="0.0000000000000000e+00" nType="-1" CC="0.0000000000000000e+00"/>
      </Node>
    </BinaryTree>
    <BinaryTree type="DecisionTree" boostWeight="1.8549747460565616e-01" itree="7">
      <Node pos="s" depth="0" Seq="0" IVar="-1" Cut="2.5189624023437500e+02" cType="1" nS="2.6929501953125000e+03" nB="3.9025578613281250e+03" nEv="6.5955078125000000e+03" nSuw="1.6450000000000000e+03" nBuw="4.8570000000000000e+03" nEvuw="6.5020000000000000e+03" sepI="2.4159123003482819e-01" sepG="-1.0000000000000000e+00" res="-9.9000000000000000e+01" rms="0.0000000000000000e+00" nType="-1" CC="0.0000000000000000e+00"/>
    </BinaryTree>
    <BinaryTree type="DecisionTree" boostWeight="1.5318373226755219e-01" itree="8">
      <Node pos="s" depth="0" Seq="0" IVar="4" Cut="2.5189624023437500e+02" cType="1" nS="2.9927656250000000e+03" nB="3.6027424316406250e+03" nEv="6.5955078125000000e+03" nSuw="1.6450000000000000e+03" nBuw="4.8570000000000000e+03" nEvuw="6.5020000000000000e+03" sepI="2.4786169826984406e-01" sepG="1.7582754135131836e+01" res="-9.9000000000000000e+01" rms="0.0000000000000000e+00" nType="0" CC="0.0000000000000000e+00">
        <Node pos="l" depth="1" Seq="0" IVar="1" Cut="3.5486209869384766e+01" cType="0" nS="2.9158056640625000e+03" nB="3.3454948730468750e+03" nEv="6.2613007812500000e+03" nSuw="1.6130000000000000e+03" nBuw="4.6190000000000000e+03" nEvuw="6.2320000000000000e+03" sepI="2.4882261455059052e-01" sepG="1.6495094299316406e+01" res="-9.9000000000000000e+01" rms="0.0000000000000000e+00" nType="0" CC="0.0000000000000000e+00">
          <Node pos="l" depth="2" Seq="0" IVar="9" Cut="8.1729743957519531e+01" cType="0" nS="1.8512507324218750e+03" nB="1.7835111083984375e+03" nEv="3.6347617187500000e+03" nSuw="9.9400000000000000e+02" nBuw="2.5140000000000000e+03" nEvuw="3.5080000000000000e+03" sepI="2.4991317093372345e-01" sepG="1.1581443786621094e+01" res="-9.9000000000000000e+01" rms="0.0000000000000000e+00" nType="0" CC="0.0000000000000000e+00">
            <Node pos="l" depth="3" Seq="0" IVar="-1" Cut="0.0000000000000000e+00" cType="1" nS="1.8011884765625000e+03" nB="1.6462080078125000e+03" nEv="3.4473964843750000e+03" nSuw="9.6100000000000000e+02" nBuw="2.3950000000000000e+03" nEvuw="3.3560000000000000e+03" sepI="2.4949474632740021e-01" sepG="-1.0000000000000000e+00" res="-9.9000000000000000e+01" rms="0.0000000000000000e+00" nType="1" CC="0.0000000000000000e+00"/>
            <Node pos="r" depth="3" Seq="4" IVar="-1" Cut="0.0000000000000000e+00" cType="1" nS="5.0062263488769531e+01" nB="1.3730307006835938e+02" nEv="1.8736532592773438e+02" nSuw="3.3000000000000000e+01" nBuw="1.1900000000000000e+02" nEvuw="1.5200000000000000e+02" sepI="1.9579981267452240e-01" sepG="-1.0000000000000000e+00" res="-9.9000000000000000e+01" rms="0.0000000000000000e+00" nType="-1" CC="0.0000000000000000e+00"/>
          </Node>
          <Node pos="r" depth="2" Seq="2" IVar="3" Cut="6.1067142486572266e+01" cType="0" nS="1.0645550537109375e+03" nB="1.5619837646484375e+03" nEv="2.6265388183593750e+03" nSuw="6.1900000000000000e+02" nBuw="2.1050000000000000e+03" nEvuw="2.7240000000000000e+03" sepI="2.4103327095508575e-01" sepG="2.6445732116699219e+01" res="-9.9000000000000000e+01" rms="0.0000000000000000e+00" nType="0" CC="0.0000000000000000e+00">
            <Node pos="l" depth="3" Seq="2" IVar="-1" Cut="0.0000000000000000e+00" cType="1" nS="6.0300671386718750e+02" nB="5.6172778320312500e+02" nEv="1.1647344970703125e+03" nSuw="5.1200000000000000e+02" nBuw="1.2300000000000000e+03" nEvuw="1.7420000000000000e+03" sepI="2.4968598783016205e-01" sepG="-1.0000000000000000e+00" res="-9.9000000000000000e+01" rms="0.0000000000000000e+00" nType="1" CC="0.0000000000000000e+00"/>
            <Node pos="r" depth="3" Seq="6" IVar="-1" Cut="0.0000000000000000e+00" cType="1" nS="4.6154830932617188e+02" nB="1.0002559814453125e+03" nEv="1.4618043212890625e+03" nSuw="1.0700000000000000e+02" nBuw="8.7500000000000000e+02" nEvuw="9.8200000000000000e+02" sepI="2.1604780852794647e-01" sepG="-1.0000000000000000e+00" res="-9.9000000000000000e+01" rms="0.0000000000000000e+00" nType="-1" CC="0.0000000000000000e+00"/>
          </Node>
        </Node>
        <Node pos="r" depth="1" Seq="1" IVar="-1" Cut="0.0000000000000000e+00" cType="1" nS="7.6959838867187500e+01" nB="2.5724761962890625e+02" nEv="3.3420745849609375e+02" nSuw="3.2000000000000000e+01" nBuw="2.3800000000000000e+02" nEvuw="2.7000000000000000e+02" sepI="1.7724877595901489e-01" sepG="-1.0000000000000000e+00" res="-9.9000000000000000e+01" rms="0.0000000000000000e+00" nType="-1" CC="0.0000000000000000e+00"/>
      </Node>
    </BinaryTree>
    <BinaryTree type="DecisionTree" boostWeight="2.0543039973910712e-01" itree="9">
      <Node pos="s" depth="0" Seq="0" IVar="2" Cut="-7.2927987575531006e-01" cType="0" nS="2.8875249023437500e+03" nB="3.7079831542968750e+03" nEv="6.5955078125000000e+03" nSuw="1.6450000000000000e+03" nBuw="4.8570000000000000e+03" nEvuw="6.5020000000000000e+03" sepI="2.4613137543201447e-01" sepG="1.4715637207031250e+01" res="-9.9000000000000000e+01" rms="0.0000000000000000e+00" nType="0" CC="0.0000000000000000e+00">
        <Node pos="l" depth="1" Seq="0" IVar="2" Cut="9.5497065782546997e-01" cType="1" nS="2.1633054199218750e+03" nB="2.4518063964843750e+03" nEv="4.6151118164062500e+03" nSuw="1.1760000000000000e+03" nBuw="3.2380000000000000e+03" nEvuw="4.4140000000000000e+03" sepI="2.4902305006980896e-01" sepG="1.3160851478576660e+01" res="-9.9000000000000000e+01" rms="0.0000000000000000e+00" nType="0" CC="0.0000000000000000e+00">
          <Node pos="l" depth="2" Seq="0" IVar="9" Cut="8.5993728637695312e+01" cType="0" nS="1.4423781738281250e+03" nB="1.3784346923828125e+03" nEv="2.8208127441406250e+03" nSuw="8.0200000000000000e+02" nBuw="1.8300000000000000e+03" nEvuw="2.6320000000000000e+03" sepI="2.4987153708934784e-01" sepG="9.6065750122070312e+00" res="-9.9000000000000000e+01" rms="0.0000000000000000e+00" nType="0" CC="0.0000000000000000e+00">
            <Node pos="l" depth="3" Seq="0" IVar="-1" Cut="0.0000000000000000e+00" cType="1" nS="1.3114298095703125e+03" nB="1.1453621826171875e+03" nEv="2.4567919921875000e+03" nSuw="7.3300000000000000e+02" nBuw="1.6130000000000000e+03" nEvuw="2.3460000000000000e+03" sepI="2.4885772168636322e-01" sepG="-1.0000000000000000e+00" res="-9.9000000000000000e+01" rms="0.0000000000000000e+00" nType="1" CC="0.0000000000000000e+00"/>
            <Node pos="r" depth="3" Seq="4" IVar="-1" Cut="0.0000000000000000e+00" cType="1" nS="1.3094834899902344e+02" nB="2.3307250976562500e+02" nEv="3.6402087402343750e+02" nSuw="6.9000000000000000e+01" nBuw="2.1700000000000000e+02" nEvuw="2.8600000000000000e+02" sepI="2.3032364249229431e-01" sepG="-1.0000000000000000e+00" res="-9.9000000000000000e+01" rms="0.0000000000000000e+00" nType="-1" CC="0.0000000000000000e+00"/>
          </Node>
          <Node pos="r" depth="2" Seq="2" IVar="3" Cut="6.6356292724609375e+01" cType="0" nS="7.2092718505859375e+02" nB="1.0733715820312500e+03" nEv="1.7942988281250000e+03" nSuw="3.7400000000000000e+02" nBuw="1.4080000000000000e+03" nEvuw="1.7820000000000000e+03" sepI="2.4035434424877167e-01" sepG="1.7701082229614258e+01" res="-9.9000000000000000e+01" rms="0.0000000000000000e+00" nType="0" CC="0.0000000000000000e+00">
            <Node pos="l" depth="3" Seq="2" IVar="-1" Cut="0.0000000000000000e+00" cType="1" nS="3.0894290161132812e+02" nB="2.5414694213867188e+02" nEv="5.6308984375000000e+02" nSuw="2.9300000000000000e+02" nBuw="7.0500000000000000e+02" nEvuw="9.9800000000000000e+02" sepI="2.4763254821300507e-01" sepG="-1.0000000000000000e+00" res="-9.9000000000000000e+01" rms="0.0000000000000000e+00" nType="1" CC="0.0000000000000000e+00"/>
            <Node pos="r" depth="3" Seq="6" IVar="-1" Cut="0.0000000000000000e+00" cType="1" nS="4.1198428344726562e+02" nB="8.1922467041015625e+02" nEv="1.2312089843750000e+03" nSuw="8.1000000000000000e+01" nBuw="7.0300000000000000e+02" nEvuw="7.8400000000000000e+02" sepI="2.2264869511127472e-01" sepG="-1.0000000000000000e+00" res="-9.9000000000000000e+01" rms="0.0000000000000000e+00" nType="-1" CC="0.0000000000000000e+00"/>
          </Node>
        </Node>
        <Node pos="r" depth="1" Seq="1" IVar="8" Cut="1.1991300582885742e+00" cType="0" nS="7.2421954345703125e+02" nB="1.2561768798828125e+03" nEv="1.9803963623046875e+03" nSuw="4.6900000000000000e+02" nBuw="1.6190000000000000e+03" nEvuw="2.0880000000000000e+03" sepI="2.3196196556091309e-01" sepG="1.7884473800659180e+01" res="-9.9000000000000000e+01" rms="0.0000000000000000e+00" nType="0" CC="0.0000000000000000e+00">
          <Node pos="l" depth="2" Seq="1" IVar="8" Cut="1.9389433860778809e+00" cType="1" nS="5.2946649169921875e+02" nB="6.6668457031250000e+02" nEv="1.1961510009765625e+03" nSuw="3.6100000000000000e+02" nBuw="1.0510000000000000e+03" nEvuw="1.4120000000000000e+03" sepI="2.4671003222465515e-01" sepG="7.2522892951965332e+00" res="-9.9000000000000000e+01" rms="0.0000000000000000e+00" nType="0" CC="0.0000000000000000e+00">
            <Node pos="l" depth="3" Seq="1" IVar="-1" Cut="0.0000000000000000e+00" cType="1" nS="2.5391241455078125e+02" nB="2.1691798400878906e+02" nEv="4.7083041381835938e+02" nSuw="1.4200000000000000e+02" nBuw="3.3600000000000000e+02" nEvuw="4.7800000000000000e+02" sepI="2.4845658242702484e-01" sepG="-1.0000000000000000e+00" res="-9.9000000000000000e+01" rms="0.0000000000000000e+00" nType="1" CC="0.0000000000000000e+00"/>
            <Node pos="r" depth="3" Seq="5" IVar="-1" Cut="0.0000000000000000e+00" cType="1" nS="2.7555404663085938e+02" nB="4.4976657104492188e+02" nEv="7.2532061767578125e+02" nSuw="2.1900000000000000e+02" nBuw="7.1500000000000000e+02" nEvuw="9.3400000000000000e+02" sepI="2.3557756841182709e-01" sepG="-1.0000000000000000e+00" res="-9.9000000000000000e+01" rms="0.0000000000000000e+00" nType="-1" CC="0.0000000000000000e+00"/>
          </Node>
          <Node pos="r" depth="2" Seq="3" IVar="-1" Cut="6.0573966979980469e+01" cType="0" nS="1.9475306701660156e+02" nB="5.8949224853515625e+02" nEv="7.8424536132812500e+02" nSuw="1.0800000000000000e+02" nBuw="5.6800000000000000e+02" nEvuw="6.7600000000000000e+02" sepI="1.8666312098503113e-01" sepG="-1.0000000000000000e+00" res="-9.9000000000000000e+01" rms="0.0000000000000000e+00" nType="-1" CC="0.0000000000000000e+00"/>
        </Node>
      </Node>
    </BinaryTree>
    <BinaryTree type="DecisionTree" boostWeight="1.7204808492669174e-01" itree="10">
      <Node pos="s" depth="0" Seq="0" IVar="4" Cut="2.5189624023437500e+02" cType="1" nS="2.8586696777343750e+03" nB="3.7368383789062500e+03" nEv="6.5955078125000000e+03" nSuw="1.6450000000000000e+03" nBuw="4.8570000000000000e+03" nEvuw="6.5020000000000000e+03" sepI="2.4556800723075867e-01" sepG="1.2004508972167969e+01" res="-9.9000000000000000e+01" rms="0.0000000000000000e+00" nType="0" CC="0.0000000000000000e+00">
        <Node pos="l" depth="1" Seq="0" IVar="1" Cut="6.6445739746093750e+01" cType="0" nS="2.7780615234375000e+03" nB="3.4905676269531250e+03" nEv="6.2686293945312500e+03" nSuw="1.6130000000000000e+03" nBuw="4.6190000000000000e+03" nEvuw="6.2320000000000000e+03" sepI="2.4677023291587830e-01" sepG="9.7732572555541992e+00" res="-9.9000000000000000e+01" rms="0.0000000000000000e+00" nType="0" CC="0.0000000000000000e+00">
          <Node pos="l" depth="2" Seq="0" IVar="8" Cut="2.0941998958587646e+00" cType="1" nS="3.9900595092773438e+02" nB="3.2303829956054688e+02" nEv="7.2204425048828125e+02" nSuw="1.3800000000000000e+02" nBuw="4.1400000000000000e+02" nEvuw="5.5200000000000000e+02" sepI="2.4723261594772339e-01" sepG="9.4139499664306641e+00" res="-9.9000000000000000e+01" rms="0.0000000000000000e+00" nType="0" CC="0.0000000000000000e+00">
            <Node pos="l" depth="3" Seq="0" IVar="-1" Cut="0.0000000000000000e+00" cType="1" nS="3.7105831909179688e+02" nB="2.4830307006835938e+02" nEv="6.1936138916015625e+02" nSuw="1.1900000000000000e+02" nBuw="2.2100000000000000e+02" nEvuw="3.4000000000000000e+02" sepI="2.4017953872680664e-01" sepG="-1.0000000000000000e+00" res="-9.9000000000000000e+01" rms="0.0000000000000000e+00" nType="1" CC="0.0000000000000000e+00"/>
            <Node pos="r" depth="3" Seq="4" IVar="-1" Cut="0.0000000000000000e+00" cType="1" nS="2.7947626113891602e+01" nB="7.4735229492187500e+01" nEv="1.0268285369873047e+02" nSuw="1.9000000000000000e+01" nBuw="1.9300000000000000e+02" nEvuw="2.1200000000000000e+02" sepI="1.9809542596340179e-01" sepG="-1.0000000000000000e+00" res="-9.9000000000000000e+01" rms="0.0000000000000000e+00" nType="-1" CC="0.0000000000000000e+00"/>
          </Node>
          <Node pos="r" depth="2" Seq="2" IVar="-1" Cut="8.9827167987823486e-01" cType="0" nS="2.3790556640625000e+03" nB="3.1675292968750000e+03" nEv="5.5465849609375000e+03" nSuw="1.4750000000000000e+03" nBuw="4.2050000000000000e+03" nEvuw="5.6800000000000000e+03" sepI="2.4494799971580505e-01" sepG="-1.0000000000000000e+00" res="-9.9000000000000000e+01" rms="0.0000000000000000e+00" nType="-1" CC="0.0000000000000000e+00"/>
        </Node>
        <Node pos="r" depth="1" Seq="1" IVar="-1" Cut="0.0000000000000000e+00" cType="1" nS="8.0608070373535156e+01" nB="2.4627081298828125e+02" nEv="3.2687887573242188e+02" nSuw="3.2000000000000000e+01" nBuw="2.3800000000000000e+02" nEvuw="2.7000000000000000e+02" sepI="1.8578803539276123e-01" sepG="-1.0000000000000000e+00" res="-9.9000000000000000e+01" rms="0.0000000000000000e+00" nType="-1" CC="0.0000000000000000e+00"/>
      </Node>
    </BinaryTree>
    <BinaryTree type="DecisionTree" boostWeight="1.1999701201362895e-01" itree="11">
      <Node pos="s" depth="0" Seq="0" IVar="4" Cut="2.5189624023437500e+02" cType="1" nS="3.0854045410156250e+03" nB="3.5101035156250000e+03" nEv="6.5955078125000000e+03" nSuw="1.6450000000000000e+03" nBuw="4.8570000000000000e+03" nEvuw="6.5020000000000000e+03" sepI="2.4896341562271118e-01" sepG="1.1765111923217773e+01" res="-9.9000000000000000e+01" rms="0.0000000000000000e+00" nType="0" CC="0.0000000000000000e+00">
        <Node pos="l" depth="1" Seq="0" IVar="8" Cut="5.9917724132537842e-01" cType="0" nS="2.9965808105468750e+03" nB="3.2816254882812500e+03" nEv="6.2782060546875000e+03" nSuw="1.6130000000000000e+03" nBuw="4.6190000000000000e+03" nEvuw="6.2320000000000000e+03" sepI="2.4948465824127197e-01" sepG="9.0084810256958008e+00" res="-9.9000000000000000e+01" rms="0.0000000000000000e+00" nType="0" CC="0.0000000000000000e+00">
          <Node pos="l" depth="2" Seq="0" IVar="4" Cut="1.8601138305664062e+02" cType="0" nS="2.4100754394531250e+03" nB="2.4299431152343750e+03" nEv="4.8400185546875000e+03" nSuw="1.4790000000000000e+03" nBuw="3.7770000000000000e+03" nEvuw="5.2560000000000000e+03" sepI="2.4999578297138214e-01" sepG="1.0843776702880859e+01" res="-9.9000000000000000e+01" rms="0.0000000000000000e+00" nType="0" CC="0.0000000000000000e+00">
            <Node pos="l" depth="3" Seq="0" IVar="-1" Cut="0.0000000000000000e+00" cType="1" nS="2.4953782653808594e+02" nB="1.2818527221679688e+02" nEv="3.7772311401367188e+02" nSuw="6.4000000000000000e+01" nBuw="3.1000000000000000e+02" nEvuw="3.7400000000000000e+02" sepI="2.2419577836990356e-01" sepG="-1.0000000000000000e+00" res="-9.9000000000000000e+01" rms="0.0000000000000000e+00" nType="1" CC="0.0000000000000000e+00"/>
            <Node pos="r" depth="3" Seq="4" IVar="-1" Cut="0.0000000000000000e+00" cType="1" nS="2.1605375976562500e+03" nB="2.3017578125000000e+03" nEv="4.4622954101562500e+03" nSuw="1.4150000000000000e+03" nBuw="3.4670000000000000e+03" nEvuw="4.8820000000000000e+03" sepI="2.4974961578845978e-01" sepG="-1.0000000000000000e+00" res="-9.9000000000000000e+01" rms="0.0000000000000000e+00" nType="-1" CC="0.0000000000000000e+00"/>
          </Node>
          <Node pos="r" depth="2" Seq="2" IVar="6" Cut="5.9348426818847656e+01" cType="0" nS="5.8650537109375000e+02" nB="8.5168225097656250e+02" nEv="1.4381876220703125e+03" nSuw="1.3400000000000000e+02" nBuw="8.4200000000000000e+02" nEvuw="9.7600000000000000e+02" sepI="2.4150075018405914e-01" sepG="1.7153215408325195e+01" res="-9.9000000000000000e+01" rms="0.0000000000000000e+00" nType="0" CC="0.0000000000000000e+00">
            <Node pos="l" depth="3" Seq="2" IVar="-1" Cut="0.0000000000000000e+00" cType="1" nS="2.6769638061523438e+02" nB="2.0756616210937500e+02" nEv="4.7526254272460938e+02" nSuw="1.0700000000000000e+02" nBuw="3.2900000000000000e+02" nEvuw="4.3600000000000000e+02" sepI="2.4599817395210266e-01" sepG="-1.0000000000000000e+00" res="-9.9000000000000000e+01" rms="0.0000000000000000e+00" nType="1" CC="0.0000000000000000e+00"/>
            <Node pos="r" depth="3" Seq="6" IVar="-1" Cut="0.0000000000000000e+00" cType="1" nS="3.1880899047851562e+02" nB="6.4411608886718750e+02" nEv="9.6292510986328125e+02" nSuw="2.7000000000000000e+01" nBuw="5.1300000000000000e+02" nEvuw="5.4000000000000000e+02" sepI="2.2146734595298767e-01" sepG="-1.0000000000000000e+00" res="-9.9000000000000000e+01" rms="0.0000000000000000e+00" nType="-1" CC="0.0000000000000000e+00"/>
          </Node>
        </Node>
        <Node pos="r" depth="1" Seq="1" IVar="-1" Cut="0.0000000000000000e+00" cType="1" nS="8.8823844909667969e+01" nB="2.2847802734375000e+02" nEv="3.1730187988281250e+02" nSuw="3.2000000000000000e+01" nBuw="2.3800000000000000e+02" nEvuw="2.7000000000000000e+02" sepI="2.0157131552696228e-01" sepG="-1.0000000000000000e+00" res="-9.9000000000000000e+01" rms="0.0000000000000000e+00" nType="-1" CC="0.0000000000000000e+00"/>
      </Node>
    </BinaryTree>
    <BinaryTree type="DecisionTree" boostWeight="1.5126419417289896e-01" itree="12">
      <Node pos="s" depth="0" Seq="0" IVar="8" Cut="5.9917724132537842e-01" cType="0" nS="3.2314367675781250e+03" nB="3.3640712890625000e+03" nEv="6.5955078125000000e+03" nSuw="1.6450000000000000e+03" nBuw="4.8570000000000000e+03" nEvuw="6.5020000000000000e+03" sepI="2.4989889562129974e-01" sepG="1.2737485885620117e+01" res="-9.9000000000000000e+01" rms="0.0000000000000000e+00" nType="0" CC="0.0000000000000000e+00">
        <Node pos="l" depth="1" Seq="0" IVar="4" Cut="2.5189624023437500e+02" cType="1" nS="2.5628339843750000e+03" nB="2.4134133300781250e+03" nEv="4.9762470703125000e+03" nSuw="1.4890000000000000e+03" nBuw="3.9410000000000000e+03" nEvuw="5.4300000000000000e+03" sepI="2.4977460503578186e-01" sepG="1.4202184677124023e+01" res="-9.9000000000000000e+01" rms="0.0000000000000000e+00" nType="0" CC="0.0000000000000000e+00">
          <Node pos="l" depth="2" Seq="0" IVar="9" Cut="9.3141395568847656e+01" cType="1" nS="2.5427932128906250e+03" nB="2.3162651367187500e+03" nEv="4.8590581054687500e+03" nSuw="1.4790000000000000e+03" nBuw="3.7770000000000000e+03" nEvuw="5.2560000000000000e+03" sepI="2.4945664405822754e-01" sepG="1.0053977012634277e+01" res="-9.9000000000000000e+01" rms="0.0000000000000000e+00" nType="0" CC="0.0000000000000000e+00">
            <Node pos="l" depth="3" Seq="0" IVar="-1" Cut="0.0000000000000000e+00" cType="1" nS="2.0765107421875000e+03" nB="1.7167474365234375e+03" nEv="3.7932583007812500e+03" nSuw="1.2460000000000000e+03" nBuw="2.8590000000000000e+03" nEvuw="4.1050000000000000e+03" sepI="2.4775120615959167e-01" sepG="-1.0000000000000000e+00" res="-9.9000000000000000e+01" rms="0.0000000000000000e+00" nType="1" CC="0.0000000000000000e+00"/>
            <Node pos="r" depth="3" Seq="4" IVar="-1" Cut="0.0000000000000000e+00" cType="1" nS="4.6628247070312500e+02" nB="5.9951757812500000e+02" nEv="1.0658000488281250e+03" nSuw="2.3300000000000000e+02" nBuw="9.1800000000000000e+02" nEvuw="1.1510000000000000e+03" sepI="2.4609315395355225e-01" sepG="-1.0000000000000000e+00" res="-9.9000000000000000e+01" rms="0.0000000000000000e+00" nType="-1" CC="0.0000000000000000e+00"/>
          </Node>
          <Node pos="r" depth="2" Seq="2" IVar="-1" Cut="0.0000000000000000e+00" cType="1" nS="2.0040821075439453e+01" nB="9.7148193359375000e+01" nEv="1.1718901824951172e+02" nSuw="1.0000000000000000e+01" nBuw="1.6400000000000000e+02" nEvuw="1.7400000000000000e+02" sepI="1.4176742732524872e-01" sepG="-1.0000000000000000e+00" res="-9.9000000000000000e+01" rms="0.0000000000000000e+00" nType="-1" CC="0.0000000000000000e+00"/>
        </Node>
        <Node pos="r" depth="1" Seq="1" IVar="9" Cut="9.0406448364257812e+01" cType="0" nS="6.6860272216796875e+02" nB="9.5065808105468750e+02" nEv="1.6192607421875000e+03" nSuw="1.5600000000000000e+02" nBuw="9.1600000000000000e+02" nEvuw="1.0720000000000000e+03" sepI="2.4241465330123901e-01" sepG="1.5717187881469727e+01" res="-9.9000000000000000e+01" rms="0.0000000000000000e+00" nType="0" CC="0.0000000000000000e+00">
          <Node pos="l" depth="2" Seq="1" IVar="6" Cut="5.9348426818847656e+01" cType="0" nS="4.1989581298828125e+02" nB="4.0388064575195312e+02" nEv="8.2377642822265625e+02" nSuw="8.7000000000000000e+01" nBuw="4.5100000000000000e+02" nEvuw="5.3800000000000000e+02" sepI="2.4990551173686981e-01" sepG="5.9408011436462402e+00" res="-9.9000000000000000e+01" rms="0.0000000000000000e+00" nType="0" CC="0.0000000000000000e+00">
            <Node pos="l" depth="3" Seq="1" IVar="-1" Cut="0.0000000000000000e+00" cType="1" nS="1.5838334655761719e+02" nB="8.9401817321777344e+01" nEv="2.4778517150878906e+02" nSuw="6.8000000000000000e+01" nBuw="1.8500000000000000e+02" nEvuw="2.5300000000000000e+02" sepI="2.3062440752983093e-01" sepG="-1.0000000000000000e+00" res="-9.9000000000000000e+01" rms="0.0000000000000000e+00" nType="1" CC="0.0000000000000000e+00"/>
            <Node pos="r" depth="3" Seq="5" IVar="-1" Cut="0.0000000000000000e+00" cType="1" nS="2.6151245117187500e+02" nB="3.1447882080078125e+02" nEv="5.7599127197265625e+02" nSuw="1.9000000000000000e+01" nBuw="2.6600000000000000e+02" nEvuw="2.8500000000000000e+02" sepI="2.4788598716259003e-01" sepG="-1.0000000000000000e+00" res="-9.9000000000000000e+01" rms="0.0000000000000000e+00" nType="-1" CC="0.0000000000000000e+00"/>
          </Node>
          <Node pos="r" depth="2" Seq="3" IVar="-1" Cut="6.6617187500000000e+01" cType="0" nS="2.4870690917968750e+02" nB="5.4677740478515625e+02" nEv="7.9548431396484375e+02" nSuw="6.9000000000000000e+01" nBuw="4.6500000000000000e+02" nEvuw="5.3400000000000000e+02" sepI="2.1489937603473663e-01" sepG="-1.0000000000000000e+00" res="-9.9000000000000000e+01" rms="0.0000000000000000e+00" nType="-1" CC="0.0000000000000000e+00"/>
        </Node>
      </Node>
    </BinaryTree>
    <BinaryTree type="DecisionTree" boostWeight="1.0303207099103683e-01" itree="13">
      <Node pos="s" depth="0" Seq="0" IVar="0" Cut="2.2919059753417969e+02" cType="1" nS="3.1739238281250000e+03" nB="3.4215842285156250e+03" nEv="6.5955078125000000e+03" nSuw="1.6450000000000000e+03" nBuw="4.8570000000000000e+03" nEvuw="6.5020000000000000e+03" sepI="2.4964749813079834e-01" sepG="9.6212434768676758e+00" res="-9.9000000000000000e+01" rms="0.0000000000000000e+00" nType="0" CC="0.0000000000000000e+00">
        <Node pos="l" depth="1" Seq="0" IVar="7" Cut="2.2572835922241211e+01" cType="0" nS="3.1432690429687500e+03" nB="3.3133886718750000e+03" nEv="6.4566577148437500e+03" nSuw="1.6330000000000000e+03" nBuw="4.7110000000000000e+03" nEvuw="6.3440000000000000e+03" sepI="2.4982644617557526e-01" sepG="8.1623029708862305e+00" res="-9.9000000000000000e+01" rms="0.0000000000000000e+00" nType="0" CC="0.0000000000000000e+00">
          <Node pos="l" depth="2" Seq="0" IVar="4" Cut="1.4108819580078125e+02" cType="0" nS="1.3149464111328125e+03" nB="1.1568986816406250e+03" nEv="2.4718452148437500e+03" nSuw="6.9900000000000000e+02" nBuw="1.8570000000000000e+03" nEvuw="2.5560000000000000e+03" sepI="2.4897794425487518e-01" sepG="1.1718365669250488e+01" res="-9.9000000000000000e+01" rms="0.0000000000000000e+00" nType="0" CC="0.0000000000000000e+00">
            <Node pos="l" depth="3" Seq="0" IVar="-1" Cut="0.0000000000000000e+00" cType="1" nS="4.2751272583007812e+02" nB="2.3445799255371094e+02" nEv="6.6197070312500000e+02" nSuw="1.4400000000000000e+02" nBuw="4.2500000000000000e+02" nEvuw="5.6900000000000000e+02" sepI="2.2873705625534058e-01" sepG="-1.0000000000000000e+00" res="-9.9000000000000000e+01" rms="0.0000000000000000e+00" nType="1" CC="0.0000000000000000e+00"/>
            <Node pos="r" depth="3" Seq="4" IVar="-1" Cut="0.0000000000000000e+00" cType="1" nS="8.8743371582031250e+02" nB="9.2244073486328125e+02" nEv="1.8098743896484375e+03" nSuw="5.5500000000000000e+02" nBuw="1.4320000000000000e+03" nEvuw="1.9870000000000000e+03" sepI="2.4990646541118622e-01" sepG="-1.0000000000000000e+00" res="-9.9000000000000000e+01" rms="0.0000000000000000e+00" nType="-1" CC="0.0000000000000000e+00"/>
          </Node>
          <Node pos="r" depth="2" Seq="2" IVar="0" Cut="8.7020011901855469e+01" cType="1" nS="1.8283225097656250e+03" nB="2.1564899902343750e+03" nEv="3.9848125000000000e+03" nSuw="9.3400000000000000e+02" nBuw="2.8540000000000000e+03" nEvuw="3.7880000000000000e+03" sepI="2.4830442667007446e-01" sepG="8.9543685913085938e+00" res="-9.9000000000000000e+01" rms="0.0000000000000000e+00" nType="0" CC="0.0000000000000000e+00">
            <Node pos="l" depth="3" Seq="2" IVar="-1" Cut="0.0000000000000000e+00" cType="1" nS="1.0257851562500000e+03" nB="1.0040928344726562e+03" nEv="2.0298780517578125e+03" nSuw="5.7900000000000000e+02" nBuw="1.4800000000000000e+03" nEvuw="2.0590000000000000e+03" sepI="2.4997144937515259e-01" sepG="-1.0000000000000000e+00" res="-9.9000000000000000e+01" rms="0.0000000000000000e+00" nType="1" CC="0.0000000000000000e+00"/>
            <Node pos="r" depth="3" Seq="6" IVar="-1" Cut="0.0000000000000000e+00" cType="1" nS="8.0253735351562500e+02" nB="1.1523972167968750e+03" nEv="1.9549345703125000e+03" nSuw="3.5500000000000000e+02" nBuw="1.3740000000000000e+03" nEvuw="1.7290000000000000e+03" sepI="2.4199311435222626e-01" sepG="-1.0000000000000000e+00" res="-9.9000000000000000e+01" rms="0.0000000000000000e+00" nType="-1" CC="0.0000000000000000e+00"/>
          </Node>
        </Node>
        <Node pos="r" depth="1" Seq="1" IVar="-1" Cut="0.0000000000000000e+00" cType="1" nS="3.0654903411865234e+01" nB="1.0819544219970703e+02" nEv="1.3885034179687500e+02" nSuw="1.2000000000000000e+01" nBuw="1.4600000000000000e+02" nEvuw="1.5800000000000000e+02" sepI="1.7203427851200104e-01" sepG="-1.0000000000000000e+00" res="-9.9000000000000000e+01" rms="0.0000000000000000e+00" nType="-1" CC="0.0000000000000000e+00"/>
      </Node>
    </BinaryTree>
    <BinaryTree type="DecisionTree" boostWeight="1.5438887386259464e-01" itree="14">
      <Node pos="s" depth="0" Seq="0" IVar="7" Cut="2.2572835922241211e+01" cType="0" nS="3.2046179199218750e+03" nB="3.3908901367187500e+03" nEv="6.5955078125000000e+03" nSuw="1.6450000000000000e+03" nBuw="4.8570000000000000e+03" nEvuw="6.5020000000000000e+03" sepI="2.4980059266090393e-01" sepG="1.1847794532775879e+01" res="-9.9000000000000000e+01" rms="0.0000000000000000e+00" nType="0" CC="0.0000000000000000e+00">
        <Node pos="l" depth="1" Seq="0" IVar="5" Cut="7.9347076416015625e+01" cType="0" nS="1.3615866699218750e+03" nB="1.1611242675781250e+03" nEv="2.5227109375000000e+03" nSuw="7.0400000000000000e+02" nBuw="1.9160000000000000e+03" nEvuw="2.6200000000000000e+03" sepI="2.4842140078544617e-01" sepG="1.1185378074645996e+01" res="-9.9000000000000000e+01" rms="0.0000000000000000e+00" nType="0" CC="0.0000000000000000e+00">
          <Node pos="l" depth="2" Seq="0" IVar="-1" Cut="9.0246731042861938e-01" cType="0" nS="7.9579571533203125e+02" nB="5.2318060302734375e+02" nEv="1.3189763183593750e+03" nSuw="3.3500000000000000e+02" nBuw="9.4500000000000000e+02" nEvuw="1.2800000000000000e+03" sepI="2.3932012915611267e-01" sepG="-1.0000000000000000e+00" res="-9.9000000000000000e+01" rms="0.0000000000000000e+00" nType="1" CC="0.0000000000000000e+00"/>
          <Node pos="r" depth="2" Seq="2" IVar="7" Cut="3.8819370269775391e+01" cType="0" nS="5.6579089355468750e+02" nB="6.3794366455078125e+02" nEv="1.2037346191406250e+03" nSuw="3.6900000000000000e+02" nBuw="9.7100000000000000e+02" nEvuw="1.3400000000000000e+03" sepI="2.4910177290439606e-01" sepG="7.9489736557006836e+00" res="-9.9000000000000000e+01" rms="0.0000000000000000e+00" nType="0" CC="0.0000000000000000e+00">
            <Node pos="l" depth="3" Seq="2" IVar="-1" Cut="0.0000000000000000e+00" cType="1" nS="4.3474310302734375e+02" nB="3.9378942871093750e+02" nEv="8.2853253173828125e+02" nSuw="3.2200000000000000e+02" nBuw="7.2300000000000000e+02" nEvuw="1.0450000000000000e+03" sepI="2.4938918650150299e-01" sepG="-1.0000000000000000e+00" res="-9.9000000000000000e+01" rms="0.0000000000000000e+00" nType="1" CC="0.0000000000000000e+00"/>
            <Node pos="r" depth="3" Seq="6" IVar="-1" Cut="0.0000000000000000e+00" cType="1" nS="1.3104779052734375e+02" nB="2.4415423583984375e+02" nEv="3.7520202636718750e+02" nSuw="4.7000000000000000e+01" nBuw="2.4800000000000000e+02" nEvuw="2.9500000000000000e+02" sepI="2.2728125751018524e-01" sepG="-1.0000000000000000e+00" res="-9.9000000000000000e+01" rms="0.0000000000000000e+00" nType="-1" CC="0.0000000000000000e+00"/>
          </Node>
        </Node>
        <Node pos="r" depth="1" Seq="1" IVar="6" Cut="7.1376228332519531e+01" cType="0" nS="1.8430312500000000e+03" nB="2.2297658691406250e+03" nEv="4.0727971191406250e+03" nSuw="9.4100000000000000e+02" nBuw="2.9410000000000000e+03" nEvuw="3.8820000000000000e+03" sepI="2.4774585664272308e-01" sepG="1.3146917343139648e+01" res="-9.9000000000000000e+01" rms="0.0000000000000000e+00" nType="0" CC="0.0000000000000000e+00">
          <Node pos="l" depth="2" Seq="1" IVar="-1" Cut="2.4523539841175079e-01" cType="1" nS="2.3844439697265625e+02" nB="1.4001980590820312e+02" nEv="3.7846420288085938e+02" nSuw="1.1600000000000000e+02" nBuw="2.3900000000000000e+02" nEvuw="3.5500000000000000e+02" sepI="2.3309178650379181e-01" sepG="-1.0000000000000000e+00" res="-9.9000000000000000e+01" rms="0.0000000000000000e+00" nType="1" CC="0.0000000000000000e+00"/>
          <Node pos="r" depth="2" Seq="3" IVar="-1" Cut="5.9962809085845947e-01" cType="0" nS="1.6045869140625000e+03" nB="2.0897460937500000e+03" nEv="3.6943330078125000e+03" nSuw="8.2500000000000000e+02" nBuw="2.7020000000000000e+03" nEvuw="3.5270000000000000e+03" sepI="2.4568842351436615e-01" sepG="-1.0000000000000000e+00" res="-9.9000000000000000e+01" rms="0.0000000000000000e+00" nType="-1" CC="0.0000000000000000e+00"/>
        </Node>
      </Node>
    </BinaryTree>
    <BinaryTree type="DecisionTree" boostWeight="4.7055167347098414e-02" itree="15">
      <Node pos="s" depth="0" Seq="0" IVar="0" Cut="2.2919059753417969e+02" cType="1" nS="3.2636748046875000e+03" nB="3.3318330078125000e+03" nEv="6.5955078125000000e+03" nSuw="1.6450000000000000e+03" nBuw="4.8570000000000000e+03" nEvuw="6.5020000000000000e+03" sepI="2.4997329711914062e-01" sepG="9.0500135421752930e+00" res="-9.9000000000000000e+01" rms="0.0000000000000000e+00" nType="0" CC="0.0000000000000000e+00">
        <Node pos="l" depth="1" Seq="0" IVar="0" Cut="4.9430576324462891e+01" cType="0" nS="3.2330012207031250e+03" nB="3.2316735839843750e+03" nEv="6.4646748046875000e+03" nSuw="1.6330000000000000e+03" nBuw="4.7110000000000000e+03" nEvuw="6.3440000000000000e+03" sepI="2.4999998509883881e-01" sepG="9.4482440948486328e+00" res="-9.9000000000000000e+01" rms="0.0000000000000000e+00" nType="0" CC="0.0000000000000000e+00">
          <Node pos="l" depth="2" Seq="0" IVar="6" Cut="-1.4291304016113281e+02" cType="0" nS="3.1544951171875000e+03" nB="3.0574101562500000e+03" nEv="6.2119052734375000e+03" nSuw="1.5590000000000000e+03" nBuw="4.5290000000000000e+03" nEvuw="6.0880000000000000e+03" sepI="2.4993893504142761e-01" sepG="6.1864919662475586e+00" res="-9.9000000000000000e+01" rms="0.0000000000000000e+00" nType="0" CC="0.0000000000000000e+00">
            <Node pos="l" depth="3" Seq="0" IVar="-1" Cut="0.0000000000000000e+00" cType="1" nS="3.1544951171875000e+03" nB="3.0335122070312500e+03" nEv="6.1880073242187500e+03" nSuw="1.5590000000000000e+03" nBuw="4.2220000000000000e+03" nEvuw="5.7810000000000000e+03" sepI="2.4990443885326385e-01" sepG="-1.0000000000000000e+00" res="-9.9000000000000000e+01" rms="0.0000000000000000e+00" nType="1" CC="0.0000000000000000e+00"/>
            <Node pos="r" depth="3" Seq="4" IVar="-1" Cut="0.0000000000000000e+00" cType="1" nS="0.0000000000000000e+00" nB="2.3897935867309570e+01" nEv="2.3897935867309570e+01" nSuw="0.0000000000000000e+00" nBuw="3.0700000000000000e+02" nEvuw="3.0700000000000000e+02" sepI="0.0000000000000000e+00" sepG="-1.0000000000000000e+00" res="-9.9000000000000000e+01" rms="0.0000000000000000e+00" nType="-1" CC="0.0000000000000000e+00"/>
          </Node>
          <Node pos="r" depth="2" Seq="2" IVar="-1" Cut="0.0000000000000000e+00" cType="1" nS="7.8506156921386719e+01" nB="1.7426339721679688e+02" nEv="2.5276956176757812e+02" nSuw="7.4000000000000000e+01" nBuw="1.8200000000000000e+02" nEvuw="2.5600000000000000e+02" sepI="2.1412155032157898e-01" sepG="-1.0000000000000000e+00" res="-9.9000000000000000e+01" rms="0.0000000000000000e+00" nType="-1" CC="0.0000000000000000e+00"/>
        </Node>
        <Node pos="r" depth="1" Seq="1" IVar="-1" Cut="0.0000000000000000e+00" cType="1" nS="3.0673681259155273e+01" nB="1.0015956115722656e+02" nEv="1.3083323669433594e+02" nSuw="1.2000000000000000e+01" nBuw="1.4600000000000000e+02" nEvuw="1.5800000000000000e+02" sepI="1.7948250472545624e-01" sepG="-1.0000000000000000e+00" res="-9.9000000000000000e+01" rms="0.0000000000000000e+00" nType="-1" CC="0.0000000000000000e+00"/>
      </Node>
    </BinaryTree>
    <BinaryTree type="DecisionTree" boostWeight="5.3294746076851821e-02" itree="16">
      <Node pos="s" depth="0" Seq="0" IVar="0" Cut="2.2919059753417969e+02" cType="1" nS="3.1955737304687500e+03" nB="3.3999343261718750e+03" nEv="6.5955078125000000e+03" nSuw="1.6450000000000000e+03" nBuw="4.8570000000000000e+03" nEvuw="6.5020000000000000e+03" sepI="2.4975998699665070e-01" sepG="7.6949081420898438e+00" res="-9.9000000000000000e+01" rms="0.0000000000000000e+00" nType="0" CC="0.0000000000000000e+00">
        <Node pos="l" depth="1" Seq="0" IVar="0" Cut="4.9430576324462891e+01" cType="0" nS="3.1641437988281250e+03" nB="3.3020224609375000e+03" nEv="6.4661660156250000e+03" nSuw="1.6330000000000000e+03" nBuw="4.7110000000000000e+03" nEvuw="6.3440000000000000e+03" sepI="2.4988633394241333e-01" sepG="7.4158811569213867e+00" res="-9.9000000000000000e+01" rms="0.0000000000000000e+00" nType="0" CC="0.0000000000000000e+00">
          <Node pos="l" depth="2" Seq="0" IVar="6" Cut="9.2817665100097656e+01" cType="0" nS="3.0837019042968750e+03" nB="3.1316699218750000e+03" nEv="6.2153715820312500e+03" nSuw="1.5590000000000000e+03" nBuw="4.5290000000000000e+03" nEvuw="6.0880000000000000e+03" sepI="2.4998511373996735e-01" sepG="5.8790340423583984e+00" res="-9.9000000000000000e+01" rms="0.0000000000000000e+00" nType="0" CC="0.0000000000000000e+00">
            <Node pos="l" depth="3" Seq="0" IVar="-1" Cut="0.0000000000000000e+00" cType="1" nS="1.6250823974609375e+02" nB="8.9101760864257812e+01" nEv="2.5160998535156250e+02" nSuw="1.3000000000000000e+02" nBuw="1.9400000000000000e+02" nEvuw="3.2400000000000000e+02" sepI="2.2872091829776764e-01" sepG="-1.0000000000000000e+00" res="-9.9000000000000000e+01" rms="0.0000000000000000e+00" nType="1" CC="0.0000000000000000e+00"/>
            <Node pos="r" depth="3" Seq="4" IVar="-1" Cut="0.0000000000000000e+00" cType="1" nS="2.9211936035156250e+03" nB="3.0425681152343750e+03" nEv="5.9637617187500000e+03" nSuw="1.4290000000000000e+03" nBuw="4.3350000000000000e+03" nEvuw="5.7640000000000000e+03" sepI="2.4989645183086395e-01" sepG="-1.0000000000000000e+00" res="-9.9000000000000000e+01" rms="0.0000000000000000e+00" nType="-1" CC="0.0000000000000000e+00"/>
          </Node>
          <Node pos="r" depth="2" Seq="2" IVar="-1" Cut="0.0000000000000000e+00" cType="1" nS="8.0441848754882812e+01" nB="1.7035258483886719e+02" nEv="2.5079443359375000e+02" nSuw="7.4000000000000000e+01" nBuw="1.8200000000000000e+02" nEvuw="2.5600000000000000e+02" sepI="2.1786877512931824e-01" sepG="-1.0000000000000000e+00" res="-9.9000000000000000e+01" rms="0.0000000000000000e+00" nType="-1" CC="0.0000000000000000e+00"/>
        </Node>
        <Node pos="r" depth="1" Seq="1" IVar="-1" Cut="0.0000000000000000e+00" cType="1" nS="3.1429990768432617e+01" nB="9.7911781311035156e+01" nEv="1.2934176635742188e+02" nSuw="1.2000000000000000e+01" nBuw="1.4600000000000000e+02" nEvuw="1.5800000000000000e+02" sepI="1.8395076692104340e-01" sepG="-1.0000000000000000e+00" res="-9.9000000000000000e+01" rms="0.0000000000000000e+00" nType="-1" CC="0.0000000000000000e+00"/>
      </Node>
    </BinaryTree>
    <BinaryTree type="DecisionTree" boostWeight="4.4966010954311256e-02" itree="17">
      <Node pos="s" depth="0" Seq="0" IVar="0" Cut="2.2919059753417969e+02" cType="1" nS="3.2766962890625000e+03" nB="3.3188115234375000e+03" nEv="6.5955078125000000e+03" nSuw="1.6450000000000000e+03" nBuw="4.8570000000000000e+03" nEvuw="6.5020000000000000e+03" sepI="2.4998980760574341e-01" sepG="7.7478260993957520e+00" res="-9.9000000000000000e+01" rms="0.0000000000000000e+00" nType="0" CC="0.0000000000000000e+00">
        <Node pos="l" depth="1" Seq="0" IVar="0" Cut="4.9430576324462891e+01" cType="0" nS="3.2443833007812500e+03" nB="3.2233730468750000e+03" nEv="6.4677563476562500e+03" nSuw="1.6330000000000000e+03" nBuw="4.7110000000000000e+03" nEvuw="6.3440000000000000e+03" sepI="2.4999736249446869e-01" sepG="7.4023942947387695e+00" res="-9.9000000000000000e+01" rms="0.0000000000000000e+00" nType="0" CC="0.0000000000000000e+00">
          <Node pos="l" depth="2" Seq="0" IVar="6" Cut="-1.4291304016113281e+02" cType="0" nS="3.1616809082031250e+03" nB="3.0573232421875000e+03" nEv="6.2190043945312500e+03" nSuw="1.5590000000000000e+03" nBuw="4.5290000000000000e+03" nEvuw="6.0880000000000000e+03" sepI="2.4992960691452026e-01" sepG="5.9071769714355469e+00" res="-9.9000000000000000e+01" rms="0.0000000000000000e+00" nType="0" CC="0.0000000000000000e+00">
            <Node pos="l" depth="3" Seq="0" IVar="-1" Cut="0.0000000000000000e+00" cType="1" nS="3.1616809082031250e+03" nB="3.0345517578125000e+03" nEv="6.1962329101562500e+03" nSuw="1.5590000000000000e+03" nBuw="4.2220000000000000e+03" nEvuw="5.7810000000000000e+03" sepI="2.4989476799964905e-01" sepG="-1.0000000000000000e+00" res="-9.9000000000000000e+01" rms="0.0000000000000000e+00" nType="1" CC="0.0000000000000000e+00"/>
            <Node pos="r" depth="3" Seq="4" IVar="-1" Cut="0.0000000000000000e+00" cType="1" nS="0.0000000000000000e+00" nB="2.2771541595458984e+01" nEv="2.2771541595458984e+01" nSuw="0.0000000000000000e+00" nBuw="3.0700000000000000e+02" nEvuw="3.0700000000000000e+02" sepI="0.0000000000000000e+00" sepG="-1.0000000000000000e+00" res="-9.9000000000000000e+01" rms="0.0000000000000000e+00" nType="-1" CC="0.0000000000000000e+00"/>
          </Node>
          <Node pos="r" depth="2" Seq="2" IVar="-1" Cut="0.0000000000000000e+00" cType="1" nS="8.2702217102050781e+01" nB="1.6604974365234375e+02" nEv="2.4875196838378906e+02" nSuw="7.4000000000000000e+01" nBuw="1.8200000000000000e+02" nEvuw="2.5600000000000000e+02" sepI="2.2193323075771332e-01" sepG="-1.0000000000000000e+00" res="-9.9000000000000000e+01" rms="0.0000000000000000e+00" nType="-1" CC="0.0000000000000000e+00"/>
        </Node>
        <Node pos="r" depth="1" Seq="1" IVar="-1" Cut="0.0000000000000000e+00" cType="1" nS="3.2313152313232422e+01" nB="9.5438682556152344e+01" nEv="1.2775183868408203e+02" nSuw="1.2000000000000000e+01" nBuw="1.4600000000000000e+02" nEvuw="1.5800000000000000e+02" sepI="1.8895982205867767e-01" sepG="-1.0000000000000000e+00" res="-9.9000000000000000e+01" rms="0.0000000000000000e+00" nType="-1" CC="0.0000000000000000e+00"/>
      </Node>
    </BinaryTree>
    <BinaryTree type="DecisionTree" boostWeight="9.2036456870339331e-02" itree="18">
      <Node pos="s" depth="0" Seq="0" IVar="8" Cut="2.3937439918518066e+00" cType="0" nS="3.2114536132812500e+03" nB="3.3840544433593750e+03" nEv="6.5955078125000000e+03" nSuw="1.6450000000000000e+03" nBuw="4.8570000000000000e+03" nEvuw="6.5020000000000000e+03" sepI="2.4982878565788269e-01" sepG="7.3287668228149414e+00" res="-9.9000000000000000e+01" rms="0.0000000000000000e+00" nType="0" CC="0.0000000000000000e+00">
        <Node pos="l" depth="1" Seq="0" IVar="4" Cut="1.5035113525390625e+02" cType="1" nS="7.1757965087890625e+02" nB="5.7681542968750000e+02" nEv="1.2943951416015625e+03" nSuw="4.2600000000000000e+02" nBuw="1.4180000000000000e+03" nEvuw="1.8440000000000000e+03" sepI="2.4704341590404510e-01" sepG="1.9585609436035156e+01" res="-9.9000000000000000e+01" rms="0.0000000000000000e+00" nType="0" CC="0.0000000000000000e+00">
          <Node pos="l" depth="2" Seq="0" IVar="-1" Cut="7.0580276489257812e+01" cType="1" nS="7.0274127197265625e+02" nB="4.8638208007812500e+02" nEv="1.1891232910156250e+03" nSuw="4.1900000000000000e+02" nBuw="1.0810000000000000e+03" nEvuw="1.5000000000000000e+03" sepI="2.4172368645668030e-01" sepG="-1.0000000000000000e+00" res="-9.9000000000000000e+01" rms="0.0000000000000000e+00" nType="1" CC="0.0000000000000000e+00"/>
          <Node pos="r" depth="2" Seq="2" IVar="-1" Cut="3.1002354621887207e-01" cType="1" nS="1.4838425636291504e+01" nB="9.0433357238769531e+01" nEv="1.0527178192138672e+02" nSuw="7.0000000000000000e+00" nBuw="3.3700000000000000e+02" nEvuw="3.4400000000000000e+02" sepI="1.2108560651540756e-01" sepG="-1.0000000000000000e+00" res="-9.9000000000000000e+01" rms="0.0000000000000000e+00" nType="-1" CC="0.0000000000000000e+00"/>
        </Node>
        <Node pos="r" depth="1" Seq="1" IVar="-1" Cut="5.5455204010009766e+01" cType="0" nS="2.4938740234375000e+03" nB="2.8072390136718750e+03" nEv="5.3011127929687500e+03" nSuw="1.2190000000000000e+03" nBuw="3.4390000000000000e+03" nEvuw="4.6580000000000000e+03" sepI="2.4912641942501068e-01" sepG="-1.0000000000000000e+00" res="-9.9000000000000000e+01" rms="0.0000000000000000e+00" nType="-1" CC="0.0000000000000000e+00"/>
      </Node>
    </BinaryTree>
    <BinaryTree type="DecisionTree" boostWeight="5.3971792483150483e-02" itree="19">
      <Node pos="s" depth="0" Seq="0" IVar="9" Cut="8.1721626281738281e+01" cType="0" nS="3.3084658203125000e+03" nB="3.2870419921875000e+03" nEv="6.5955078125000000e+03" nSuw="1.6450000000000000e+03" nBuw="4.8570000000000000e+03" nEvuw="6.5020000000000000e+03" sepI="2.4999736249446869e-01" sepG="6.3116469383239746e+00" res="-9.9000000000000000e+01" rms="0.0000000000000000e+00" nType="0" CC="0.0000000000000000e+00">
        <Node pos="l" depth="1" Seq="0" IVar="9" Cut="8.4041343688964844e+01" cType="1" nS="3.1811896972656250e+03" nB="3.0701308593750000e+03" nEv="6.2513203125000000e+03" nSuw="1.5900000000000000e+03" nBuw="4.6400000000000000e+03" nEvuw="6.2300000000000000e+03" sepI="2.4992109835147858e-01" sepG="8.2940216064453125e+00" res="-9.9000000000000000e+01" rms="0.0000000000000000e+00" nType="0" CC="0.0000000000000000e+00">
          <Node pos="l" depth="2" Seq="0" IVar="-1" Cut="0.0000000000000000e+00" cType="1" nS="1.6434822082519531e+02" nB="7.3079811096191406e+01" nEv="2.3742802429199219e+02" nSuw="4.4000000000000000e+01" nBuw="1.3300000000000000e+02" nEvuw="1.7700000000000000e+02" sepI="2.1305829286575317e-01" sepG="-1.0000000000000000e+00" res="-9.9000000000000000e+01" rms="0.0000000000000000e+00" nType="1" CC="0.0000000000000000e+00"/>
          <Node pos="r" depth="2" Seq="2" IVar="4" Cut="2.5189624023437500e+02" cType="1" nS="3.0168413085937500e+03" nB="2.9970510253906250e+03" nEv="6.0138925781250000e+03" nSuw="1.5460000000000000e+03" nBuw="4.5070000000000000e+03" nEvuw="6.0530000000000000e+03" sepI="2.4999728798866272e-01" sepG="6.2100577354431152e+00" res="-9.9000000000000000e+01" rms="0.0000000000000000e+00" nType="0" CC="0.0000000000000000e+00">
            <Node pos="l" depth="3" Seq="2" IVar="-1" Cut="0.0000000000000000e+00" cType="1" nS="2.9265871582031250e+03" nB="2.8293305664062500e+03" nEv="5.7559174804687500e+03" nSuw="1.5160000000000000e+03" nBuw="4.2860000000000000e+03" nEvuw="5.8020000000000000e+03" sepI="2.4992862343788147e-01" sepG="-1.0000000000000000e+00" res="-9.9000000000000000e+01" rms="0.0000000000000000e+00" nType="1" CC="0.0000000000000000e+00"/>
            <Node pos="r" depth="3" Seq="6" IVar="-1" Cut="0.0000000000000000e+00" cType="1" nS="9.0254302978515625e+01" nB="1.6772055053710938e+02" nEv="2.5797485351562500e+02" nSuw="3.0000000000000000e+01" nBuw="2.2100000000000000e+02" nEvuw="2.5100000000000000e+02" sepI="2.2745707631111145e-01" sepG="-1.0000000000000000e+00" res="-9.9000000000000000e+01" rms="0.0000000000000000e+00" nType="-1" CC="0.0000000000000000e+00"/>
          </Node>
        </Node>
        <Node pos="r" depth="1" Seq="1" IVar="-1" Cut="0.0000000000000000e+00" cType="1" nS="1.2727629089355469e+02" nB="2.1691122436523438e+02" nEv="3.4418750000000000e+02" nSuw="5.5000000000000000e+01" nBuw="2.1700000000000000e+02" nEvuw="2.7200000000000000e+02" sepI="2.3304474353790283e-01" sepG="-1.0000000000000000e+00" res="-9.9000000000000000e+01" rms="0.0000000000000000e+00" nType="-1" CC="0.0000000000000000e+00"/>
      </Node>
    </BinaryTree>
    <BinaryTree type="DecisionTree" boostWeight="1.1588645915312466e-01" itree="20">
      <Node pos="s" depth="0" Seq="0" IVar="6" Cut="-1.3536682128906250e+02" cType="0" nS="3.2356503906250000e+03" nB="3.3598576660156250e+03" nEv="6.5955078125000000e+03" nSuw="1.6450000000000000e+03" nBuw="4.8570000000000000e+03" nEvuw="6.5020000000000000e+03" sepI="2.4991133809089661e-01" sepG="5.1974663734436035e+00" res="-9.9000000000000000e+01" rms="0.0000000000000000e+00" nType="0" CC="0.0000000000000000e+00">
        <Node pos="l" depth="1" Seq="0" IVar="6" Cut="1.3286427307128906e+02" cType="0" nS="3.2337819824218750e+03" nB="3.3331142578125000e+03" nEv="6.5668959960937500e+03" nSuw="1.6430000000000000e+03" nBuw="4.4820000000000000e+03" nEvuw="6.1250000000000000e+03" sepI="2.4994279444217682e-01" sepG="9.9077863693237305e+00" res="-9.9000000000000000e+01" rms="0.0000000000000000e+00" nType="0" CC="0.0000000000000000e+00">
          <Node pos="l" depth="2" Seq="0" IVar="-1" Cut="0.0000000000000000e+00" cType="1" nS="1.0268817901611328e+02" nB="3.2335113525390625e+01" nEv="1.3502328491210938e+02" nSuw="7.0000000000000000e+01" nBuw="8.2000000000000000e+01" nEvuw="1.5200000000000000e+02" sepI="1.8212831020355225e-01" sepG="-1.0000000000000000e+00" res="-9.9000000000000000e+01" rms="0.0000000000000000e+00" nType="1" CC="0.0000000000000000e+00"/>
          <Node pos="r" depth="2" Seq="2" IVar="3" Cut="5.7377265930175781e+01" cType="0" nS="3.1310937500000000e+03" nB="3.3007790527343750e+03" nEv="6.4318730468750000e+03" nSuw="1.5730000000000000e+03" nBuw="4.4000000000000000e+03" nEvuw="5.9730000000000000e+03" sepI="2.4982599914073944e-01" sepG="1.6834423065185547e+01" res="-9.9000000000000000e+01" rms="0.0000000000000000e+00" nType="0" CC="0.0000000000000000e+00">
            <Node pos="l" depth="3" Seq="2" IVar="-1" Cut="0.0000000000000000e+00" cType="1" nS="1.6524140625000000e+03" nB="1.4044074707031250e+03" nEv="3.0568215332031250e+03" nSuw="1.3130000000000000e+03" nBuw="2.7320000000000000e+03" nEvuw="4.0450000000000000e+03" sepI="2.4835439026355743e-01" sepG="-1.0000000000000000e+00" res="-9.9000000000000000e+01" rms="0.0000000000000000e+00" nType="1" CC="0.0000000000000000e+00"/>
            <Node pos="r" depth="3" Seq="6" IVar="-1" Cut="0.0000000000000000e+00" cType="1" nS="1.4786796875000000e+03" nB="1.8963715820312500e+03" nEv="3.3750512695312500e+03" nSuw="2.6000000000000000e+02" nBuw="1.6680000000000000e+03" nEvuw="1.9280000000000000e+03" sepI="2.4617095291614532e-01" sepG="-1.0000000000000000e+00" res="-9.9000000000000000e+01" rms="0.0000000000000000e+00" nType="-1" CC="0.0000000000000000e+00"/>
          </Node>
        </Node>
        <Node pos="r" depth="1" Seq="1" IVar="-1" Cut="1.2685648345947266e+02" cType="1" nS="1.8683843612670898e+00" nB="2.6743560791015625e+01" nEv="2.8611944198608398e+01" nSuw="2.0000000000000000e+00" nBuw="3.7500000000000000e+02" nEvuw="3.7700000000000000e+02" sepI="6.1036650091409683e-02" sepG="-1.0000000000000000e+00" res="-9.9000000000000000e+01" rms="0.0000000000000000e+00" nType="-1" CC="0.0000000000000000e+00"/>
      </Node>
    </BinaryTree>
    <BinaryTree type="DecisionTree" boostWeight="9.9262285045311163e-02" itree="21">
      <Node pos="s" depth="0" Seq="0" IVar="0" Cut="5.5455204010009766e+01" cType="0" nS="3.2414038085937500e+03" nB="3.3541042480468750e+03" nEv="6.5955078125000000e+03" nSuw="1.6450000000000000e+03" nBuw="4.8570000000000000e+03" nEvuw="6.5020000000000000e+03" sepI="2.4992699921131134e-01" sepG="5.6300392150878906e+00" res="-9.9000000000000000e+01" rms="0.0000000000000000e+00" nType="0" CC="0.0000000000000000e+00">
        <Node pos="l" depth="1" Seq="0" IVar="2" Cut="-1.8171112537384033e+00" cType="0" nS="3.0513564453125000e+03" nB="3.0546726074218750e+03" nEv="6.1060292968750000e+03" nSuw="1.5070000000000000e+03" nBuw="4.4980000000000000e+03" nEvuw="6.0050000000000000e+03" sepI="2.4999992549419403e-01" sepG="7.9303483963012695e+00" res="-9.9000000000000000e+01" rms="0.0000000000000000e+00" nType="0" CC="0.0000000000000000e+00">
          <Node pos="l" depth="2" Seq="0" IVar="2" Cut="1.4852597713470459e+00" cType="1" nS="2.9273679199218750e+03" nB="2.8281149902343750e+03" nEv="5.7554829101562500e+03" nSuw="1.4540000000000000e+03" nBuw="4.1010000000000000e+03" nEvuw="5.5550000000000000e+03" sepI="2.4992565810680389e-01" sepG="6.4676599502563477e+00" res="-9.9000000000000000e+01" rms="0.0000000000000000e+00" nType="0" CC="0.0000000000000000e+00">
            <Node pos="l" depth="3" Seq="0" IVar="-1" Cut="0.0000000000000000e+00" cType="1" nS="2.5846440429687500e+03" nB="2.3654113769531250e+03" nEv="4.9500551757812500e+03" nSuw="1.3080000000000000e+03" nBuw="3.3630000000000000e+03" nEvuw="4.6710000000000000e+03" sepI="2.4950961768627167e-01" sepG="-1.0000000000000000e+00" res="-9.9000000000000000e+01" rms="0.0000000000000000e+00" nType="1" CC="0.0000000000000000e+00"/>
            <Node pos="r" depth="3" Seq="4" IVar="-1" Cut="0.0000000000000000e+00" cType="1" nS="3.4272393798828125e+02" nB="4.6270367431640625e+02" nEv="8.0542761230468750e+02" nSuw="1.4600000000000000e+02" nBuw="7.3800000000000000e+02" nEvuw="8.8400000000000000e+02" sepI="2.4445243179798126e-01" sepG="-1.0000000000000000e+00" res="-9.9000000000000000e+01" rms="0.0000000000000000e+00" nType="-1" CC="0.0000000000000000e+00"/>
          </Node>
          <Node pos="r" depth="2" Seq="2" IVar="8" Cut="1.4967091083526611e+00" cType="0" nS="1.2398841857910156e+02" nB="2.2655761718750000e+02" nEv="3.5054605102539062e+02" nSuw="5.3000000000000000e+01" nBuw="3.9700000000000000e+02" nEvuw="4.5000000000000000e+02" sepI="2.2859655320644379e-01" sepG="1.5222977638244629e+01" res="-9.9000000000000000e+01" rms="0.0000000000000000e+00" nType="0" CC="0.0000000000000000e+00">
            <Node pos="l" depth="3" Seq="2" IVar="-1" Cut="0.0000000000000000e+00" cType="1" nS="9.5521049499511719e+01" nB="7.1392440795898438e+01" nEv="1.6691349792480469e+02" nSuw="3.7000000000000000e+01" nBuw="2.0500000000000000e+02" nEvuw="2.4200000000000000e+02" sepI="2.4477577209472656e-01" sepG="-1.0000000000000000e+00" res="-9.9000000000000000e+01" rms="0.0000000000000000e+00" nType="1" CC="0.0000000000000000e+00"/>
            <Node pos="r" depth="3" Seq="6" IVar="-1" Cut="0.0000000000000000e+00" cType="1" nS="2.8467369079589844e+01" nB="1.5516517639160156e+02" nEv="1.8363255310058594e+02" nSuw="1.6000000000000000e+01" nBuw="1.9200000000000000e+02" nEvuw="2.0800000000000000e+02" sepI="1.3099125027656555e-01" sepG="-1.0000000000000000e+00" res="-9.9000000000000000e+01" rms="0.0000000000000000e+00" nType="-1" CC="0.0000000000000000e+00"/>
          </Node>
        </Node>
        <Node pos="r" depth="1" Seq="1" IVar="8" Cut="2.3962769508361816e+00" cType="0" nS="1.9004743957519531e+02" nB="2.9943151855468750e+02" nEv="4.8947894287109375e+02" nSuw="1.3800000000000000e+02" nBuw="3.5900000000000000e+02" nEvuw="4.9700000000000000e+02" sepI="2.3751524090766907e-01" sepG="7.5602645874023438e+00" res="-9.9000000000000000e+01" rms="0.0000000000000000e+00" nType="0" CC="0.0000000000000000e+00">
          <Node pos="l" depth="2" Seq="1" IVar="-1" Cut="0.0000000000000000e+00" cType="1" nS="6.4933502197265625e+01" nB="3.8373271942138672e+01" nEv="1.0330677795410156e+02" nSuw="5.7000000000000000e+01" nBuw="1.1600000000000000e+02" nEvuw="1.7300000000000000e+02" sepI="2.3347482085227966e-01" sepG="-1.0000000000000000e+00" res="-9.9000000000000000e+01" rms="0.0000000000000000e+00" nType="1" CC="0.0000000000000000e+00"/>
          <Node pos="r" depth="2" Seq="3" IVar="-1" Cut="4.9525741577148438e+01" cType="0" nS="1.2511392974853516e+02" nB="2.6105825805664062e+02" nEv="3.8617218017578125e+02" nSuw="8.1000000000000000e+01" nBuw="2.4300000000000000e+02" nEvuw="3.2400000000000000e+02" sepI="2.1901866793632507e-01" sepG="-1.0000000000000000e+00" res="-9.9000000000000000e+01" rms="0.0000000000000000e+00" nType="-1" CC="0.0000000000000000e+00"/>
        </Node>
      </Node>
    </BinaryTree>
    <BinaryTree type="DecisionTree" boostWeight="1.1462699079905959e-01" itree="22">
      <Node pos="s" depth="0" Seq="0" IVar="2" Cut="-7.2927987575531006e-01" cType="0" nS="3.1453173828125000e+03" nB="3.4501906738281250e+03" nEv="6.5955078125000000e+03" nSuw="1.6450000000000000e+03" nBuw="4.8570000000000000e+03" nEvuw="6.5020000000000000e+03" sepI="2.4946582317352295e-01" sepG="6.0213789939880371e+00" res="-9.9000000000000000e+01" rms="0.0000000000000000e+00" nType="0" CC="0.0000000000000000e+00">
        <Node pos="l" depth="1" Seq="0" IVar="7" Cut="7.0553459167480469e+01" cType="1" nS="2.3065112304687500e+03" nB="2.3393950195312500e+03" nEv="4.6459062500000000e+03" nSuw="1.1760000000000000e+03" nBuw="3.2380000000000000e+03" nEvuw="4.4140000000000000e+03" sepI="2.4998746812343597e-01" sepG="8.2624111175537109e+00" res="-9.9000000000000000e+01" rms="0.0000000000000000e+00" nType="0" CC="0.0000000000000000e+00">
          <Node pos="l" depth="2" Seq="0" IVar="4" Cut="2.5189624023437500e+02" cType="1" nS="2.1613117675781250e+03" nB="2.0809729003906250e+03" nEv="4.2422846679687500e+03" nSuw="9.3800000000000000e+02" nBuw="2.8000000000000000e+03" nEvuw="3.7380000000000000e+03" sepI="2.4991033971309662e-01" sepG="5.8697552680969238e+00" res="-9.9000000000000000e+01" rms="0.0000000000000000e+00" nType="0" CC="0.0000000000000000e+00">
            <Node pos="l" depth="3" Seq="0" IVar="-1" Cut="0.0000000000000000e+00" cType="1" nS="2.0949143066406250e+03" nB="1.9521457519531250e+03" nEv="4.0470600585937500e+03" nSuw="9.1600000000000000e+02" nBuw="2.6550000000000000e+03" nEvuw="3.5710000000000000e+03" sepI="2.4968887865543365e-01" sepG="-1.0000000000000000e+00" res="-9.9000000000000000e+01" rms="0.0000000000000000e+00" nType="1" CC="0.0000000000000000e+00"/>
            <Node pos="r" depth="3" Seq="4" IVar="-1" Cut="0.0000000000000000e+00" cType="1" nS="6.6397445678710938e+01" nB="1.2882708740234375e+02" nEv="1.9522453308105469e+02" nSuw="2.2000000000000000e+01" nBuw="1.4500000000000000e+02" nEvuw="1.6700000000000000e+02" sepI="2.2443458437919617e-01" sepG="-1.0000000000000000e+00" res="-9.9000000000000000e+01" rms="0.0000000000000000e+00" nType="-1" CC="0.0000000000000000e+00"/>
          </Node>
          <Node pos="r" depth="2" Seq="2" IVar="3" Cut="1.5171665954589844e+02" cType="0" nS="1.4519935607910156e+02" nB="2.5842218017578125e+02" nEv="4.0362155151367188e+02" nSuw="2.3800000000000000e+02" nBuw="4.3800000000000000e+02" nEvuw="6.7600000000000000e+02" sepI="2.3032750189304352e-01" sepG="4.6091589927673340e+00" res="-9.9000000000000000e+01" rms="0.0000000000000000e+00" nType="0" CC="0.0000000000000000e+00">
            <Node pos="l" depth="3" Seq="2" IVar="-1" Cut="0.0000000000000000e+00" cType="1" nS="4.9611701965332031e+01" nB="3.8723751068115234e+01" nEv="8.8335449218750000e+01" nSuw="6.1000000000000000e+01" nBuw="1.5200000000000000e+02" nEvuw="2.1300000000000000e+02" sepI="2.4620193243026733e-01" sepG="-1.0000000000000000e+00" res="-9.9000000000000000e+01" rms="0.0000000000000000e+00" nType="1" CC="0.0000000000000000e+00"/>
            <Node pos="r" depth="3" Seq="6" IVar="-1" Cut="0.0000000000000000e+00" cType="1" nS="9.5587654113769531e+01" nB="2.1969844055175781e+02" nEv="3.1528610229492188e+02" nSuw="1.7700000000000000e+02" nBuw="2.8600000000000000e+02" nEvuw="4.6300000000000000e+02" sepI="2.1126091480255127e-01" sepG="-1.0000000000000000e+00" res="-9.9000000000000000e+01" rms="0.0000000000000000e+00" nType="-1" CC="0.0000000000000000e+00"/>
          </Node>
        </Node>
        <Node pos="r" depth="1" Seq="1" IVar="8" Cut="1.4978799819946289e+00" cType="0" nS="8.3880615234375000e+02" nB="1.1107957763671875e+03" nEv="1.9496019287109375e+03" nSuw="4.6900000000000000e+02" nBuw="1.6190000000000000e+03" nEvuw="2.0880000000000000e+03" sepI="2.4513421952724457e-01" sepG="1.0942747116088867e+01" res="-9.9000000000000000e+01" rms="0.0000000000000000e+00" nType="0" CC="0.0000000000000000e+00">
          <Node pos="l" depth="2" Seq="1" IVar="4" Cut="1.5038064575195312e+02" cType="1" nS="5.3867346191406250e+02" nB="5.4465551757812500e+02" nEv="1.0833289794921875e+03" nSuw="3.1900000000000000e+02" nBuw="9.1200000000000000e+02" nEvuw="1.2310000000000000e+03" sepI="2.4999237060546875e-01" sepG="9.9356966018676758e+00" res="-9.9000000000000000e+01" rms="0.0000000000000000e+00" nType="0" CC="0.0000000000000000e+00">
            <Node pos="l" depth="3" Seq="1" IVar="-1" Cut="0.0000000000000000e+00" cType="1" nS="5.1450262451171875e+02" nB="4.5664575195312500e+02" nEv="9.7114837646484375e+02" nSuw="3.0700000000000000e+02" nBuw="7.5700000000000000e+02" nEvuw="1.0640000000000000e+03" sepI="2.4911268055438995e-01" sepG="-1.0000000000000000e+00" res="-9.9000000000000000e+01" rms="0.0000000000000000e+00" nType="1" CC="0.0000000000000000e+00"/>
            <Node pos="r" depth="3" Seq="5" IVar="-1" Cut="0.0000000000000000e+00" cType="1" nS="2.4170845031738281e+01" nB="8.8009727478027344e+01" nEv="1.1218057250976562e+02" nSuw="1.2000000000000000e+01" nBuw="1.5500000000000000e+02" nEvuw="1.6700000000000000e+02" sepI="1.6903911530971527e-01" sepG="-1.0000000000000000e+00" res="-9.9000000000000000e+01" rms="0.0000000000000000e+00" nType="-1" CC="0.0000000000000000e+00"/>
          </Node>
          <Node pos="r" depth="2" Seq="3" IVar="3" Cut="6.0568531036376953e+01" cType="0" nS="3.0013265991210938e+02" nB="5.6614025878906250e+02" nEv="8.6627288818359375e+02" nSuw="1.5000000000000000e+02" nBuw="7.0700000000000000e+02" nEvuw="8.5700000000000000e+02" sepI="2.2642679512500763e-01" sepG="1.6513700485229492e+01" res="-9.9000000000000000e+01" rms="0.0000000000000000e+00" nType="0" CC="0.0000000000000000e+00">
            <Node pos="l" depth="3" Seq="3" IVar="-1" Cut="0.0000000000000000e+00" cType="1" nS="1.7618386840820312e+02" nB="1.6376937866210938e+02" nEv="3.3995324707031250e+02" nSuw="1.3100000000000000e+02" nBuw="3.3500000000000000e+02" nEvuw="4.6600000000000000e+02" sepI="2.4966660141944885e-01" sepG="-1.0000000000000000e+00" res="-9.9000000000000000e+01" rms="0.0000000000000000e+00" nType="1" CC="0.0000000000000000e+00"/>
            <Node pos="r" depth="3" Seq="7" IVar="-1" Cut="0.0000000000000000e+00" cType="1" nS="1.2394878387451172e+02" nB="4.0237088012695312e+02" nEv="5.2631964111328125e+02" nSuw="1.9000000000000000e+01" nBuw="3.7200000000000000e+02" nEvuw="3.9100000000000000e+02" sepI="1.8004025518894196e-01" sepG="-1.0000000000000000e+00" res="-9.9000000000000000e+01" rms="0.0000000000000000e+00" nType="-1" CC="0.0000000000000000e+00"/>
          </Node>
        </Node>
      </Node>
    </BinaryTree>
    <BinaryTree type="DecisionTree" boostWeight="1.0496752869897120e-01" itree="23">
      <Node pos="s" depth="0" Seq="0" IVar="9" Cut="8.1721626281738281e+01" cType="0" nS="3.0204882812500000e+03" nB="3.5750197753906250e+03" nEv="6.5955078125000000e+03" nSuw="1.6450000000000000e+03" nBuw="4.8570000000000000e+03" nEvuw="6.5020000000000000e+03" sepI="2.4823275208473206e-01" sepG="5.0201144218444824e+00" res="-9.9000000000000000e+01" rms="0.0000000000000000e+00" nType="0" CC="0.0000000000000000e+00">
        <Node pos="l" depth="1" Seq="0" IVar="9" Cut="8.4041343688964844e+01" cType="1" nS="2.9033320312500000e+03" nB="3.3479882812500000e+03" nEv="6.2513203125000000e+03" nSuw="1.5900000000000000e+03" nBuw="4.6400000000000000e+03" nEvuw="6.2300000000000000e+03" sepI="2.4873512983322144e-01" sepG="7.9900450706481934e+00" res="-9.9000000000000000e+01" rms="0.0000000000000000e+00" nType="0" CC="0.0000000000000000e+00">
          <Node pos="l" depth="2" Seq="0" IVar="-1" Cut="0.0000000000000000e+00" cType="1" nS="1.4805424499511719e+02" nB="8.0428596496582031e+01" nEv="2.2848283386230469e+02" nSuw="4.4000000000000000e+01" nBuw="1.3300000000000000e+02" nEvuw="1.7700000000000000e+02" sepI="2.2809942066669464e-01" sepG="-1.0000000000000000e+00" res="-9.9000000000000000e+01" rms="0.0000000000000000e+00" nType="1" CC="0.0000000000000000e+00"/>
          <Node pos="r" depth="2" Seq="2" IVar="-1" Cut="-1.3536682128906250e+02" cType="0" nS="2.7552778320312500e+03" nB="3.2675595703125000e+03" nEv="6.0228374023437500e+03" nSuw="1.5460000000000000e+03" nBuw="4.5070000000000000e+03" nEvuw="6.0530000000000000e+03" sepI="2.4819134175777435e-01" sepG="-1.0000000000000000e+00" res="-9.9000000000000000e+01" rms="0.0000000000000000e+00" nType="-1" CC="0.0000000000000000e+00"/>
        </Node>
        <Node pos="r" depth="1" Seq="1" IVar="-1" Cut="0.0000000000000000e+00" cType="1" nS="1.1715628051757812e+02" nB="2.2703143310546875e+02" nEv="3.4418771362304688e+02" nSuw="5.5000000000000000e+01" nBuw="2.1700000000000000e+02" nEvuw="2.7200000000000000e+02" sepI="2.2452300786972046e-01" sepG="-1.0000000000000000e+00" res="-9.9000000000000000e+01" rms="0.0000000000000000e+00" nType="-1" CC="0.0000000000000000e+00"/>
      </Node>
    </BinaryTree>
    <BinaryTree type="DecisionTree" boostWeight="3.5483865140343955e-02" itree="24">
      <Node pos="s" depth="0" Seq="0" IVar="-1" Cut="8.1721626281738281e+01" cType="0" nS="3.1807861328125000e+03" nB="3.4147219238281250e+03" nEv="6.5955078125000000e+03" nSuw="1.6450000000000000e+03" nBuw="4.8570000000000000e+03" nEvuw="6.5020000000000000e+03" sepI="2.4968548119068146e-01" sepG="-1.0000000000000000e+00" res="-9.9000000000000000e+01" rms="0.0000000000000000e+00" nType="-1" CC="0.0000000000000000e+00"/>
    </BinaryTree>
    <BinaryTree type="DecisionTree" boostWeight="3.3657097098389960e-02" itree="25">
